{"learner":{"attributes":{"best_iteration":"591","best_score":"0.41092836728861387"},"feature_names":["logit1","logit2","logit3","logit4","prob1","prob2","prob3","prob4","number_of_runners","field_size","purse_usa","distance_id","post_hour","total_pool","avg_field_odds","odds_std","favorite_odds","longshot_odds","odds_range","prob_product","prob_sum","prob_entropy","min_prob","max_prob","pool_per_runner","purse_per_runner","harville_log","prob_variance","surface_D","surface_T","surface_nan","course_type_C","course_type_D","course_type_E","course_type_I","course_type_M","course_type_N","course_type_O","course_type_T","course_type_nan","track_condition_","track_condition_FM","track_condition_FT","track_condition_GD","track_condition_HD","track_condition_HY","track_condition_MY","track_condition_SF","track_condition_SY","track_condition_WF","track_condition_YL","track_condition_nan","w1_n_prior_starts","w1_prior_win_rate","w1_prior_top3_rate","w1_avg_finish_all","w1_avg_finish_last5","w1_days_since_last","w1_avg_prior_purse","w1_class_change","w1_surface_prior_starts","w1_surface_win_rate","w1_surface_avg_finish","w1_distance_prior_starts","w1_distance_win_rate","w1_distance_avg_finish","w1_track_prior_starts","w1_track_win_rate","w1_track_avg_finish","w2_n_prior_starts","w2_prior_win_rate","w2_prior_top3_rate","w2_avg_finish_all","w2_avg_finish_last5","w2_days_since_last","w2_avg_prior_purse","w2_class_change","w2_surface_prior_starts","w2_surface_win_rate","w2_surface_avg_finish","w2_distance_prior_starts","w2_distance_win_rate","w2_distance_avg_finish","w2_track_prior_starts","w2_track_win_rate","w2_track_avg_finish","w3_n_prior_starts","w3_prior_win_rate","w3_prior_top3_rate","w3_avg_finish_all","w3_avg_finish_last5","w3_days_since_last","w3_avg_prior_purse","w3_class_change","w3_surface_prior_starts","w3_surface_win_rate","w3_surface_avg_finish","w3_distance_prior_starts","w3_distance_win_rate","w3_distance_avg_finish","w3_track_prior_starts","w3_track_win_rate","w3_track_avg_finish","w4_n_prior_starts","w4_prior_win_rate","w4_prior_top3_rate","w4_avg_finish_all","w4_avg_finish_last5","w4_days_since_last","w4_avg_prior_purse","w4_class_change","w4_surface_prior_starts","w4_surface_win_rate","w4_surface_avg_finish","w4_distance_prior_starts","w4_distance_win_rate","w4_distance_avg_finish","w4_track_prior_starts","w4_track_win_rate","w4_track_avg_finish","avg_n_prior_starts","min_n_prior_starts","max_n_prior_starts","avg_prior_win_rate","min_prior_win_rate","max_prior_win_rate","avg_prior_top3_rate","min_prior_top3_rate","max_prior_top3_rate","avg_avg_finish_all","min_avg_finish_all","max_avg_finish_all","avg_avg_finish_last5","min_avg_finish_last5","max_avg_finish_last5","avg_days_since_last","min_days_since_last","max_days_since_last","avg_avg_prior_purse","min_avg_prior_purse","max_avg_prior_purse","avg_class_change","min_class_change","max_class_change","avg_surface_prior_starts","min_surface_prior_starts","max_surface_prior_starts","avg_surface_win_rate","min_surface_win_rate","max_surface_win_rate","avg_surface_avg_finish","min_surface_avg_finish","max_surface_avg_finish","avg_distance_prior_starts","min_distance_prior_starts","max_distance_prior_starts","avg_distance_win_rate","min_distance_win_rate","max_distance_win_rate","avg_distance_avg_finish","min_distance_avg_finish","max_distance_avg_finish","avg_track_prior_starts","min_track_prior_starts","max_track_prior_starts","avg_track_win_rate","min_track_win_rate","max_track_win_rate","avg_track_avg_finish","min_track_avg_finish","max_track_avg_finish","n_debut_winners"],"feature_types":[],"gradient_booster":{"model":{"gbtree_model_param":{"num_parallel_tree":"1","num_trees":"595"},"iteration_indptr":[0,1,2,3,4,5,6,7,8,9,10,11,12,13,14,15,16,17,18,19,20,21,22,23,24,25,26,27,28,29,30,31,32,33,34,35,36,37,38,39,40,41,42,43,44,45,46,47,48,49,50,51,52,53,54,55,56,57,58,59,60,61,62,63,64,65,66,67,68,69,70,71,72,73,74,75,76,77,78,79,80,81,82,83,84,85,86,87,88,89,90,91,92,93,94,95,96,97,98,99,100,101,102,103,104,105,106,107,108,109,110,111,112,113,114,115,116,117,118,119,120,121,122,123,124,125,126,127,128,129,130,131,132,133,134,135,136,137,138,139,140,141,142,143,144,145,146,147,148,149,150,151,152,153,154,155,156,157,158,159,160,161,162,163,164,165,166,167,168,169,170,171,172,173,174,175,176,177,178,179,180,181,182,183,184,185,186,187,188,189,190,191,192,193,194,195,196,197,198,199,200,201,202,203,204,205,206,207,208,209,210,211,212,213,214,215,216,217,218,219,220,221,222,223,224,225,226,227,228,229,230,231,232,233,234,235,236,237,238,239,240,241,242,243,244,245,246,247,248,249,250,251,252,253,254,255,256,257,258,259,260,261,262,263,264,265,266,267,268,269,270,271,272,273,274,275,276,277,278,279,280,281,282,283,284,285,286,287,288,289,290,291,292,293,294,295,296,297,298,299,300,301,302,303,304,305,306,307,308,309,310,311,312,313,314,315,316,317,318,319,320,321,322,323,324,325,326,327,328,329,330,331,332,333,334,335,336,337,338,339,340,341,342,343,344,345,346,347,348,349,350,351,352,353,354,355,356,357,358,359,360,361,362,363,364,365,366,367,368,369,370,371,372,373,374,375,376,377,378,379,380,381,382,383,384,385,386,387,388,389,390,391,392,393,394,395,396,397,398,399,400,401,402,403,404,405,406,407,408,409,410,411,412,413,414,415,416,417,418,419,420,421,422,423,424,425,426,427,428,429,430,431,432,433,434,435,436,437,438,439,440,441,442,443,444,445,446,447,448,449,450,451,452,453,454,455,456,457,458,459,460,461,462,463,464,465,466,467,468,469,470,471,472,473,474,475,476,477,478,479,480,481,482,483,484,485,486,487,488,489,490,491,492,493,494,495,496,497,498,499,500,501,502,503,504,505,506,507,508,509,510,511,512,513,514,515,516,517,518,519,520,521,522,523,524,525,526,527,528,529,530,531,532,533,534,535,536,537,538,539,540,541,542,543,544,545,546,547,548,549,550,551,552,553,554,555,556,557,558,559,560,561,562,563,564,565,566,567,568,569,570,571,572,573,574,575,576,577,578,579,580,581,582,583,584,585,586,587,588,589,590,591,592,593,594,595],"tree_info":[0,0,0,0,0,0,0,0,0,0,0,0,0,0,0,0,0,0,0,0,0,0,0,0,0,0,0,0,0,0,0,0,0,0,0,0,0,0,0,0,0,0,0,0,0,0,0,0,0,0,0,0,0,0,0,0,0,0,0,0,0,0,0,0,0,0,0,0,0,0,0,0,0,0,0,0,0,0,0,0,0,0,0,0,0,0,0,0,0,0,0,0,0,0,0,0,0,0,0,0,0,0,0,0,0,0,0,0,0,0,0,0,0,0,0,0,0,0,0,0,0,0,0,0,0,0,0,0,0,0,0,0,0,0,0,0,0,0,0,0,0,0,0,0,0,0,0,0,0,0,0,0,0,0,0,0,0,0,0,0,0,0,0,0,0,0,0,0,0,0,0,0,0,0,0,0,0,0,0,0,0,0,0,0,0,0,0,0,0,0,0,0,0,0,0,0,0,0,0,0,0,0,0,0,0,0,0,0,0,0,0,0,0,0,0,0,0,0,0,0,0,0,0,0,0,0,0,0,0,0,0,0,0,0,0,0,0,0,0,0,0,0,0,0,0,0,0,0,0,0,0,0,0,0,0,0,0,0,0,0,0,0,0,0,0,0,0,0,0,0,0,0,0,0,0,0,0,0,0,0,0,0,0,0,0,0,0,0,0,0,0,0,0,0,0,0,0,0,0,0,0,0,0,0,0,0,0,0,0,0,0,0,0,0,0,0,0,0,0,0,0,0,0,0,0,0,0,0,0,0,0,0,0,0,0,0,0,0,0,0,0,0,0,0,0,0,0,0,0,0,0,0,0,0,0,0,0,0,0,0,0,0,0,0,0,0,0,0,0,0,0,0,0,0,0,0,0,0,0,0,0,0,0,0,0,0,0,0,0,0,0,0,0,0,0,0,0,0,0,0,0,0,0,0,0,0,0,0,0,0,0,0,0,0,0,0,0,0,0,0,0,0,0,0,0,0,0,0,0,0,0,0,0,0,0,0,0,0,0,0,0,0,0,0,0,0,0,0,0,0,0,0,0,0,0,0,0,0,0,0,0,0,0,0,0,0,0,0,0,0,0,0,0,0,0,0,0,0,0,0,0,0,0,0,0,0,0,0,0,0,0,0,0,0,0,0,0,0,0,0,0,0,0,0,0,0,0,0,0,0,0,0,0,0,0,0,0,0,0,0,0,0,0,0,0,0,0,0,0,0,0,0,0,0,0,0,0,0,0,0,0,0,0,0,0,0,0,0,0,0,0,0,0,0,0,0,0,0,0,0,0,0,0,0,0,0,0,0,0,0,0,0,0,0,0,0,0,0,0,0,0,0,0,0,0,0,0,0,0,0,0,0,0,0,0],"trees":[{"base_weights":[7.517462E-4,-4.1212597E-1,2.528555E-1,-7.4684834E-1,-2.6886982E-1,9.886008E-2,4.28886E-1,-1.0675722E0,-5.7164884E-1,-5.7617694E-1,-6.8453446E-2,-1.1649147E-1,2.2414766E-1,3.456532E-1,5.0715274E-1,-1.2815928E0,-9.3504286E-1,-9.254869E-1,-4.2091876E-1,-7.2354543E-1,-3.3464563E-1,2.2222398E-1,-1.2245324E-1,-2.9046002E-1,5.247819E-2,4.7707906E-1,1.8949656E-1,2.4588345E-1,4.4455388E-1,4.5863593E-1,6.054208E-1,-1.3249665E0,-6.334712E-1,-1.1197214E0,-6.889472E-1,-5.776187E-1,-1.0179241E0,-1.2784308E-1,-5.080399E-1,-9.356725E-1,-5.3891295E-1,-4.6389776E-1,-1.4601976E-1,3.494169E-2,3.7260374E-1,-2.4947825E-1,-4.937323E-3,-5.179252E-1,-1.8201843E-1,-2.1776536E-2,2.0507528E-1,3.40232E-1,5.904834E-1,1.03143565E-1,2.8053558E-1,1.1012532E-1,3.051564E-1,5.8736163E-1,4.0570965E-1,5.102318E-1,4.0482318E-1,5.6793344E-1,4.2642504E-2,-5.995423E-2,-8.337237E-2,-5.5408147E-3,-4.273138E-2,-7.173766E-2,-4.428278E-2,-2.0925049E-2,-4.7268923E-2,-4.660915E-2,-1.3868844E-2,-7.416116E-2,-5.3583752E-2,-2.7041525E-2,-1.8411056E-3,-7.392234E-3,-3.362095E-2,-7.403372E-2,-4.8784763E-2,-4.2088795E-2,-2.1367963E-2,-3.513019E-2,-9.825187E-3,9.0937335E-3,-1.3391927E-2,-9.716231E-3,6.607253E-3,3.0471057E-2,1.5231994E-2,-2.2245916E-2,-4.4644387E-3,1.3660811E-2,-2.6207229E-3,-4.25853E-2,-2.3047628E-2,5.977926E-3,-1.43139195E-2,-1.0410608E-2,4.8859254E-3,1.3498262E-2,-2.368013E-2,-2.4766391E-2,2.111973E-2,3.5381112E-2,-0E0,4.8088768E-4,1.377631E-2,1.3294755E-2,2.2071598E-2,-2.111871E-3,1.0952644E-2,3.0273432E-2,1.5616378E-2,4.0292576E-2,2.726346E-2,1.8765721E-2,2.6901923E-2,3.4995407E-2,2.8018372E-2,1.9390987E-2,2.9080106E-2,3.6157455E-2,2.9033389E-2],"categories":[],"categories_nodes":[],"categories_segments":[],"categories_sizes":[],"default_left":[0,0,0,0,0,0,0,0,0,0,0,0,0,0,0,0,0,0,0,0,0,0,0,0,0,0,0,0,0,0,0,0,0,0,0,0,0,0,0,0,0,0,0,0,0,0,0,0,0,0,0,0,0,0,0,0,0,0,0,0,0,0,0,0,0,0,0,0,0,0,0,0,0,0,0,0,0,0,0,0,0,0,0,0,0,0,0,0,0,0,0,0,0,0,0,0,0,0,0,0,0,0,0,0,0,0,0,0,0,0,0,0,0,0,0,0,0,0,0,0,0,0,0,0,0],"id":0,"left_children":[1,3,5,7,9,11,13,15,17,19,21,23,25,27,29,31,33,35,37,39,41,43,45,47,49,51,53,55,57,59,61,63,65,67,69,71,73,75,77,79,81,83,85,87,89,91,93,95,97,99,101,103,105,107,109,111,113,115,117,119,121,123,-1,-1,-1,-1,-1,-1,-1,-1,-1,-1,-1,-1,-1,-1,-1,-1,-1,-1,-1,-1,-1,-1,-1,-1,-1,-1,-1,-1,-1,-1,-1,-1,-1,-1,-1,-1,-1,-1,-1,-1,-1,-1,-1,-1,-1,-1,-1,-1,-1,-1,-1,-1,-1,-1,-1,-1,-1,-1,-1,-1,-1,-1,-1],"loss_changes":[5.949171E3,1.0367305E3,9.611052E2,3.602229E2,9.3382043E2,5.1123505E2,1.0596387E2,5.784424E1,2.2102612E2,2.1076428E2,1.4424214E2,2.0510461E2,1.0364911E2,7.7921326E1,3.8087402E1,1.8671875E1,5.9727417E1,3.596704E1,7.4306946E1,1.4159412E2,5.4377197E1,3.9768127E1,1.1543329E2,8.334796E1,4.030677E1,2.0203552E1,8.220151E1,3.1561676E1,2.0051575E1,1.382251E1,9.157349E0,1.4273804E1,1.5450954E0,2.3355103E1,2.0912872E1,1.7753487E1,1.883142E1,2.1106197E1,5.3271667E1,5.3024048E1,5.926349E1,5.1463623E1,2.3084038E1,9.968083E0,1.1425697E1,8.207329E1,3.75836E1,2.6029297E1,4.0689224E1,3.8653473E1,1.6984623E1,9.578209E0,5.0722046E0,6.697722E1,2.5238556E1,1.3918477E1,2.1645935E1,7.4248962E0,1.2478577E1,5.859314E0,1.7229431E1,4.743286E0,0E0,0E0,0E0,0E0,0E0,0E0,0E0,0E0,0E0,0E0,0E0,0E0,0E0,0E0,0E0,0E0,0E0,0E0,0E0,0E0,0E0,0E0,0E0,0E0,0E0,0E0,0E0,0E0,0E0,0E0,0E0,0E0,0E0,0E0,0E0,0E0,0E0,0E0,0E0,0E0,0E0,0E0,0E0,0E0,0E0,0E0,0E0,0E0,0E0,0E0,0E0,0E0,0E0,0E0,0E0,0E0,0E0,0E0,0E0,0E0,0E0,0E0,0E0],"parents":[2147483647,0,0,1,1,2,2,3,3,4,4,5,5,6,6,7,7,8,8,9,9,10,10,11,11,12,12,13,13,14,14,15,15,16,16,17,17,18,18,19,19,20,20,21,21,22,22,23,23,24,24,25,25,26,26,27,27,28,28,29,29,30,30,31,31,32,32,33,33,34,34,35,35,36,36,37,37,38,38,39,39,40,40,41,41,42,42,43,43,44,44,45,45,46,46,47,47,48,48,49,49,50,50,51,51,52,52,53,53,54,54,55,55,56,56,57,57,58,58,59,59,60,60,61,61],"right_children":[2,4,6,8,10,12,14,16,18,20,22,24,26,28,30,32,34,36,38,40,42,44,46,48,50,52,54,56,58,60,62,64,66,68,70,72,74,76,78,80,82,84,86,88,90,92,94,96,98,100,102,104,106,108,110,112,114,116,118,120,122,124,-1,-1,-1,-1,-1,-1,-1,-1,-1,-1,-1,-1,-1,-1,-1,-1,-1,-1,-1,-1,-1,-1,-1,-1,-1,-1,-1,-1,-1,-1,-1,-1,-1,-1,-1,-1,-1,-1,-1,-1,-1,-1,-1,-1,-1,-1,-1,-1,-1,-1,-1,-1,-1,-1,-1,-1,-1,-1,-1,-1,-1,-1,-1],"split_conditions":[1.6754896E-4,4.2728338E-5,5.001314E-4,1E1,9E0,8E0,8.2090317E-4,2.2263534E-5,1.26204795E-5,6.294614E-1,-2.666703E0,7.1237713E-1,-2.4402804E0,8E0,2.486421E-1,6.79433E-1,9E0,-3.3384745E0,-2.8298068E0,8E0,8E0,5.031362E-1,9.1441514E-5,7E0,8.300021E-1,6.329237E-1,2.9246515E-4,7.361486E-1,-1.9144455E0,4.8175993E0,3.7002048E-1,-3.0351708E0,6.25E-1,6.0529387E-1,-2.535144E0,6.793908E-1,5.2988703E-6,3.3836076E-1,2.5357574E-2,7E0,9.3252864E-5,7.833359E-1,-1.9009753E0,1E1,-3.2783756E0,1.1E1,4.6511836E-2,2.5424993E-4,-2.2600613E0,7E0,6.8896265E0,9.3E2,8.023001E0,1E1,1E1,7E0,-1.9964272E0,6.18458E0,7.0549834E-1,-1.0287046E0,8E0,-1.1633457E0,4.2642504E-2,-5.995423E-2,-8.337237E-2,-5.5408147E-3,-4.273138E-2,-7.173766E-2,-4.428278E-2,-2.0925049E-2,-4.7268923E-2,-4.660915E-2,-1.3868844E-2,-7.416116E-2,-5.3583752E-2,-2.7041525E-2,-1.8411056E-3,-7.392234E-3,-3.362095E-2,-7.403372E-2,-4.8784763E-2,-4.2088795E-2,-2.1367963E-2,-3.513019E-2,-9.825187E-3,9.0937335E-3,-1.3391927E-2,-9.716231E-3,6.607253E-3,3.0471057E-2,1.5231994E-2,-2.2245916E-2,-4.4644387E-3,1.3660811E-2,-2.6207229E-3,-4.25853E-2,-2.3047628E-2,5.977926E-3,-1.43139195E-2,-1.0410608E-2,4.8859254E-3,1.3498262E-2,-2.368013E-2,-2.4766391E-2,2.111973E-2,3.5381112E-2,-0E0,4.8088768E-4,1.377631E-2,1.3294755E-2,2.2071598E-2,-2.111871E-3,1.0952644E-2,3.0273432E-2,1.5616378E-2,4.0292576E-2,2.726346E-2,1.8765721E-2,2.6901923E-2,3.4995407E-2,2.8018372E-2,1.9390987E-2,2.9080106E-2,3.6157455E-2,2.9033389E-2],"split_indices":[19,19,19,9,9,9,19,19,19,20,0,20,0,9,5,20,9,0,0,9,9,20,19,9,20,20,19,20,0,26,5,0,160,20,0,21,19,20,5,9,19,20,0,9,0,9,5,19,0,9,26,17,26,9,9,9,0,26,20,0,9,0,0,0,0,0,0,0,0,0,0,0,0,0,0,0,0,0,0,0,0,0,0,0,0,0,0,0,0,0,0,0,0,0,0,0,0,0,0,0,0,0,0,0,0,0,0,0,0,0,0,0,0,0,0,0,0,0,0,0,0,0,0,0,0],"split_type":[0,0,0,0,0,0,0,0,0,0,0,0,0,0,0,0,0,0,0,0,0,0,0,0,0,0,0,0,0,0,0,0,0,0,0,0,0,0,0,0,0,0,0,0,0,0,0,0,0,0,0,0,0,0,0,0,0,0,0,0,0,0,0,0,0,0,0,0,0,0,0,0,0,0,0,0,0,0,0,0,0,0,0,0,0,0,0,0,0,0,0,0,0,0,0,0,0,0,0,0,0,0,0,0,0,0,0,0,0,0,0,0,0,0,0,0,0,0,0,0,0,0,0,0,0],"sum_hessian":[5.7152E4,2.1664E4,3.5488E4,6.486E3,1.5178E4,1.8936E4,1.6552E4,2.283E3,4.203E3,5.986E3,9.192E3,6.96E3,1.1976E4,8.039E3,8.513E3,8.59E2,1.424E3,1.248E3,2.955E3,3.71E3,2.276E3,1.434E3,7.758E3,3.433E3,3.527E3,1.433E3,1.0543E4,4.015E3,4.024E3,5.721E3,2.792E3,8E2,5.9E1,8.04E2,6.2E2,2.7E2,9.78E2,6.83E2,2.272E3,1.717E3,1.993E3,1.343E3,9.33E2,6.45E2,7.89E2,3.72E3,4.038E3,1.1E3,2.333E3,2.367E3,1.16E3,6.61E2,7.72E2,5.423E3,5.12E3,1.231E3,2.784E3,8.43E2,3.181E3,2.893E3,2.828E3,2.144E3,6.48E2,1.94E2,6.06E2,1.2E1,4.7E1,6.26E2,1.78E2,1.64E2,4.56E2,1.61E2,1.09E2,2.89E2,6.89E2,1.48E2,5.35E2,3.25E2,1.947E3,4.19E2,1.298E3,9.89E2,1.004E3,9.23E2,4.2E2,1.94E2,7.39E2,1.73E2,4.72E2,3.37E2,4.52E2,2.133E3,1.587E3,5.7E2,3.468E3,4.1E2,6.9E2,4.08E2,1.925E3,9.6E2,1.407E3,1.12E3,4E1,1.2E1,6.49E2,7.6E2,1.2E1,3.15E3,2.273E3,3.253E3,1.867E3,4.14E2,8.17E2,4.36E2,2.348E3,4.6E2,3.83E2,1.194E3,1.987E3,8.17E2,2.076E3,1.545E3,1.283E3,1.304E3,8.4E2],"tree_param":{"num_deleted":"0","num_feature":"172","num_nodes":"125","size_leaf_vector":"1"}},{"base_weights":[-2.4118909E-4,-4.020745E-1,2.2905108E-1,-6.9777006E-1,-2.5385916E-1,5.9604235E-2,3.8064244E-1,-9.967672E-1,-5.2741736E-1,-5.4768974E-1,-6.423807E-2,-1.5873043E-1,1.7705458E-1,2.892243E-1,4.673054E-1,-1.2081562E0,-8.7916124E-1,-7.889288E-1,-3.3627877E-1,-6.717245E-1,-3.3362862E-1,-1.6324967E-1,8.4383175E-2,-3.4102473E-1,-9.552119E-3,4.2879003E-1,1.4165835E-1,1.739959E-1,3.9143068E-1,4.9043992E-1,1.6625324E-1,-1.2470437E0,-6.538895E-1,-1.2410334E0,-7.6785415E-1,-9.6056193E-1,-5.874411E-1,-5.5400547E-2,-4.1681123E-1,-8.7647617E-1,-4.9681333E-1,-4.5664164E-1,-1.6512306E-1,-2.4111925E-1,4.7156956E-2,5.3941505E-3,3.008734E-1,-5.7359993E-1,-2.3739251E-1,-4.5090538E-2,3.571876E-1,2.2922759E-1,4.9570236E-1,6.4549044E-2,2.5407723E-1,9.637654E-3,2.3809552E-1,5.807422E-1,3.5745355E-1,4.343925E-1,5.889535E-1,2.603965E-1,-1.8446036E-2,-8.229459E-2,-6.572464E-2,-7.30169E-3,-4.389421E-2,-8.025572E-2,-4.252437E-2,-1.3058981E-2,-4.8595663E-2,-6.2217094E-2,-3.91228E-2,-4.7347218E-2,-2.7183263E-2,1.4787528E-2,-8.617429E-3,-1.8059779E-3,-2.8009858E-2,-7.03959E-2,-4.5247637E-2,-6.234137E-3,-3.327801E-2,-3.238132E-2,-6.937754E-3,-1.8405871E-2,9.576129E-4,-7.6575205E-3,-2.1719597E-2,2.1540217E-2,-1.827699E-4,-5.669905E-3,8.752833E-3,6.290232E-3,2.3696952E-2,-4.282652E-2,-2.4397029E-2,-1.4493817E-3,-1.8806888E-2,-8.992081E-3,2.243095E-3,1.5705066E-2,3.8443338E-2,8.834082E-4,1.7146973E-2,3.2233518E-2,1.444202E-2,-5.268808E-3,8.342831E-3,7.409521E-3,1.8411376E-2,-7.688842E-3,5.092663E-3,1.5662014E-2,-5.637815E-3,3.5537086E-2,-0E0,1.5515592E-2,2.3083828E-2,2.327064E-2,3.562403E-2,3.254492E-2,4.2942714E-2,1.1175797E-2,2.046611E-2,-9.421032E-3,2.475486E-3],"categories":[],"categories_nodes":[],"categories_segments":[],"categories_sizes":[],"default_left":[0,0,0,0,0,0,0,0,0,0,0,0,0,0,0,0,0,0,0,0,0,0,0,0,0,0,0,0,0,0,0,0,0,0,0,0,0,0,0,0,0,0,0,0,0,0,0,0,0,0,0,0,0,0,0,0,0,0,0,0,0,0,0,0,0,0,0,0,0,0,0,0,0,0,0,0,0,0,0,0,0,0,0,0,0,0,0,0,0,0,0,0,0,0,0,0,0,0,0,0,0,0,0,0,0,0,0,0,0,0,0,0,0,0,0,0,0,0,0,0,0,0,0,0,0,0,0],"id":1,"left_children":[1,3,5,7,9,11,13,15,17,19,21,23,25,27,29,31,33,35,37,39,41,43,45,47,49,51,53,55,57,59,61,63,65,67,69,71,73,75,77,79,81,83,85,87,89,91,93,95,97,99,101,103,105,107,109,111,113,115,117,119,121,123,125,-1,-1,-1,-1,-1,-1,-1,-1,-1,-1,-1,-1,-1,-1,-1,-1,-1,-1,-1,-1,-1,-1,-1,-1,-1,-1,-1,-1,-1,-1,-1,-1,-1,-1,-1,-1,-1,-1,-1,-1,-1,-1,-1,-1,-1,-1,-1,-1,-1,-1,-1,-1,-1,-1,-1,-1,-1,-1,-1,-1,-1,-1,-1,-1],"loss_changes":[5.2824795E3,9.108994E2,9.36755E2,3.500271E2,7.7246576E2,4.422757E2,1.5096948E2,5.6149414E1,2.1919763E2,1.4222021E2,1.24434616E2,1.6334505E2,9.8858795E1,1.0946271E2,6.746509E1,1.3720337E1,5.9769165E1,6.0483032E1,5.7342896E1,1.1965857E2,4.0376038E1,8.351074E1,5.7158066E1,6.3563416E1,4.284695E1,1.6873703E1,8.477696E1,4.621904E1,2.9831299E1,4.8200928E1,1.2818417E1,7.711792E0,1.562046E0,1.7530762E1,3.7082764E1,2.3580688E1,2.0628357E1,1.611381E1,4.434427E1,4.8594727E1,4.8432404E1,3.510309E1,2.3396013E1,5.1676147E1,2.248979E1,3.621008E1,1.6688126E1,1.7547852E1,3.2230194E1,2.7363178E1,5.770878E0,4.221323E0,1.1525497E1,6.959053E1,2.9162354E1,1.3440467E1,2.9829758E1,8.963882E0,1.2329468E1,3.6973022E1,1.3642456E1,1.8874474E0,2.2454064E0,0E0,0E0,0E0,0E0,0E0,0E0,0E0,0E0,0E0,0E0,0E0,0E0,0E0,0E0,0E0,0E0,0E0,0E0,0E0,0E0,0E0,0E0,0E0,0E0,0E0,0E0,0E0,0E0,0E0,0E0,0E0,0E0,0E0,0E0,0E0,0E0,0E0,0E0,0E0,0E0,0E0,0E0,0E0,0E0,0E0,0E0,0E0,0E0,0E0,0E0,0E0,0E0,0E0,0E0,0E0,0E0,0E0,0E0,0E0,0E0,0E0,0E0,0E0,0E0],"parents":[2147483647,0,0,1,1,2,2,3,3,4,4,5,5,6,6,7,7,8,8,9,9,10,10,11,11,12,12,13,13,14,14,15,15,16,16,17,17,18,18,19,19,20,20,21,21,22,22,23,23,24,24,25,25,26,26,27,27,28,28,29,29,30,30,31,31,32,32,33,33,34,34,35,35,36,36,37,37,38,38,39,39,40,40,41,41,42,42,43,43,44,44,45,45,46,46,47,47,48,48,49,49,50,50,51,51,52,52,53,53,54,54,55,55,56,56,57,57,58,58,59,59,60,60,61,61,62,62],"right_children":[2,4,6,8,10,12,14,16,18,20,22,24,26,28,30,32,34,36,38,40,42,44,46,48,50,52,54,56,58,60,62,64,66,68,70,72,74,76,78,80,82,84,86,88,90,92,94,96,98,100,102,104,106,108,110,112,114,116,118,120,122,124,126,-1,-1,-1,-1,-1,-1,-1,-1,-1,-1,-1,-1,-1,-1,-1,-1,-1,-1,-1,-1,-1,-1,-1,-1,-1,-1,-1,-1,-1,-1,-1,-1,-1,-1,-1,-1,-1,-1,-1,-1,-1,-1,-1,-1,-1,-1,-1,-1,-1,-1,-1,-1,-1,-1,-1,-1,-1,-1,-1,-1,-1,-1,-1,-1],"split_conditions":[1.5814215E-4,4.5737645E-5,4.291475E-4,1E1,9E0,8E0,7.496188E-4,2.2263534E-5,1.8265971E-5,6.294614E-1,-2.3104343E0,6.910422E-1,-2.4592822E0,8E0,-7.704262E-1,6.79433E-1,8E0,-3.2176201E0,-2.7441585E0,8E0,-2.942322E0,-1.5498813E0,-2.056422E0,7E0,4.74526E-1,5.824209E-1,1E1,7.1749634E-1,-2.107809E0,-1.2859129E0,3.9211908E-1,9E0,8E-1,6.8810946E-1,-3.3384745E0,-2.0743022E0,2.8033507E-1,-3.6662288E0,2.5357574E-2,7E0,-2.6904433E0,7.967616E-1,8E0,8.001639E0,-2.8598545E0,1.1E1,4.8323584E-1,2.5424993E-4,-1.9835403E0,7E0,-1.9104208E0,9E0,-9.813556E-1,6.091682E-1,5.7825696E-1,7E0,-6.5041983E-1,-4.890472E-1,6.7267126E-1,3.264901E-1,2.5279337E-1,-1.6772902E0,-2.1377702E0,-8.229459E-2,-6.572464E-2,-7.30169E-3,-4.389421E-2,-8.025572E-2,-4.252437E-2,-1.3058981E-2,-4.8595663E-2,-6.2217094E-2,-3.91228E-2,-4.7347218E-2,-2.7183263E-2,1.4787528E-2,-8.617429E-3,-1.8059779E-3,-2.8009858E-2,-7.03959E-2,-4.5247637E-2,-6.234137E-3,-3.327801E-2,-3.238132E-2,-6.937754E-3,-1.8405871E-2,9.576129E-4,-7.6575205E-3,-2.1719597E-2,2.1540217E-2,-1.827699E-4,-5.669905E-3,8.752833E-3,6.290232E-3,2.3696952E-2,-4.282652E-2,-2.4397029E-2,-1.4493817E-3,-1.8806888E-2,-8.992081E-3,2.243095E-3,1.5705066E-2,3.8443338E-2,8.834082E-4,1.7146973E-2,3.2233518E-2,1.444202E-2,-5.268808E-3,8.342831E-3,7.409521E-3,1.8411376E-2,-7.688842E-3,5.092663E-3,1.5662014E-2,-5.637815E-3,3.5537086E-2,-0E0,1.5515592E-2,2.3083828E-2,2.327064E-2,3.562403E-2,3.254492E-2,4.2942714E-2,1.1175797E-2,2.046611E-2,-9.421032E-3,2.475486E-3],"split_indices":[19,19,19,8,8,8,19,19,19,20,3,20,0,8,3,20,8,3,0,8,3,2,2,8,5,20,8,20,0,2,23,8,160,20,0,2,20,0,5,8,0,20,8,26,0,8,20,19,0,8,2,8,3,20,20,8,3,3,20,5,5,2,2,0,0,0,0,0,0,0,0,0,0,0,0,0,0,0,0,0,0,0,0,0,0,0,0,0,0,0,0,0,0,0,0,0,0,0,0,0,0,0,0,0,0,0,0,0,0,0,0,0,0,0,0,0,0,0,0,0,0,0,0,0,0,0,0],"split_type":[0,0,0,0,0,0,0,0,0,0,0,0,0,0,0,0,0,0,0,0,0,0,0,0,0,0,0,0,0,0,0,0,0,0,0,0,0,0,0,0,0,0,0,0,0,0,0,0,0,0,0,0,0,0,0,0,0,0,0,0,0,0,0,0,0,0,0,0,0,0,0,0,0,0,0,0,0,0,0,0,0,0,0,0,0,0,0,0,0,0,0,0,0,0,0,0,0,0,0,0,0,0,0,0,0,0,0,0,0,0,0,0,0,0,0,0,0,0,0,0,0,0,0,0,0,0,0],"sum_hessian":[5.7324E4,2.0828E4,3.6496E4,6.947E3,1.3881E4,1.724E4,1.9256E4,2.513E3,4.434E3,5.439E3,8.442E3,6.025E3,1.1215E4,9.386E3,9.87E3,8.84E2,1.629E3,1.865E3,2.569E3,3.435E3,2.004E3,5.073E3,3.369E3,2.705E3,3.32E3,1.373E3,9.842E3,4.423E3,4.963E3,9.159E3,7.11E2,8.2E2,6.4E1,3.73E2,1.256E3,9.97E2,8.68E2,5.78E2,1.991E3,1.573E3,1.862E3,1.15E3,8.54E2,3.708E3,1.365E3,2.476E3,8.93E2,8.25E2,1.88E3,3.033E3,2.87E2,3.54E2,1.019E3,5.849E3,3.993E3,1.249E3,3.174E3,7.41E2,4.222E3,5.858E3,3.301E3,4.76E2,2.35E2,3.64E2,4.56E2,1.3E1,5.1E1,2.96E2,7.7E1,1.23E2,1.133E3,7.44E2,2.53E2,3.09E2,5.59E2,1.27E2,4.51E2,2.67E2,1.724E3,3.88E2,1.185E3,2.81E2,1.581E3,8.97E2,2.53E2,4.75E2,3.79E2,1.992E3,1.716E3,1.88E2,1.177E3,1.442E3,1.034E3,3.14E2,5.79E2,4.1E2,4.15E2,5.29E2,1.351E3,1.33E3,1.703E3,2.28E2,5.9E1,8.6E1,2.68E2,8.37E2,1.82E2,1.944E3,3.905E3,1.262E3,2.731E3,4.34E2,8.15E2,2.935E3,2.39E2,7.11E2,3E1,1.151E3,3.071E3,4.775E3,1.083E3,2.64E3,6.61E2,2.78E2,1.98E2,7.7E1,1.58E2],"tree_param":{"num_deleted":"0","num_feature":"172","num_nodes":"127","size_leaf_vector":"1"}},{"base_weights":[-9.060621E-4,-4.113633E-1,2.0074667E-1,-7.262734E-1,-2.986763E-1,4.42091E-2,3.562438E-1,-9.2931825E-1,-4.870392E-1,-5.082165E-1,-4.1758526E-2,-1.7044929E-1,1.5370269E-1,2.7293396E-1,4.3575525E-1,-1.1728915E0,-8.1561774E-1,-7.506918E-1,-3.3824196E-1,-7.418921E-1,-3.947044E-1,-1.6446927E-1,8.420808E-2,-3.4614548E-1,-1.2278079E-2,3.879302E-1,1.18356355E-1,1.6776608E-1,3.6684188E-1,4.578492E-1,1.505276E-1,-1.2478746E0,-7.4886364E-1,-1.1445837E0,-7.0788145E-1,-1.086116E0,-6.5169966E-1,7.58307E-2,-3.97314E-1,-8.8733214E-1,-3.6666274E-1,-5.9376127E-1,-2.7738976E-1,-2.902267E-1,-3.4337405E-2,-7.21988E-2,2.015624E-1,-5.608334E-1,-2.4855658E-1,-1.0566213E-1,1.1983237E-1,2.759009E-1,4.9869275E-1,-5.934591E-3,1.812607E-1,8.889488E-2,2.721065E-1,4.844893E-1,3.206518E-1,3.4696516E-1,4.9005556E-1,2.3679255E-1,-1.4976549E-2,-5.410577E-2,-7.665602E-2,-4.824835E-2,-5.8493E-3,-7.388733E-2,-5.0412454E-2,-1.892037E-2,-4.466518E-2,-6.888867E-2,-3.953023E-2,-1.404901E-2,-4.481989E-2,-2.4507632E-3,1.6321344E-2,-2.6909798E-2,-5.005967E-3,-3.0304536E-2,-5.680672E-2,-2.7409207E-2,-6.4629107E-3,-1.7128546E-2,-3.9467525E-2,1.489421E-2,-1.8656554E-2,3.8472875E-3,-1.9580107E-2,1.6837586E-2,-4.0424457E-3,-7.8145405E-3,2.3139922E-3,2.6900195E-2,9.455033E-3,-4.1453615E-2,-2.2994373E-2,-2.0987203E-2,-4.746994E-3,1.3257548E-2,-9.29173E-3,9.04096E-3,-2.9867776E-2,2.2340313E-2,7.363581E-3,3.0363286E-2,-7.283353E-4,-1.1913718E-2,4.8858114E-3,3.7873748E-3,1.4436743E-2,-2.90765E-3,1.0025835E-2,1.8233618E-2,-6.741089E-3,2.9835114E-2,5.0742053E-3,1.2290942E-2,2.1004457E-2,1.6382176E-2,2.4937432E-2,3.3495333E-2,2.586242E-2,1.640641E-2,6.9210236E-3,6.431192E-4,-1.2741922E-2],"categories":[],"categories_nodes":[],"categories_segments":[],"categories_sizes":[],"default_left":[0,0,0,0,0,0,0,0,0,0,0,0,0,0,0,0,0,0,0,0,0,0,0,0,0,0,0,0,0,0,0,0,0,0,0,0,0,0,0,0,0,0,0,0,0,0,0,0,0,0,0,0,0,0,0,0,0,0,0,0,0,0,0,0,0,0,0,0,0,0,0,0,0,0,0,0,0,0,0,0,0,0,0,0,0,0,0,0,0,0,0,0,0,0,0,0,0,0,0,0,0,0,0,0,0,0,0,0,0,0,0,0,0,0,0,0,0,0,0,0,0,0,0,0,0,0,0],"id":2,"left_children":[1,3,5,7,9,11,13,15,17,19,21,23,25,27,29,31,33,35,37,39,41,43,45,47,49,51,53,55,57,59,61,63,65,67,69,71,73,75,77,79,81,83,85,87,89,91,93,95,97,99,101,103,105,107,109,111,113,115,117,119,121,123,125,-1,-1,-1,-1,-1,-1,-1,-1,-1,-1,-1,-1,-1,-1,-1,-1,-1,-1,-1,-1,-1,-1,-1,-1,-1,-1,-1,-1,-1,-1,-1,-1,-1,-1,-1,-1,-1,-1,-1,-1,-1,-1,-1,-1,-1,-1,-1,-1,-1,-1,-1,-1,-1,-1,-1,-1,-1,-1,-1,-1,-1,-1,-1,-1],"loss_changes":[4.740376E3,6.673076E2,9.339769E2,2.3768457E2,7.4760876E2,4.4999838E2,1.260791E2,6.8279785E1,8.734589E1,2.0037085E2,9.682234E1,1.7900911E2,1.0405908E2,9.200922E1,6.0820312E1,2.0878784E1,5.9940918E1,2.2397125E1,3.663263E1,1.3319519E2,1.186839E2,5.1401505E1,5.6799885E1,6.233609E1,4.2067696E1,1.89001E1,8.65314E1,3.6031326E1,2.524408E1,3.0746338E1,1.0604292E1,5.488037E0,4.523918E0,7.6698E0,2.4802673E1,9.808502E-1,2.6917908E1,4.736044E0,2.3051392E1,4.77218E1,1.6791107E1,4.195935E1,6.831911E1,2.4611542E1,1.6939844E1,9.04357E0,1.7291702E1,2.0538727E1,3.7429214E1,3.454472E1,2.9309732E1,1.2100357E1,7.885803E0,6.481998E1,5.42014E1,2.8908875E1,2.8048538E1,1.10651245E1,1.330191E1,9.441238E0,2.5921387E1,1.6441231E0,1.6008008E0,0E0,0E0,0E0,0E0,0E0,0E0,0E0,0E0,0E0,0E0,0E0,0E0,0E0,0E0,0E0,0E0,0E0,0E0,0E0,0E0,0E0,0E0,0E0,0E0,0E0,0E0,0E0,0E0,0E0,0E0,0E0,0E0,0E0,0E0,0E0,0E0,0E0,0E0,0E0,0E0,0E0,0E0,0E0,0E0,0E0,0E0,0E0,0E0,0E0,0E0,0E0,0E0,0E0,0E0,0E0,0E0,0E0,0E0,0E0,0E0,0E0,0E0,0E0,0E0],"parents":[2147483647,0,0,1,1,2,2,3,3,4,4,5,5,6,6,7,7,8,8,9,9,10,10,11,11,12,12,13,13,14,14,15,15,16,16,17,17,18,18,19,19,20,20,21,21,22,22,23,23,24,24,25,25,26,26,27,27,28,28,29,29,30,30,31,31,32,32,33,33,34,34,35,35,36,36,37,37,38,38,39,39,40,40,41,41,42,42,43,43,44,44,45,45,46,46,47,47,48,48,49,49,50,50,51,51,52,52,53,53,54,54,55,55,56,56,57,57,58,58,59,59,60,60,61,61,62,62],"right_children":[2,4,6,8,10,12,14,16,18,20,22,24,26,28,30,32,34,36,38,40,42,44,46,48,50,52,54,56,58,60,62,64,66,68,70,72,74,76,78,80,82,84,86,88,90,92,94,96,98,100,102,104,106,108,110,112,114,116,118,120,122,124,126,-1,-1,-1,-1,-1,-1,-1,-1,-1,-1,-1,-1,-1,-1,-1,-1,-1,-1,-1,-1,-1,-1,-1,-1,-1,-1,-1,-1,-1,-1,-1,-1,-1,-1,-1,-1,-1,-1,-1,-1,-1,-1,-1,-1,-1,-1,-1,-1,-1,-1,-1,-1,-1,-1,-1,-1,-1,-1,-1,-1,-1,-1,-1,-1],"split_conditions":[1.3795582E-4,3.306101E-5,4.291475E-4,1.1E1,1E1,8E0,7.496188E-4,9E0,1.1276926E-5,8E0,-2.5867398E0,6.9420516E-1,-2.4592822E0,8E0,-7.704262E-1,4.6045464E-1,1.1276926E-5,3.321366E-6,-3.4057746E0,6.8949366E-1,6.87418E-5,7.017945E-5,4.678035E-1,7E0,8.0246156E-1,1.28E3,9E0,7.908502E-1,-1.7793202E0,8.228571E2,3.9211908E-1,-3.2783756E0,8.2772136E-1,-2.7291272E0,-3.3384745E0,-2.861934E0,-3.3384745E0,4.22E3,-2.0728853E0,-2.5539098E0,8.1855994E-1,-2.5539098E0,-3.1290696E0,-2.7441585E0,-2.5125532E0,1.2E1,-3.2783756E0,2.5424993E-4,2.7117968E-4,-2.2756276E0,-3.0525246E-1,7.50817E0,-2.0149495E-1,6.0529387E-1,5.861845E-1,7E0,-7.251512E-1,-5.9720224E-1,6.7267126E-1,8.1434214E-1,-1.3000833E0,-1.2502463E0,2.435093E-2,-5.410577E-2,-7.665602E-2,-4.824835E-2,-5.8493E-3,-7.388733E-2,-5.0412454E-2,-1.892037E-2,-4.466518E-2,-6.888867E-2,-3.953023E-2,-1.404901E-2,-4.481989E-2,-2.4507632E-3,1.6321344E-2,-2.6909798E-2,-5.005967E-3,-3.0304536E-2,-5.680672E-2,-2.7409207E-2,-6.4629107E-3,-1.7128546E-2,-3.9467525E-2,1.489421E-2,-1.8656554E-2,3.8472875E-3,-1.9580107E-2,1.6837586E-2,-4.0424457E-3,-7.8145405E-3,2.3139922E-3,2.6900195E-2,9.455033E-3,-4.1453615E-2,-2.2994373E-2,-2.0987203E-2,-4.746994E-3,1.3257548E-2,-9.29173E-3,9.04096E-3,-2.9867776E-2,2.2340313E-2,7.363581E-3,3.0363286E-2,-7.283353E-4,-1.1913718E-2,4.8858114E-3,3.7873748E-3,1.4436743E-2,-2.90765E-3,1.0025835E-2,1.8233618E-2,-6.741089E-3,2.9835114E-2,5.0742053E-3,1.2290942E-2,2.1004457E-2,1.6382176E-2,2.4937432E-2,3.3495333E-2,2.586242E-2,1.640641E-2,6.9210236E-3,6.431192E-4,-1.2741922E-2],"split_indices":[19,19,19,9,9,9,19,9,19,9,3,20,0,9,3,23,19,19,0,20,19,19,20,9,20,18,9,20,0,14,23,0,20,3,0,3,0,18,3,0,20,0,0,0,0,9,0,19,19,0,3,26,3,20,20,9,3,3,20,20,0,0,27,0,0,0,0,0,0,0,0,0,0,0,0,0,0,0,0,0,0,0,0,0,0,0,0,0,0,0,0,0,0,0,0,0,0,0,0,0,0,0,0,0,0,0,0,0,0,0,0,0,0,0,0,0,0,0,0,0,0,0,0,0,0,0,0],"split_type":[0,0,0,0,0,0,0,0,0,0,0,0,0,0,0,0,0,0,0,0,0,0,0,0,0,0,0,0,0,0,0,0,0,0,0,0,0,0,0,0,0,0,0,0,0,0,0,0,0,0,0,0,0,0,0,0,0,0,0,0,0,0,0,0,0,0,0,0,0,0,0,0,0,0,0,0,0,0,0,0,0,0,0,0,0,0,0,0,0,0,0,0,0,0,0,0,0,0,0,0,0,0,0,0,0,0,0,0,0,0,0,0,0,0,0,0,0,0,0,0,0,0,0,0,0,0,0],"sum_hessian":[5.7262E4,1.8866E4,3.8396E4,4.964E3,1.3902E4,1.9141E4,1.9255E4,2.677E3,2.287E3,7.652E3,6.25E3,6.46E3,1.2681E4,9.419E3,9.836E3,8.39E2,1.838E3,8.17E2,1.47E3,2.492E3,5.16E3,3.172E3,3.078E3,3.054E3,3.406E3,1.653E3,1.1028E4,4.455E3,4.964E3,9.122E3,7.14E2,7.05E2,1.34E2,4.43E2,1.395E3,1.76E2,6.41E2,1.8E2,1.29E3,1.79E3,7.02E2,1.904E3,3.256E3,1.605E3,1.567E3,1.314E3,1.764E3,9.45E2,2.109E3,2.003E3,1.403E3,8.34E2,8.19E2,3.698E3,7.33E3,2.549E3,1.906E3,1.382E3,3.582E3,2.072E3,7.05E3,4.75E2,2.39E2,1.1E2,5.95E2,1.18E2,1.6E1,3.1E2,1.33E2,1.67E2,1.228E3,1.39E2,3.7E1,1.39E2,5.02E2,1.1E2,7E1,1.078E3,2.12E2,3.14E2,1.476E3,5.01E2,2.01E2,3.9E2,1.514E3,2.21E2,3.035E3,1.66E2,1.439E3,1.45E2,1.422E3,8.61E2,4.53E2,2.35E2,1.529E3,5.04E2,4.41E2,1.277E3,8.32E2,2.67E2,1.736E3,1.336E3,6.7E1,4.86E2,3.48E2,7.96E2,2.3E1,1.157E3,2.541E3,2.599E3,4.731E3,9.37E2,1.612E3,1.742E3,1.64E2,1.305E3,7.7E1,8.86E2,2.696E3,1.108E3,9.64E2,2.75E3,4.3E3,3.39E2,1.36E2,2.07E2,3.2E1],"tree_param":{"num_deleted":"0","num_feature":"172","num_nodes":"127","size_leaf_vector":"1"}},{"base_weights":[-3.830285E-4,-3.3174288E-1,2.1867591E-1,-5.8471256E-1,-1.8283957E-1,9.540722E-2,3.6202714E-1,-8.4132737E-1,-4.1939592E-1,-4.2941302E-1,-8.724367E-3,-7.244794E-2,1.970101E-1,2.9058632E-1,4.5145455E-1,-1.0748549E0,-7.4306786E-1,-6.7815906E-1,-2.4281743E-1,-5.573986E-1,-2.428351E-1,-1.3023908E-1,7.199965E-2,-2.1825139E-1,5.7768155E-2,1.3407893E-1,2.946705E-1,2.3343651E-1,4.0887064E-1,4.16429E-1,5.7233447E-1,-1.1157346E0,-5.94409E-1,-1.0511413E0,-6.3832814E-1,-8.35844E-1,-5.054768E-1,-3.2618973E-1,-3.7194856E-2,-1.0053589E0,-4.93071E-1,-5.1390237E-1,-1.6786832E-1,-2.3478143E-1,1.0749355E-3,-6.586637E-2,1.8064843E-1,-4.065328E-1,-1.2811708E-1,2.0984607E-2,3.2378167E-1,-3.5862565E-2,1.9012304E-1,2.1111162E-1,3.5326767E-1,2.5112838E-1,-5.537125E-2,3.5701656E-1,5.0505567E-1,3.408936E-1,4.6868858E-1,3.2269415E-1,6.021222E-1,-7.193264E-2,-5.7502005E-2,-3.776778E-2,-3.768307E-3,-6.931948E-2,-3.723442E-2,-4.1364115E-2,-2.5177386E-2,-6.396333E-2,-4.458564E-2,-4.3252204E-2,-2.3466125E-2,-2.260653E-2,-4.055097E-3,-9.258333E-3,7.781289E-3,-6.905305E-2,-4.759185E-2,-3.7826426E-2,-2.2314718E-2,-4.1967906E-2,-1.3895199E-2,-1.7810574E-2,-1.7517117E-3,-2.4507243E-2,-8.796524E-3,-4.8679295E-3,6.1662407E-3,-1.1276982E-2,8.34327E-5,6.790739E-3,2.3379456E-2,-3.0627817E-2,-1.4464598E-2,-1.51098E-2,-2.2417766E-3,-5.0288932E-3,4.904942E-3,1.3323127E-2,2.792311E-2,-3.2017842E-2,-8.962995E-4,8.876483E-3,1.7119866E-2,9.299E-3,1.735544E-2,1.8897707E-2,2.7934188E-2,1.116449E-2,1.8872915E-2,-0E0,-1.6149972E-2,1.7667383E-2,2.5849944E-2,2.4120264E-2,3.3217307E-2,1.6959263E-2,2.382817E-2,2.2314597E-2,3.0267151E-2,2.1364499E-2,-0E0,4.3328043E-2,3.2762986E-2],"categories":[],"categories_nodes":[],"categories_segments":[],"categories_sizes":[],"default_left":[0,0,0,0,0,0,0,0,0,0,0,0,0,0,0,0,0,0,0,0,0,0,0,0,0,0,0,0,0,0,0,0,0,0,0,0,0,0,0,0,0,0,0,0,0,0,0,0,0,0,0,0,0,0,0,0,0,0,0,0,0,0,0,0,0,0,0,0,0,0,0,0,0,0,0,0,0,0,0,0,0,0,0,0,0,0,0,0,0,0,0,0,0,0,0,0,0,0,0,0,0,0,0,0,0,0,0,0,0,0,0,0,0,0,0,0,0,0,0,0,0,0,0,0,0,0,0],"id":3,"left_children":[1,3,5,7,9,11,13,15,17,19,21,23,25,27,29,31,33,35,37,39,41,43,45,47,49,51,53,55,57,59,61,63,65,67,69,71,73,75,77,79,81,83,85,87,89,91,93,95,97,99,101,103,105,107,109,111,113,115,117,119,121,123,125,-1,-1,-1,-1,-1,-1,-1,-1,-1,-1,-1,-1,-1,-1,-1,-1,-1,-1,-1,-1,-1,-1,-1,-1,-1,-1,-1,-1,-1,-1,-1,-1,-1,-1,-1,-1,-1,-1,-1,-1,-1,-1,-1,-1,-1,-1,-1,-1,-1,-1,-1,-1,-1,-1,-1,-1,-1,-1,-1,-1,-1,-1,-1,-1],"loss_changes":[4.151284E3,8.558828E2,6.0747156E2,3.545288E2,6.147903E2,3.1607327E2,1.00062256E2,7.041455E1,2.3270575E2,1.3991833E2,8.2614426E1,1.327959E2,7.013333E1,5.8592773E1,2.7568726E1,1.4296265E1,7.066504E1,5.3205017E1,5.1848648E1,9.730481E1,4.7883987E1,4.6585613E1,7.581633E1,5.4968277E1,3.5457645E1,6.727088E1,2.0959503E1,3.0967468E1,1.2424011E1,1.9892822E1,9.592957E0,6.04834E0,8.4477806E-1,2.570868E1,2.0943542E1,1.59296875E1,2.1931763E1,3.1386703E1,1.8215649E1,8.433929E0,5.008008E1,2.6629456E1,3.4862743E1,2.8038849E1,1.2965873E1,1.9065964E1,3.904049E1,1.7766922E1,2.5407063E1,2.1506903E1,5.0398903E0,1.7307184E1,2.0156296E1,7.485634E0,8.622681E0,2.3111298E1,4.1986012E0,7.246704E0,3.3302612E0,6.1887207E0,1.1077576E1,2.273487E0,5.259094E0,0E0,0E0,0E0,0E0,0E0,0E0,0E0,0E0,0E0,0E0,0E0,0E0,0E0,0E0,0E0,0E0,0E0,0E0,0E0,0E0,0E0,0E0,0E0,0E0,0E0,0E0,0E0,0E0,0E0,0E0,0E0,0E0,0E0,0E0,0E0,0E0,0E0,0E0,0E0,0E0,0E0,0E0,0E0,0E0,0E0,0E0,0E0,0E0,0E0,0E0,0E0,0E0,0E0,0E0,0E0,0E0,0E0,0E0,0E0,0E0,0E0,0E0,0E0,0E0],"parents":[2147483647,0,0,1,1,2,2,3,3,4,4,5,5,6,6,7,7,8,8,9,9,10,10,11,11,12,12,13,13,14,14,15,15,16,16,17,17,18,18,19,19,20,20,21,21,22,22,23,23,24,24,25,25,26,26,27,27,28,28,29,29,30,30,31,31,32,32,33,33,34,34,35,35,36,36,37,37,38,38,39,39,40,40,41,41,42,42,43,43,44,44,45,45,46,46,47,47,48,48,49,49,50,50,51,51,52,52,53,53,54,54,55,55,56,56,57,57,58,58,59,59,60,60,61,61,62,62],"right_children":[2,4,6,8,10,12,14,16,18,20,22,24,26,28,30,32,34,36,38,40,42,44,46,48,50,52,54,56,58,60,62,64,66,68,70,72,74,76,78,80,82,84,86,88,90,92,94,96,98,100,102,104,106,108,110,112,114,116,118,120,122,124,126,-1,-1,-1,-1,-1,-1,-1,-1,-1,-1,-1,-1,-1,-1,-1,-1,-1,-1,-1,-1,-1,-1,-1,-1,-1,-1,-1,-1,-1,-1,-1,-1,-1,-1,-1,-1,-1,-1,-1,-1,-1,-1,-1,-1,-1,-1,-1,-1,-1,-1,-1,-1,-1,-1,-1,-1,-1,-1,-1,-1,-1,-1,-1,-1],"split_conditions":[1.7991252E-4,5.6236724E-5,5.194848E-4,1E1,9E0,8E0,-1.5084406E0,2.3548208E-5,2.096778E-5,6.294614E-1,5.133579E-1,7.1237713E-1,1E1,-1.0218583E0,-1.114523E0,6.55626E-1,8E0,3.8508E-2,9.3542576E-2,7E0,7E0,1.1E1,5.336577E-2,7E0,-2.605608E-1,6.0529387E-1,6.1302364E-1,3.8011804E-1,-5.3212893E-1,-1.1540716E0,4.673999E-2,4.877309E-2,3.03704E-1,6.811114E-1,5.633531E-1,5.2988703E-6,2.8033507E-1,-1.6228436E0,4.4428048E-1,7.196562E-2,9.8332945E-5,7.8152937E-1,4.610477E-2,6.326112E-2,9.2775375E-2,1E1,-1.697413E0,3.3173765E-4,2.7117968E-4,3.1605078E-4,8.564417E-1,1.7E2,-1.4025537E0,-1.7614527E0,-1.2022845E0,8E0,2.435093E-2,8E0,7E0,8E0,7E0,4.6666665E0,1.3E2,-7.193264E-2,-5.7502005E-2,-3.776778E-2,-3.768307E-3,-6.931948E-2,-3.723442E-2,-4.1364115E-2,-2.5177386E-2,-6.396333E-2,-4.458564E-2,-4.3252204E-2,-2.3466125E-2,-2.260653E-2,-4.055097E-3,-9.258333E-3,7.781289E-3,-6.905305E-2,-4.759185E-2,-3.7826426E-2,-2.2314718E-2,-4.1967906E-2,-1.3895199E-2,-1.7810574E-2,-1.7517117E-3,-2.4507243E-2,-8.796524E-3,-4.8679295E-3,6.1662407E-3,-1.1276982E-2,8.34327E-5,6.790739E-3,2.3379456E-2,-3.0627817E-2,-1.4464598E-2,-1.51098E-2,-2.2417766E-3,-5.0288932E-3,4.904942E-3,1.3323127E-2,2.792311E-2,-3.2017842E-2,-8.962995E-4,8.876483E-3,1.7119866E-2,9.299E-3,1.735544E-2,1.8897707E-2,2.7934188E-2,1.116449E-2,1.8872915E-2,-0E0,-1.6149972E-2,1.7667383E-2,2.5849944E-2,2.4120264E-2,3.3217307E-2,1.6959263E-2,2.382817E-2,2.2314597E-2,3.0267151E-2,2.1364499E-2,-0E0,4.3328043E-2,3.2762986E-2],"split_indices":[19,19,19,8,8,8,2,19,19,20,20,20,8,1,1,20,8,7,7,8,8,8,7,8,1,20,20,7,1,2,7,7,1,20,20,19,20,2,20,7,19,20,7,7,7,8,2,19,19,19,20,16,2,2,2,8,27,8,8,8,8,169,16,0,0,0,0,0,0,0,0,0,0,0,0,0,0,0,0,0,0,0,0,0,0,0,0,0,0,0,0,0,0,0,0,0,0,0,0,0,0,0,0,0,0,0,0,0,0,0,0,0,0,0,0,0,0,0,0,0,0,0,0,0,0,0,0],"split_type":[0,0,0,0,0,0,0,0,0,0,0,0,0,0,0,0,0,0,0,0,0,0,0,0,0,0,0,0,0,0,0,0,0,0,0,0,0,0,0,0,0,0,0,0,0,0,0,0,0,0,0,0,0,0,0,0,0,0,0,0,0,0,0,0,0,0,0,0,0,0,0,0,0,0,0,0,0,0,0,0,0,0,0,0,0,0,0,0,0,0,0,0,0,0,0,0,0,0,0,0,0,0,0,0,0,0,0,0,0,0,0,0,0,0,0,0,0,0,0,0,0,0,0,0,0,0,0],"sum_hessian":[5.7182E4,2.276E4,3.4422E4,8.426E3,1.4334E4,1.8516E4,1.5906E4,3.293E3,5.133E3,5.927E3,8.407E3,6.976E3,1.154E4,8.859E3,7.047E3,9.62E2,2.331E3,2.075E3,3.058E3,3.507E3,2.42E3,3.363E3,5.044E3,3.296E3,3.68E3,7.032E3,4.508E3,5.988E3,2.871E3,5.484E3,1.563E3,8.8E2,8.2E1,5.81E2,1.75E3,1.074E3,1.001E3,2.169E3,8.89E2,4.32E2,3.075E3,5.16E2,1.904E3,1.878E3,1.485E3,2.217E3,2.827E3,1.058E3,2.238E3,3.241E3,4.39E2,1.737E3,5.295E3,1.875E3,2.633E3,5.648E3,3.4E2,1.885E3,9.86E2,2.264E3,3.22E3,1.76E2,1.387E3,4.82E2,3.98E2,7.2E1,1E1,4.4E2,1.41E2,1.332E3,4.18E2,2.44E2,8.3E2,3.09E2,6.92E2,1.766E3,4.03E2,5.26E2,3.63E2,2.22E2,2.1E2,1.322E3,1.753E3,2.95E2,2.21E2,9.57E2,9.47E2,5.92E2,1.286E3,8.13E2,6.72E2,7.8E2,1.437E3,2.18E3,6.47E2,6.11E2,4.47E2,9.13E2,1.325E3,1.187E3,2.054E3,2.77E2,1.62E2,6.2E1,1.675E3,3.82E3,1.475E3,1.162E3,7.13E2,2.095E3,5.38E2,3.008E3,2.64E3,2.73E2,6.7E1,1.13E3,7.55E2,3.95E2,5.91E2,1.258E3,1.006E3,1.098E3,2.122E3,1.56E2,2E1,3.35E2,1.052E3],"tree_param":{"num_deleted":"0","num_feature":"172","num_nodes":"127","size_leaf_vector":"1"}},{"base_weights":[-4.8936537E-4,-3.1892192E-1,1.8426251E-1,-6.32599E-1,-2.288446E-1,6.020589E-2,3.1064773E-1,-7.554161E-1,-4.618796E-1,-3.6601087E-1,-4.1099902E-2,-4.345635E-2,1.95247E-1,2.5566876E-1,4.160543E-1,-8.868778E-1,-3.8176265E-1,-7.568482E-1,-3.5960227E-1,-5.090949E-1,-5.9575338E-2,-1.9805694E-1,4.2286217E-2,-1.603257E-1,1.4511628E-1,3.88242E-1,1.5434267E-1,3.7984613E-1,2.0650631E-1,3.40851E-1,4.780448E-1,-1.1268083E0,-7.8965336E-1,7.6372325E-2,-4.5300815E-1,-0E0,-7.767267E-1,-1.0628234E-1,-4.576047E-1,-7.7314794E-1,-4.0180132E-1,1.9016747E-1,-1.3446641E-1,-6.200472E-2,-3.2510555E-1,-2.9221093E-3,2.7249315E-1,-4.3424484E-1,-1.0262715E-1,1.785749E-1,-1.8306029E-1,5.2498984E-1,3.2325876E-1,3.3769235E-1,1.2649357E-1,4.9396345E-1,3.4172258E-1,9.656019E-2,2.9088196E-1,5.160332E-1,2.974703E-1,3.7026206E-1,5.0801134E-1,-6.8184346E-2,-3.3352096E-2,-6.1748363E-2,-3.974056E-2,-0E0,1.4158716E-2,-3.7242632E-2,-1.7782684E-2,-4.9947564E-2,-3.2526024E-2,-2.1049537E-2,-2.054999E-3,-3.6954947E-2,-2.0060806E-2,-2.7721072E-2,-5.0348025E-2,-3.3930175E-2,-1.645358E-2,3.2210093E-2,8.653724E-3,8.121914E-3,-1.2169191E-2,1.2194173E-2,-7.000875E-3,-2.6283491E-2,-4.759735E-3,-1.7426087E-3,2.0724513E-2,1.08950185E-2,2.3373796E-2,-3.4638137E-2,-1.4769858E-2,7.1918084E-3,-9.346601E-3,2.3404654E-2,7.2519053E-3,-1.5189474E-2,2.6699011E-3,1.8260831E-2,3.3285037E-2,2.8332425E-2,1.4409204E-2,2.1166446E-2,1.2374606E-3,1.4949799E-2,4.5433654E-3,3.0060427E-2,7.87327E-3,2.6397817E-2,1.7733745E-2,1.32623E-3,1.13399485E-2,1.473921E-2,2.3244858E-2,1.9469826E-2,3.3191748E-2,1.252117E-2,2.2723245E-2,1.4478024E-2,2.3424635E-2,2.6873315E-2,3.361572E-2],"categories":[],"categories_nodes":[],"categories_segments":[],"categories_sizes":[],"default_left":[0,0,0,0,0,0,0,0,0,0,0,0,0,0,0,0,0,0,0,0,0,0,0,0,0,0,0,0,0,0,0,0,0,0,0,0,0,0,0,0,0,0,0,0,0,0,0,0,0,0,0,0,0,0,0,0,0,0,0,0,0,0,0,0,0,0,0,0,0,0,0,0,0,0,0,0,0,0,0,0,0,0,0,0,0,0,0,0,0,0,0,0,0,0,0,0,0,0,0,0,0,0,0,0,0,0,0,0,0,0,0,0,0,0,0,0,0,0,0,0,0,0,0,0,0],"id":4,"left_children":[1,3,5,7,9,11,13,15,17,19,21,23,25,27,29,31,33,35,37,39,41,43,45,47,49,51,53,55,57,59,61,63,65,67,69,-1,71,73,75,77,79,81,83,85,87,89,91,93,95,97,99,101,103,105,107,109,111,113,115,117,119,121,123,-1,-1,-1,-1,-1,-1,-1,-1,-1,-1,-1,-1,-1,-1,-1,-1,-1,-1,-1,-1,-1,-1,-1,-1,-1,-1,-1,-1,-1,-1,-1,-1,-1,-1,-1,-1,-1,-1,-1,-1,-1,-1,-1,-1,-1,-1,-1,-1,-1,-1,-1,-1,-1,-1,-1,-1,-1,-1,-1,-1,-1,-1],"loss_changes":[3.378452E3,5.940049E2,5.69052E2,9.555823E1,4.213977E2,2.5710144E2,1.0287402E2,1.3073108E2,5.711618E1,4.1403064E2,9.094819E1,2.2873492E2,6.1905945E1,7.111932E1,2.6893555E1,4.122998E1,2.4106552E1,8.089325E0,3.5660843E1,1.7991675E2,5.6463562E1,4.0986717E1,4.7478718E1,1.003401E2,4.363154E1,1.04579315E1,3.278459E1,1.2722168E1,7.8133606E1,1.9537842E1,8.874634E0,5.1400757E0,3.8138E1,1.2225826E0,1.4842361E1,0E0,4.2527466E0,6.8719945E0,1.890274E1,4.2532715E1,9.622272E1,9.334911E0,4.5962486E1,1.787955E1,3.5726715E1,3.521242E1,6.9860687E0,2.9544922E1,6.6934326E1,4.275289E1,6.5945835E0,1.8232574E0,1.0332863E1,5.257675E0,3.5445976E1,3.6052399E0,9.340393E0,2.5948597E1,1.8913757E1,2.818985E0,1.5738541E1,1.2451248E0,6.0513306E0,0E0,0E0,0E0,0E0,0E0,0E0,0E0,0E0,0E0,0E0,0E0,0E0,0E0,0E0,0E0,0E0,0E0,0E0,0E0,0E0,0E0,0E0,0E0,0E0,0E0,0E0,0E0,0E0,0E0,0E0,0E0,0E0,0E0,0E0,0E0,0E0,0E0,0E0,0E0,0E0,0E0,0E0,0E0,0E0,0E0,0E0,0E0,0E0,0E0,0E0,0E0,0E0,0E0,0E0,0E0,0E0,0E0,0E0,0E0,0E0,0E0,0E0],"parents":[2147483647,0,0,1,1,2,2,3,3,4,4,5,5,6,6,7,7,8,8,9,9,10,10,11,11,12,12,13,13,14,14,15,15,16,16,17,17,18,18,19,19,20,20,21,21,22,22,23,23,24,24,25,25,26,26,27,27,28,28,29,29,30,30,31,31,32,32,33,33,34,34,36,36,37,37,38,38,39,39,40,40,41,41,42,42,43,43,44,44,45,45,46,46,47,47,48,48,49,49,50,50,51,51,52,52,53,53,54,54,55,55,56,56,57,57,58,58,59,59,60,60,61,61,62,62],"right_children":[2,4,6,8,10,12,14,16,18,20,22,24,26,28,30,32,34,36,38,40,42,44,46,48,50,52,54,56,58,60,62,64,66,68,70,-1,72,74,76,78,80,82,84,86,88,90,92,94,96,98,100,102,104,106,108,110,112,114,116,118,120,122,124,-1,-1,-1,-1,-1,-1,-1,-1,-1,-1,-1,-1,-1,-1,-1,-1,-1,-1,-1,-1,-1,-1,-1,-1,-1,-1,-1,-1,-1,-1,-1,-1,-1,-1,-1,-1,-1,-1,-1,-1,-1,-1,-1,-1,-1,-1,-1,-1,-1,-1,-1,-1,-1,-1,-1,-1,-1,-1,-1,-1,-1,-1],"split_conditions":[9.811538E-1,8.1089634E-1,1.1026756E0,1.1E1,1E1,9E0,2.0737055E-1,4.5324233E-1,6.793908E-1,4.1315448E-1,-2.9988012E0,3.7653422E-1,9.316169E-2,4.7606783E0,1.1727653E0,9E0,5.2730103E0,9.530115E0,5.7319347E-2,8E0,5.292901E0,8.291967E0,1.6481309E-1,7E0,-9.587005E-1,5.4174155E-2,-2.7756772E0,2.4688941E-1,8E0,1.0188532E-1,8E2,-1.6078693E0,7.1972877E-1,7.1563E4,-3.5360756E0,-0E0,7.010795E-2,1.4673188E-1,-3.434262E0,8.1445284E-2,9.0769255E-1,1.6868766E-1,9.4485134E-2,1.19578555E-1,1.6481309E-1,-8.283521E-1,2.644618E-1,1.0602973E0,1.0309013E-1,1.4094841E-1,1.24233514E-1,2.21039E-1,7.0360823E0,-7.9842013E-1,6.407719E0,-7.9842013E-1,3.7842052E0,1.1669219E0,-1.1452237E0,-1.8643976E0,8E0,5.528571E2,-1.4350926E0,-6.8184346E-2,-3.3352096E-2,-6.1748363E-2,-3.974056E-2,-0E0,1.4158716E-2,-3.7242632E-2,-1.7782684E-2,-4.9947564E-2,-3.2526024E-2,-2.1049537E-2,-2.054999E-3,-3.6954947E-2,-2.0060806E-2,-2.7721072E-2,-5.0348025E-2,-3.3930175E-2,-1.645358E-2,3.2210093E-2,8.653724E-3,8.121914E-3,-1.2169191E-2,1.2194173E-2,-7.000875E-3,-2.6283491E-2,-4.759735E-3,-1.7426087E-3,2.0724513E-2,1.08950185E-2,2.3373796E-2,-3.4638137E-2,-1.4769858E-2,7.1918084E-3,-9.346601E-3,2.3404654E-2,7.2519053E-3,-1.5189474E-2,2.6699011E-3,1.8260831E-2,3.3285037E-2,2.8332425E-2,1.4409204E-2,2.1166446E-2,1.2374606E-3,1.4949799E-2,4.5433654E-3,3.0060427E-2,7.87327E-3,2.6397817E-2,1.7733745E-2,1.32623E-3,1.13399485E-2,1.473921E-2,2.3244858E-2,1.9469826E-2,3.3191748E-2,1.252117E-2,2.2723245E-2,1.4478024E-2,2.3424635E-2,2.6873315E-2,3.361572E-2],"split_indices":[21,21,21,8,8,8,6,23,21,23,3,23,4,26,21,8,26,26,4,8,26,26,6,8,3,4,1,4,8,4,14,3,21,13,3,0,6,23,3,4,21,4,4,4,6,1,23,21,4,4,6,23,26,3,26,3,26,21,1,1,8,14,1,0,0,0,0,0,0,0,0,0,0,0,0,0,0,0,0,0,0,0,0,0,0,0,0,0,0,0,0,0,0,0,0,0,0,0,0,0,0,0,0,0,0,0,0,0,0,0,0,0,0,0,0,0,0,0,0,0,0,0,0,0,0],"split_type":[0,0,0,0,0,0,0,0,0,0,0,0,0,0,0,0,0,0,0,0,0,0,0,0,0,0,0,0,0,0,0,0,0,0,0,0,0,0,0,0,0,0,0,0,0,0,0,0,0,0,0,0,0,0,0,0,0,0,0,0,0,0,0,0,0,0,0,0,0,0,0,0,0,0,0,0,0,0,0,0,0,0,0,0,0,0,0,0,0,0,0,0,0,0,0,0,0,0,0,0,0,0,0,0,0,0,0,0,0,0,0,0,0,0,0,0,0,0,0,0,0,0,0,0,0],"sum_hessian":[5.7417E4,2.1084E4,3.6333E4,4.696E3,1.6388E4,1.8344E4,1.7989E4,2.72E3,1.976E3,9.463E3,6.925E3,1.0372E4,7.972E3,1.1839E4,6.15E3,2.006E3,7.14E2,5E2,1.476E3,6.446E3,3.017E3,2.408E3,4.517E3,6.409E3,3.963E3,1.383E3,6.589E3,3.343E3,8.496E3,2.799E3,3.351E3,5.65E2,1.441E3,9.3E1,6.21E2,1.2E1,4.88E2,4.18E2,1.058E3,1.853E3,4.593E3,6.9E2,2.327E3,1.171E3,1.237E3,3.772E3,7.45E2,1.107E3,5.302E3,3.602E3,3.61E2,4.31E2,9.52E2,8.57E2,5.732E3,8.18E2,2.525E3,3.7E3,4.796E3,5.42E2,2.257E3,7.49E2,2.602E3,5.3E2,3.5E1,4.32E2,1.009E3,6.5E1,2.8E1,2.75E2,3.46E2,3.59E2,1.29E2,8.5E1,3.33E2,4.21E2,6.37E2,4.02E2,1.451E3,1.886E3,2.707E3,6.7E1,6.23E2,4.82E2,1.845E3,1.98E2,9.73E2,8.21E2,4.16E2,3.515E3,2.57E2,4.49E2,2.96E2,5.94E2,5.13E2,1.052E3,4.25E3,7.19E2,2.883E3,2.77E2,8.4E1,7.8E1,3.53E2,3.05E2,6.47E2,7.97E2,6E1,1.589E3,4.143E3,7.77E2,4.1E1,6.79E2,1.846E3,2.1E3,1.6E3,3.464E3,1.332E3,1.22E2,4.2E2,1.165E3,1.092E3,1.51E2,5.98E2,1.452E3,1.15E3],"tree_param":{"num_deleted":"0","num_feature":"172","num_nodes":"125","size_leaf_vector":"1"}},{"base_weights":[8.179906E-5,-2.723487E-1,2.1193863E-1,-5.1722497E-1,-1.4745362E-1,1.2170138E-1,3.483172E-1,-7.506936E-1,-3.6855644E-1,-3.524099E-1,6.265343E-3,-1.1284139E-2,2.0971644E-1,2.757469E-1,4.1609663E-1,-9.586374E-1,-6.59786E-1,-6.159991E-1,-2.3275796E-1,-5.1712096E-1,-2.5258175E-1,2.5614274E-1,-3.1943046E-2,-1.1201589E-1,8.49855E-2,3.8313413E-1,1.789246E-1,2.0986103E-1,3.64501E-1,3.9077842E-1,5.8567196E-1,-5.2432966E-1,-9.9091613E-1,-7.896182E-1,-4.703828E-1,-7.3365176E-1,-3.876114E-1,-4.0053475E-1,-1.339166E-1,-7.110301E-2,-5.694383E-1,-5.124181E-1,-1.9475472E-1,7.133321E-2,3.4328407E-1,-1.0292035E-1,7.5862E-2,2.2966267E-1,-1.5124133E-1,2.2619639E-2,2.1224761E-1,-3.520686E-2,3.9236888E-1,1.1487932E-1,2.4796042E-1,2.2790016E-1,-1.14927E-1,2.766569E-1,4.1053805E-1,3.3149362E-1,4.5266214E-1,3.3541608E-1,6.042423E-1,-3.4712877E-2,-1.551433E-3,-4.5226607E-2,-6.2390953E-2,-4.985082E-2,-2.7247634E-2,-1.7992643E-3,-3.1701922E-2,-4.768451E-2,-2.3759644E-2,-0E0,-2.5029343E-2,-2.5659753E-2,7.591866E-4,-1.5068221E-2,1.2457761E-4,9.437183E-3,-1.1319676E-2,-5.320728E-2,-3.0043613E-2,-3.7554454E-2,-6.4613516E-3,-1.8556787E-2,-4.017522E-3,-3.6082838E-2,6.2077246E-3,1.4639566E-2,2.7274966E-2,-1.4883377E-2,-1.8908469E-3,1.771412E-2,2.3336082E-3,-1.3138263E-6,1.7538104E-2,-1.384309E-2,3.7740998E-4,-5.898452E-3,5.8412207E-3,1.49979135E-2,-1.4616416E-2,2.8243555E-2,1.9082721E-2,3.0846882E-3,1.2312896E-2,1.3246042E-2,2.0433892E-2,7.939733E-3,1.5475303E-2,-1.4316487E-2,-0E0,1.3074037E-2,2.2687081E-2,2.1886593E-2,3.1432785E-2,1.6525878E-2,2.3941705E-2,2.2219317E-2,2.9211663E-2,2.3000075E-2,-0E0,3.0820314E-2,3.9244458E-2],"categories":[],"categories_nodes":[],"categories_segments":[],"categories_sizes":[],"default_left":[0,0,0,0,0,0,0,0,0,0,0,0,0,0,0,0,0,0,0,0,0,0,0,0,0,0,0,0,0,0,0,0,0,0,0,0,0,0,0,0,0,0,0,0,0,0,0,0,0,0,0,0,0,0,0,0,0,0,0,0,0,0,0,0,0,0,0,0,0,0,0,0,0,0,0,0,0,0,0,0,0,0,0,0,0,0,0,0,0,0,0,0,0,0,0,0,0,0,0,0,0,0,0,0,0,0,0,0,0,0,0,0,0,0,0,0,0,0,0,0,0,0,0,0,0],"id":5,"left_children":[1,3,5,7,9,11,13,15,17,19,21,23,25,27,29,31,33,35,37,39,41,43,45,47,49,51,53,55,57,59,61,63,65,67,69,71,73,75,77,79,81,83,85,87,89,91,93,95,97,99,101,-1,103,105,107,109,111,113,115,117,119,121,123,-1,-1,-1,-1,-1,-1,-1,-1,-1,-1,-1,-1,-1,-1,-1,-1,-1,-1,-1,-1,-1,-1,-1,-1,-1,-1,-1,-1,-1,-1,-1,-1,-1,-1,-1,-1,-1,-1,-1,-1,-1,-1,-1,-1,-1,-1,-1,-1,-1,-1,-1,-1,-1,-1,-1,-1,-1,-1,-1,-1,-1,-1],"loss_changes":[3.308583E3,7.655906E2,3.9602222E2,2.911748E2,5.239978E2,2.2764417E2,6.16792E1,5.7696533E1,1.7230487E2,1.1553339E2,9.100936E1,7.503019E1,6.133728E1,3.521112E1,2.6184326E1,9.917847E0,5.3482544E1,4.654364E1,5.4598526E1,6.13786E1,6.540115E1,1.9627525E1,6.303833E1,5.0724205E1,3.0922699E1,1.6208282E1,4.3296448E1,2.1266525E1,9.218811E0,1.9492859E1,1.8321533E0,1.4764557E0,8.641724E0,2.1910706E1,2.7306519E1,2.718274E1,9.437218E0,1.8632355E1,3.5580963E1,8.200293E0,4.3882324E1,3.9052704E1,5.4845047E1,9.022219E0,8.196938E0,5.2255184E1,2.5982693E1,6.5323086E0,4.5316322E1,2.502067E1,2.533305E1,0E0,8.624573E0,3.0009102E1,9.746857E0,1.0288574E1,2.4388392E0,4.273468E0,6.1760864E0,9.917114E0,7.2090454E0,1.0013623E0,9.8983765E-1,0E0,0E0,0E0,0E0,0E0,0E0,0E0,0E0,0E0,0E0,0E0,0E0,0E0,0E0,0E0,0E0,0E0,0E0,0E0,0E0,0E0,0E0,0E0,0E0,0E0,0E0,0E0,0E0,0E0,0E0,0E0,0E0,0E0,0E0,0E0,0E0,0E0,0E0,0E0,0E0,0E0,0E0,0E0,0E0,0E0,0E0,0E0,0E0,0E0,0E0,0E0,0E0,0E0,0E0,0E0,0E0,0E0,0E0,0E0,0E0,0E0,0E0],"parents":[2147483647,0,0,1,1,2,2,3,3,4,4,5,5,6,6,7,7,8,8,9,9,10,10,11,11,12,12,13,13,14,14,15,15,16,16,17,17,18,18,19,19,20,20,21,21,22,22,23,23,24,24,25,25,26,26,27,27,28,28,29,29,30,30,31,31,32,32,33,33,34,34,35,35,36,36,37,37,38,38,39,39,40,40,41,41,42,42,43,43,44,44,45,45,46,46,47,47,48,48,49,49,50,50,52,52,53,53,54,54,55,55,56,56,57,57,58,58,59,59,60,60,61,61,62,62],"right_children":[2,4,6,8,10,12,14,16,18,20,22,24,26,28,30,32,34,36,38,40,42,44,46,48,50,52,54,56,58,60,62,64,66,68,70,72,74,76,78,80,82,84,86,88,90,92,94,96,98,100,102,-1,104,106,108,110,112,114,116,118,120,122,124,-1,-1,-1,-1,-1,-1,-1,-1,-1,-1,-1,-1,-1,-1,-1,-1,-1,-1,-1,-1,-1,-1,-1,-1,-1,-1,-1,-1,-1,-1,-1,-1,-1,-1,-1,-1,-1,-1,-1,-1,-1,-1,-1,-1,-1,-1,-1,-1,-1,-1,-1,-1,-1,-1,-1,-1,-1,-1,-1,-1,-1,-1],"split_conditions":[2.0622923E-4,5.6236724E-5,6.2323053E-4,1E1,9E0,8E0,1.6844188E-1,2.3548208E-5,1.8265971E-5,1.0941774E-4,-2.6904433E0,3.7895737E-4,-2.2600613E0,-1.1452237E0,-8.7470347E-1,6E1,9E0,-2.8757432E0,-3.235143E0,-2.8899693E0,7E0,1.44E3,1.1E1,-2.4929948E0,1.9369898E-2,7.8E2,3.561015E-4,-4.1149655E-1,7E0,2.4706654E-1,-3.0296373E0,8.75E0,-2.9213605E0,3.4665238E-2,-3.0351708E0,1.2816282E-1,-4.172319E0,2.657129E-1,2.74E3,-3.478785E0,7E0,3.4665238E-2,1.2212771E-2,1.19E3,9.4994825E-1,9.3252864E-5,-3.1461625E0,1.23E3,2.0864258E-2,7E0,-5.387489E-1,-3.520686E-2,-2.6423986E0,1E1,-1.0738469E0,7E0,9.936529E-2,-5.1639295E-1,-5.3212893E-1,1.355E3,7E0,1.55E2,1.1916666E3,-3.4712877E-2,-1.551433E-3,-4.5226607E-2,-6.2390953E-2,-4.985082E-2,-2.7247634E-2,-1.7992643E-3,-3.1701922E-2,-4.768451E-2,-2.3759644E-2,-0E0,-2.5029343E-2,-2.5659753E-2,7.591866E-4,-1.5068221E-2,1.2457761E-4,9.437183E-3,-1.1319676E-2,-5.320728E-2,-3.0043613E-2,-3.7554454E-2,-6.4613516E-3,-1.8556787E-2,-4.017522E-3,-3.6082838E-2,6.2077246E-3,1.4639566E-2,2.7274966E-2,-1.4883377E-2,-1.8908469E-3,1.771412E-2,2.3336082E-3,-1.3138263E-6,1.7538104E-2,-1.384309E-2,3.7740998E-4,-5.898452E-3,5.8412207E-3,1.49979135E-2,-1.4616416E-2,2.8243555E-2,1.9082721E-2,3.0846882E-3,1.2312896E-2,1.3246042E-2,2.0433892E-2,7.939733E-3,1.5475303E-2,-1.4316487E-2,-0E0,1.3074037E-2,2.2687081E-2,2.1886593E-2,3.1432785E-2,1.6525878E-2,2.3941705E-2,2.2219317E-2,2.9211663E-2,2.3000075E-2,-0E0,3.0820314E-2,3.9244458E-2],"split_indices":[19,19,19,8,8,8,6,19,19,19,0,19,0,1,1,16,8,3,3,0,8,18,8,0,27,17,19,3,8,6,3,134,0,27,0,6,0,6,18,0,8,27,27,17,21,19,1,17,27,8,3,0,0,8,1,8,6,1,1,14,8,16,14,0,0,0,0,0,0,0,0,0,0,0,0,0,0,0,0,0,0,0,0,0,0,0,0,0,0,0,0,0,0,0,0,0,0,0,0,0,0,0,0,0,0,0,0,0,0,0,0,0,0,0,0,0,0,0,0,0,0,0,0,0,0],"split_type":[0,0,0,0,0,0,0,0,0,0,0,0,0,0,0,0,0,0,0,0,0,0,0,0,0,0,0,0,0,0,0,0,0,0,0,0,0,0,0,0,0,0,0,0,0,0,0,0,0,0,0,0,0,0,0,0,0,0,0,0,0,0,0,0,0,0,0,0,0,0,0,0,0,0,0,0,0,0,0,0,0,0,0,0,0,0,0,0,0,0,0,0,0,0,0,0,0,0,0,0,0,0,0,0,0,0,0,0,0,0,0,0,0,0,0,0,0,0,0,0,0,0,0,0,0],"sum_hessian":[5.7321E4,2.5072E4,3.2249E4,8.461E3,1.6611E4,1.9418E4,1.2831E4,3.283E3,5.178E3,7.122E3,9.489E3,7.727E3,1.1691E4,6.215E3,6.616E3,9.85E2,2.298E3,1.827E3,3.351E3,2.677E3,4.445E3,1.262E3,8.227E3,3.784E3,3.943E3,1.75E3,9.941E3,3.583E3,2.632E3,5.773E3,8.43E2,7.5E1,9.1E2,1.353E3,9.45E2,1.197E3,6.3E2,1.233E3,2.118E3,2.85E2,2.392E3,8E2,3.645E3,4.12E2,8.5E2,4.97E3,3.257E3,3.84E2,3.4E3,2.657E3,1.286E3,1.3E1,1.737E3,5.173E3,4.768E3,3.4E3,1.83E2,9.24E2,1.708E3,2.971E3,2.802E3,6.8E1,7.75E2,6.3E1,1.2E1,2.27E2,6.83E2,1.145E3,2.08E2,1.3E2,8.15E2,9.66E2,2.31E2,5.4E1,5.76E2,1.14E3,9.3E1,1.122E3,9.96E2,9.3E1,1.92E2,3.51E2,2.041E3,6.06E2,1.94E2,1.86E3,1.785E3,1.5E1,3.97E2,4.87E2,3.63E2,1.586E3,3.384E3,4.43E2,2.814E3,8.3E1,3.01E2,2.226E3,1.174E3,1.012E3,1.645E3,1.182E3,1.04E2,7.46E2,9.91E2,3.122E3,2.051E3,3.887E3,8.81E2,9.42E2,2.458E3,8E1,1.03E2,6.3E2,2.94E2,1.316E3,3.92E2,1.79E3,1.181E3,1.045E3,1.757E3,5.6E1,1.2E1,3.59E2,4.16E2],"tree_param":{"num_deleted":"0","num_feature":"172","num_nodes":"125","size_leaf_vector":"1"}},{"base_weights":[-1.3080208E-3,-3.543922E-1,1.4538497E-1,-5.9668237E-1,-2.516587E-1,1.2485737E-2,2.7623186E-1,-8.256169E-1,-4.6239516E-1,-5.576956E-1,-1.3605054E-1,-1.7707133E-1,1.0274303E-1,2.1569541E-1,3.6016604E-1,-9.268562E-1,-6.106399E-1,-1.221615E-1,-5.207119E-1,-7.197697E-1,-4.3564066E-1,-2.4594665E-1,-2.5891434E-2,-2.7807954E-1,1.0466409E-2,2.4697499E-1,5.7013236E-2,1.2643224E-1,2.9623857E-1,3.806626E-1,1.096689E-1,-1.0415258E0,-7.539221E-1,-6.435124E-1,-2.951921E-2,1.3084961E-1,-2.0044182E-1,-6.097591E-1,-2.8873575E-1,-8.047469E-1,-4.828304E-1,-5.665797E-1,-2.920262E-1,-3.1433612E-1,-6.2182453E-2,-1.7501117E-1,7.9130806E-2,4.2202853E-2,-3.2442153E-1,3.0954894E-2,-4.5651373E-1,1.3133214E-1,3.3206064E-1,-6.096897E-2,1.1703296E-1,6.553271E-3,1.797408E-1,4.2474362E-1,2.6113358E-1,3.354522E-1,4.5953256E-1,1.7230366E-1,-5.5447686E-2,-7.150084E-2,-5.5946685E-2,-5.9189692E-2,-3.81575E-2,-2.1368392E-2,-4.286202E-2,-1.2993914E-2,6.496805E-3,-0E0,1.7978102E-2,-2.2825198E-2,-7.4474015E-3,-4.6154678E-2,-2.6866935E-2,-2.4733622E-2,-8.160827E-3,-5.2479193E-2,-3.670092E-2,-3.86523E-2,-1.9744152E-2,-3.8718123E-2,-2.3693394E-2,-6.2169726E-3,-2.805874E-2,-2.4266755E-2,-1.0661369E-2,4.6561714E-3,-7.5155958E-3,-1.6356073E-2,-3.1913214E-3,2.7092688E-7,1.4456977E-2,-1.3837536E-2,9.409351E-3,-2.5444347E-2,-1.1623372E-2,2.1764053E-2,-3.0624046E-4,-3.5053357E-2,-3.392219E-3,5.831003E-4,1.3803681E-2,2.2192974E-2,4.53338E-3,-1.0455344E-2,2.7384553E-3,1.2202595E-3,1.0244837E-2,-7.246049E-3,4.38226E-3,1.16046E-2,-9.927546E-3,2.6337061E-2,7.590036E-3,1.1849376E-2,1.8523153E-2,1.5568703E-2,2.1619761E-2,2.2838226E-2,2.9628176E-2,1.1842702E-2,2.3756877E-3,-2.0675274E-2,-1.1562861E-3],"categories":[],"categories_nodes":[],"categories_segments":[],"categories_sizes":[],"default_left":[0,0,0,0,0,0,0,0,0,0,0,0,0,0,0,0,0,0,0,0,0,0,0,0,0,0,0,0,0,0,0,0,0,0,0,0,0,0,0,0,0,0,0,0,0,0,0,0,0,0,0,0,0,0,0,0,0,0,0,0,0,0,0,0,0,0,0,0,0,0,0,0,0,0,0,0,0,0,0,0,0,0,0,0,0,0,0,0,0,0,0,0,0,0,0,0,0,0,0,0,0,0,0,0,0,0,0,0,0,0,0,0,0,0,0,0,0,0,0,0,0,0,0,0,0,0,0],"id":6,"left_children":[1,3,5,7,9,11,13,15,17,19,21,23,25,27,29,31,33,35,37,39,41,43,45,47,49,51,53,55,57,59,61,63,65,67,69,71,73,75,77,79,81,83,85,87,89,91,93,95,97,99,101,103,105,107,109,111,113,115,117,119,121,123,125,-1,-1,-1,-1,-1,-1,-1,-1,-1,-1,-1,-1,-1,-1,-1,-1,-1,-1,-1,-1,-1,-1,-1,-1,-1,-1,-1,-1,-1,-1,-1,-1,-1,-1,-1,-1,-1,-1,-1,-1,-1,-1,-1,-1,-1,-1,-1,-1,-1,-1,-1,-1,-1,-1,-1,-1,-1,-1,-1,-1,-1,-1,-1,-1],"loss_changes":[2.9627346E3,4.1614404E2,7.021221E2,1.5032324E2,4.161773E2,3.4303018E2,1.0226013E2,3.590088E1,6.1432373E1,6.1149414E1,1.0332417E2,1.22885864E2,8.912114E1,8.43526E1,4.27937E1,1.9428589E1,1.0351028E1,9.4926405E0,5.3627563E1,2.4552002E1,3.3036682E1,5.317096E1,6.740872E1,6.2936615E1,2.0971075E1,3.1229462E1,7.328064E1,3.568509E1,2.6604736E1,2.6306763E1,6.9786205E0,4.7908325E0,9.051178E0,1.0875824E1,1.2586553E0,2.0508063E0,4.07812E0,4.8697693E1,1.383897E1,1.1706421E1,7.388031E0,1.1874847E1,2.974125E1,3.938037E1,1.0932782E1,2.1511234E1,3.2682022E1,1.7242912E1,4.9035797E1,2.716625E1,3.9212399E0,1.7058195E1,2.0509155E1,4.377507E1,3.7259964E1,1.5294168E1,2.353389E1,7.637253E0,1.4649078E1,9.98407E0,6.878845E0,1.4136686E0,1.2299788E0,0E0,0E0,0E0,0E0,0E0,0E0,0E0,0E0,0E0,0E0,0E0,0E0,0E0,0E0,0E0,0E0,0E0,0E0,0E0,0E0,0E0,0E0,0E0,0E0,0E0,0E0,0E0,0E0,0E0,0E0,0E0,0E0,0E0,0E0,0E0,0E0,0E0,0E0,0E0,0E0,0E0,0E0,0E0,0E0,0E0,0E0,0E0,0E0,0E0,0E0,0E0,0E0,0E0,0E0,0E0,0E0,0E0,0E0,0E0,0E0,0E0,0E0,0E0,0E0],"parents":[2147483647,0,0,1,1,2,2,3,3,4,4,5,5,6,6,7,7,8,8,9,9,10,10,11,11,12,12,13,13,14,14,15,15,16,16,17,17,18,18,19,19,20,20,21,21,22,22,23,23,24,24,25,25,26,26,27,27,28,28,29,29,30,30,31,31,32,32,33,33,34,34,35,35,36,36,37,37,38,38,39,39,40,40,41,41,42,42,43,43,44,44,45,45,46,46,47,47,48,48,49,49,50,50,51,51,52,52,53,53,54,54,55,55,56,56,57,57,58,58,59,59,60,60,61,61,62,62],"right_children":[2,4,6,8,10,12,14,16,18,20,22,24,26,28,30,32,34,36,38,40,42,44,46,48,50,52,54,56,58,60,62,64,66,68,70,72,74,76,78,80,82,84,86,88,90,92,94,96,98,100,102,104,106,108,110,112,114,116,118,120,122,124,126,-1,-1,-1,-1,-1,-1,-1,-1,-1,-1,-1,-1,-1,-1,-1,-1,-1,-1,-1,-1,-1,-1,-1,-1,-1,-1,-1,-1,-1,-1,-1,-1,-1,-1,-1,-1,-1,-1,-1,-1,-1,-1,-1,-1,-1,-1,-1,-1,-1,-1,-1,-1,-1,-1,-1,-1,-1,-1,-1,-1,-1,-1,-1,-1],"split_conditions":[1.19577235E-4,9E0,4.0326704E-4,5.6236724E-5,2.6288595E-5,8E0,8.2090317E-4,5.486126E-1,-2.6423986E0,-3.4143813E0,-2.6951337E0,7.448981E-1,-2.107809E0,8E0,-7.704262E-1,-2.5761936E0,8.415616E-1,-3.478785E0,6.605572E-1,-2.056422E0,3.3836076E-1,-1.610183E0,4.514061E-1,-2.4592822E0,-2.0149495E-1,5.824209E-1,5.861845E-1,7.279703E-1,-1.934591E0,-1.2713314E0,1.5223532E-2,8E0,3.5278782E-1,-1.6694273E0,4.3E4,9.429733E-1,4.678035E-1,8E0,-3.252974E0,1.2E1,1.1E1,1.2E1,-1.9009753E0,1.1E1,-2.3721337E0,1.1E1,-2.270246E0,5.879839E-1,2.4752918E-4,-2.2756276E0,9.9538654E-1,1E1,-9.1124845E-1,1E1,9E0,7E0,-4.890472E-1,-6.919941E-1,7.10789E-1,7.925657E-1,8.2543606E-1,1.1E1,1.1196629E0,-7.150084E-2,-5.5946685E-2,-5.9189692E-2,-3.81575E-2,-2.1368392E-2,-4.286202E-2,-1.2993914E-2,6.496805E-3,-0E0,1.7978102E-2,-2.2825198E-2,-7.4474015E-3,-4.6154678E-2,-2.6866935E-2,-2.4733622E-2,-8.160827E-3,-5.2479193E-2,-3.670092E-2,-3.86523E-2,-1.9744152E-2,-3.8718123E-2,-2.3693394E-2,-6.2169726E-3,-2.805874E-2,-2.4266755E-2,-1.0661369E-2,4.6561714E-3,-7.5155958E-3,-1.6356073E-2,-3.1913214E-3,2.7092688E-7,1.4456977E-2,-1.3837536E-2,9.409351E-3,-2.5444347E-2,-1.1623372E-2,2.1764053E-2,-3.0624046E-4,-3.5053357E-2,-3.392219E-3,5.831003E-4,1.3803681E-2,2.2192974E-2,4.53338E-3,-1.0455344E-2,2.7384553E-3,1.2202595E-3,1.0244837E-2,-7.246049E-3,4.38226E-3,1.16046E-2,-9.927546E-3,2.6337061E-2,7.590036E-3,1.1849376E-2,1.8523153E-2,1.5568703E-2,2.1619761E-2,2.2838226E-2,2.9628176E-2,1.1842702E-2,2.3756877E-3,-2.0675274E-2,-1.1562861E-3],"split_indices":[19,8,19,19,19,8,19,20,0,3,3,20,0,8,3,3,20,0,20,2,20,2,20,0,3,20,20,20,0,2,27,8,20,0,75,21,20,8,3,8,8,8,0,8,0,8,2,20,19,0,21,8,3,8,8,8,3,3,20,20,20,69,21,0,0,0,0,0,0,0,0,0,0,0,0,0,0,0,0,0,0,0,0,0,0,0,0,0,0,0,0,0,0,0,0,0,0,0,0,0,0,0,0,0,0,0,0,0,0,0,0,0,0,0,0,0,0,0,0,0,0,0,0,0,0,0,0],"split_type":[0,0,0,0,0,0,0,0,0,0,0,0,0,0,0,0,0,0,0,0,0,0,0,0,0,0,0,0,0,0,0,0,0,0,0,0,0,0,0,0,0,0,0,0,0,0,0,0,0,0,0,0,0,0,0,0,0,0,0,0,0,0,0,0,0,0,0,0,0,0,0,0,0,0,0,0,0,0,0,0,0,0,0,0,0,0,0,0,0,0,0,0,0,0,0,0,0,0,0,0,0,0,0,0,0,0,0,0,0,0,0,0,0,0,0,0,0,0,0,0,0,0,0,0,0,0,0],"sum_hessian":[5.7189E4,1.6788E4,4.0401E4,4.99E3,1.1798E4,2.0051E4,2.035E4,1.835E3,3.155E3,3.228E3,8.57E3,6.461E3,1.359E4,1.184E4,8.51E3,1.236E3,5.99E2,4.67E2,2.688E3,1.375E3,1.853E3,4.281E3,4.289E3,4.204E3,2.257E3,3.26E3,1.033E4,5.629E3,6.211E3,7.859E3,6.51E2,7.29E2,5.07E2,5.64E2,3.5E1,1.05E2,3.62E2,1.934E3,7.54E2,1.002E3,3.73E2,9.59E2,8.94E2,3.112E3,1.169E3,1.778E3,2.511E3,5.27E2,3.677E3,2.168E3,8.9E1,1.393E3,1.867E3,3.474E3,6.856E3,1.743E3,3.886E3,1.316E3,4.895E3,5.018E3,2.841E3,4.79E2,1.72E2,2.35E2,4.94E2,1.39E2,3.68E2,1.38E2,4.26E2,1.9E1,1.6E1,6.6E1,3.9E1,9.3E1,2.69E2,8.97E2,1.037E3,3.94E2,3.6E2,6.66E2,3.36E2,1.62E2,2.11E2,6.06E2,3.53E2,4.51E2,4.43E2,1.786E3,1.326E3,3.62E2,8.07E2,9.52E2,8.26E2,1.71E3,8.01E2,1.52E2,3.75E2,1.981E3,1.696E3,2.11E2,1.957E3,6.2E1,2.7E1,6.48E2,7.45E2,1.582E3,2.85E2,1.673E3,1.801E3,2.558E3,4.298E3,5.9E2,1.153E3,3.708E3,1.78E2,1.217E3,9.9E1,2.325E3,2.57E3,1.567E3,3.451E3,1.096E3,1.745E3,3.82E2,9.7E1,1.1E1,1.61E2],"tree_param":{"num_deleted":"0","num_feature":"172","num_nodes":"127","size_leaf_vector":"1"}},{"base_weights":[1.3400675E-3,-2.4397019E-1,1.6864152E-1,-4.6263885E-1,-1.5145622E-1,7.95081E-2,2.7860358E-1,-1.1726509E-1,-5.062961E-1,-2.58206E-1,7.205008E-3,-3.910018E-3,1.9804488E-1,2.3204242E-1,3.7933174E-1,-3.1921765E-1,4.105089E-2,-7.243955E-1,-3.8235503E-1,-4.0089706E-4,-3.659654E-1,2.0709167E-1,-3.8534675E-2,1.6712135E-1,-7.1587645E-2,3.1495324E-1,1.5838286E-1,2.062002E-1,3.9318475E-1,2.4360128E-1,3.9946964E-1,1.6154863E-2,-3.795891E-1,1.17805734E-1,-2.410865E-1,-5.4083115E-1,-8.087192E-1,-6.252939E-1,-2.9067552E-1,-4.9570646E-2,2.7157998E-1,-5.7934904E-1,-2.691807E-1,3.131844E-1,1.0582184E-1,-1.7333214E-1,2.6289623E-2,3.514352E-1,1.1448431E-1,1.8457714E-1,-1.238543E-1,4.276023E-1,2.7329496E-1,3.026671E-1,1.3055475E-1,9.46871E-2,2.420313E-1,2.9369673E-1,4.5739126E-1,9.1787696E-2,2.8875244E-1,3.4303716E-1,4.8106655E-1,-2.020125E-3,1.3147199E-2,-3.1262293E-2,-1.1283105E-2,1.7115104E-3,1.5897825E-2,-3.947419E-2,-7.2249845E-3,-2.1257801E-2,-4.205084E-2,-6.194059E-2,-4.39057E-2,-4.3961845E-2,-2.825404E-2,-2.4703303E-3,-2.1826658E-2,7.325131E-3,-6.822901E-3,8.575569E-3,2.1901626E-2,-1.655715E-2,-3.8388725E-2,-2.4505261E-2,-9.40469E-3,2.5060495E-2,1.280088E-2,1.7851653E-2,2.850161E-3,1.03224E-3,-1.4910537E-2,1.3655674E-2,-7.4140157E-4,2.9141707E-2,1.7089592E-2,1.6262565E-2,2.7815253E-3,1.8205948E-2,4.9406593E-3,-1.9926164E-2,-4.15597E-3,2.617025E-2,6.7931353E-3,2.4158549E-2,1.3734214E-2,2.2838311E-2,1.2313521E-2,1.5465643E-2,5.4428913E-3,1.3179649E-2,-0E0,2.0635918E-2,1.262899E-2,-0E0,1.8187787E-2,6.4827735E-3,2.7572375E-2,1.1391797E-2,-0E0,2.094253E-2,1.2042275E-2,2.3618996E-2,1.7887311E-2,1.9789021E-2,3.0349847E-2],"categories":[],"categories_nodes":[],"categories_segments":[],"categories_sizes":[],"default_left":[0,0,0,0,0,0,0,0,0,0,0,0,0,0,0,0,0,0,0,0,0,0,0,0,0,0,0,0,0,0,0,0,0,0,0,0,0,0,0,0,0,0,0,0,0,0,0,0,0,0,0,0,0,0,0,0,0,0,0,0,0,0,0,0,0,0,0,0,0,0,0,0,0,0,0,0,0,0,0,0,0,0,0,0,0,0,0,0,0,0,0,0,0,0,0,0,0,0,0,0,0,0,0,0,0,0,0,0,0,0,0,0,0,0,0,0,0,0,0,0,0,0,0,0,0,0,0],"id":7,"left_children":[1,3,5,7,9,11,13,15,17,19,21,23,25,27,29,31,33,35,37,39,41,43,45,47,49,51,53,55,57,59,61,63,65,67,69,71,73,75,77,79,81,83,85,87,89,91,93,95,97,99,101,103,105,107,109,111,113,115,117,119,121,123,125,-1,-1,-1,-1,-1,-1,-1,-1,-1,-1,-1,-1,-1,-1,-1,-1,-1,-1,-1,-1,-1,-1,-1,-1,-1,-1,-1,-1,-1,-1,-1,-1,-1,-1,-1,-1,-1,-1,-1,-1,-1,-1,-1,-1,-1,-1,-1,-1,-1,-1,-1,-1,-1,-1,-1,-1,-1,-1,-1,-1,-1,-1,-1,-1],"loss_changes":[2.3536753E3,4.6916736E2,3.335984E2,1.0294678E2,2.7729666E2,1.8667682E2,7.031824E1,2.5517412E1,1.6301001E2,2.710702E2,6.0380722E1,1.27861725E2,3.522473E1,4.2326355E1,1.1822327E1,7.6698036E0,9.340275E0,3.0807861E1,8.5236755E1,3.8324375E1,1.4051361E2,1.2450382E1,4.6946693E1,2.948523E1,1.06151215E2,7.7335052E0,2.2612991E1,3.5440765E1,7.5534515E0,3.6864548E0,1.7405579E1,8.695985E-1,7.062088E0,4.2148914E0,3.0456247E0,1.9662766E1,1.799121E1,1.5784851E1,5.598889E1,2.8319197E1,4.537136E0,4.4227722E1,7.5298065E1,5.0648384E0,6.6594644E0,2.6956097E1,2.9153702E1,4.353882E0,2.6013973E1,1.6087578E1,7.462945E1,1.6255417E0,6.646866E0,6.2227173E0,2.4061607E1,2.6890013E1,1.9265503E1,2.3123093E0,2.09935E0,1.6478913E0,1.604454E0,4.1861267E0,6.4964905E0,0E0,0E0,0E0,0E0,0E0,0E0,0E0,0E0,0E0,0E0,0E0,0E0,0E0,0E0,0E0,0E0,0E0,0E0,0E0,0E0,0E0,0E0,0E0,0E0,0E0,0E0,0E0,0E0,0E0,0E0,0E0,0E0,0E0,0E0,0E0,0E0,0E0,0E0,0E0,0E0,0E0,0E0,0E0,0E0,0E0,0E0,0E0,0E0,0E0,0E0,0E0,0E0,0E0,0E0,0E0,0E0,0E0,0E0,0E0,0E0,0E0,0E0,0E0,0E0],"parents":[2147483647,0,0,1,1,2,2,3,3,4,4,5,5,6,6,7,7,8,8,9,9,10,10,11,11,12,12,13,13,14,14,15,15,16,16,17,17,18,18,19,19,20,20,21,21,22,22,23,23,24,24,25,25,26,26,27,27,28,28,29,29,30,30,31,31,32,32,33,33,34,34,35,35,36,36,37,37,38,38,39,39,40,40,41,41,42,42,43,43,44,44,45,45,46,46,47,47,48,48,49,49,50,50,51,51,52,52,53,53,54,54,55,55,56,56,57,57,58,58,59,59,60,60,61,61,62,62],"right_children":[2,4,6,8,10,12,14,16,18,20,22,24,26,28,30,32,34,36,38,40,42,44,46,48,50,52,54,56,58,60,62,64,66,68,70,72,74,76,78,80,82,84,86,88,90,92,94,96,98,100,102,104,106,108,110,112,114,116,118,120,122,124,126,-1,-1,-1,-1,-1,-1,-1,-1,-1,-1,-1,-1,-1,-1,-1,-1,-1,-1,-1,-1,-1,-1,-1,-1,-1,-1,-1,-1,-1,-1,-1,-1,-1,-1,-1,-1,-1,-1,-1,-1,-1,-1,-1,-1,-1,-1,-1,-1,-1,-1,-1,-1,-1,-1,-1,-1,-1,-1,-1,-1,-1,-1,-1,-1],"split_conditions":[9.9671423E-1,8.4809226E-1,1.1211367E0,7.549081E0,1E1,9E0,-1.2713314E0,-3.3749352E0,1E1,9.5E1,-2.5125532E0,5.632139E0,-2.0079415E0,-7.473463E-1,-2.7522666E0,-1.5224671E0,5.5E1,-2.574676E0,7.1972877E-1,-1.01984315E-1,8E0,8.58667E0,9.0769255E-1,-1.2049762E0,-2.3049657E0,-2.7185407E0,-2.6281822E0,7E0,-2.0643177E0,9.628571E2,-1.5198218E0,3.5714287E-1,2.071111E3,8.1089634E-1,7E0,1.00069475E1,8E0,1.2E1,-2.8000894E0,5.292901E0,-2.8757432E0,-2.42287E0,-2.7629855E0,-2.9596255E0,-3.5579128E0,-2.8718088E0,-2.9985642E0,-1.9694954E0,4.3748097E0,6.8896265E0,7E0,3.1E2,6.671304E0,2E0,6.0602546E0,4.6493373E0,4.7357564E0,-3.2340677E0,-3.1831377E0,-1.1827585E0,1.55E2,5.089849E0,7.771429E2,-2.020125E-3,1.3147199E-2,-3.1262293E-2,-1.1283105E-2,1.7115104E-3,1.5897825E-2,-3.947419E-2,-7.2249845E-3,-2.1257801E-2,-4.205084E-2,-6.194059E-2,-4.39057E-2,-4.3961845E-2,-2.825404E-2,-2.4703303E-3,-2.1826658E-2,7.325131E-3,-6.822901E-3,8.575569E-3,2.1901626E-2,-1.655715E-2,-3.8388725E-2,-2.4505261E-2,-9.40469E-3,2.5060495E-2,1.280088E-2,1.7851653E-2,2.850161E-3,1.03224E-3,-1.4910537E-2,1.3655674E-2,-7.4140157E-4,2.9141707E-2,1.7089592E-2,1.6262565E-2,2.7815253E-3,1.8205948E-2,4.9406593E-3,-1.9926164E-2,-4.15597E-3,2.617025E-2,6.7931353E-3,2.4158549E-2,1.3734214E-2,2.2838311E-2,1.2313521E-2,1.5465643E-2,5.4428913E-3,1.3179649E-2,-0E0,2.0635918E-2,1.262899E-2,-0E0,1.8187787E-2,6.4827735E-3,2.7572375E-2,1.1391797E-2,-0E0,2.094253E-2,1.2042275E-2,2.3618996E-2,1.7887311E-2,1.9789021E-2,3.0349847E-2],"split_indices":[21,21,21,26,8,8,2,3,8,16,0,26,0,1,3,0,16,0,21,1,8,26,21,0,0,0,1,8,2,14,1,70,14,21,8,26,8,8,0,26,3,0,3,0,0,1,1,0,26,26,8,16,26,83,26,26,26,2,3,0,16,26,14,0,0,0,0,0,0,0,0,0,0,0,0,0,0,0,0,0,0,0,0,0,0,0,0,0,0,0,0,0,0,0,0,0,0,0,0,0,0,0,0,0,0,0,0,0,0,0,0,0,0,0,0,0,0,0,0,0,0,0,0,0,0,0,0],"split_type":[0,0,0,0,0,0,0,0,0,0,0,0,0,0,0,0,0,0,0,0,0,0,0,0,0,0,0,0,0,0,0,0,0,0,0,0,0,0,0,0,0,0,0,0,0,0,0,0,0,0,0,0,0,0,0,0,0,0,0,0,0,0,0,0,0,0,0,0,0,0,0,0,0,0,0,0,0,0,0,0,0,0,0,0,0,0,0,0,0,0,0,0,0,0,0,0,0,0,0,0,0,0,0,0,0,0,0,0,0,0,0,0,0,0,0,0,0,0,0,0,0,0,0,0,0,0,0],"sum_hessian":[5.7347E4,2.3248E4,3.4099E4,6.903E3,1.6345E4,1.8844E4,1.5255E4,7.8E2,6.123E3,9.776E3,6.569E3,1.1054E4,7.79E3,1.045E4,4.805E3,3.46E2,4.34E2,2.209E3,3.914E3,2.887E3,6.889E3,1.228E3,5.341E3,3.126E3,7.928E3,1.958E3,5.832E3,9.02E3,1.43E3,6.36E2,4.169E3,4.9E1,2.97E2,3.47E2,8.7E1,7.08E2,1.501E3,1.063E3,2.851E3,2.452E3,4.35E2,2.14E3,4.749E3,5.89E2,6.39E2,1.741E3,3.6E3,6.84E2,2.442E3,1.337E3,6.591E3,5.11E2,1.447E3,9.29E2,4.903E3,2.207E3,6.813E3,5.77E2,8.53E2,1.56E2,4.8E2,2.485E3,1.684E3,3.5E1,1.4E1,1.57E2,1.4E2,2.28E2,1.19E2,1.3E1,7.4E1,3.56E2,3.52E2,2.96E2,1.205E3,5.68E2,4.95E2,6.99E2,2.152E3,6.69E2,1.783E3,2.03E2,2.32E2,4.25E2,1.715E3,2.019E3,2.73E3,2.59E2,3.3E2,1.35E2,5.04E2,5.08E2,1.233E3,5.77E2,3.023E3,1.91E2,4.93E2,7.08E2,1.734E3,5.88E2,7.49E2,1.303E3,5.288E3,4.79E2,3.2E1,3.13E2,1.134E3,4.73E2,4.56E2,1.086E3,3.817E3,9.3E2,1.277E3,1.366E3,5.447E3,3.1E1,5.46E2,3.1E1,8.22E2,7.7E1,7.9E1,2.52E2,2.28E2,9.78E2,1.507E3,3.36E2,1.348E3],"tree_param":{"num_deleted":"0","num_feature":"172","num_nodes":"127","size_leaf_vector":"1"}},{"base_weights":[-6.9298444E-4,-2.3033583E-1,1.7858349E-1,-4.310192E-1,-1.2737054E-1,1.0638911E-1,2.9919505E-1,-5.635206E-1,-2.3753355E-1,-3.0470428E-1,5.8137844E-3,-4.2370525E-3,1.8120284E-1,2.4270396E-1,3.6172995E-1,-7.3245126E-1,-4.6725875E-1,-4.1749734E-1,-7.995787E-2,-4.5070472E-1,-2.0282018E-1,2.2856024E-1,-3.0508887E-2,-9.0610124E-2,1.24273695E-1,2.998393E-1,1.46294E-1,1.8441726E-1,3.225075E-1,3.056546E-1,4.1644827E-1,-8.074907E-1,-5.0118196E-1,-7.122661E-1,-3.6504626E-1,-8.312443E-1,-3.631468E-1,-1.4722627E-1,1.3496636E-1,-8.127384E-1,-3.9636886E-1,1.3096969E-1,-2.4546905E-1,4.2095897E-1,1.5090169E-1,-1.4164615E-1,3.4321766E-2,-2.2759867E-1,-1.9876527E-2,9.42712E-2,3.6671168E-1,2.0481661E-1,3.6947018E-1,7.69751E-2,2.0819888E-1,2.0518453E-1,-2.1049498E-2,2.4452023E-1,3.6438596E-1,2.4994129E-1,3.636591E-1,3.8114625E-1,5.185987E-1,-5.286833E-2,-3.7003193E-2,-3.6560822E-2,-2.0448374E-2,-4.9378697E-2,-3.1462062E-2,-7.7831317E-3,-2.520295E-2,-5.192549E-2,-1.4416058E-2,-1.7103759E-3,-2.5197156E-2,4.2881854E-3,-1.0929594E-2,2.429171E-3,1.6010998E-2,-5.4557588E-2,-3.512677E-2,-3.2132547E-2,-1.6727561E-2,1.28905885E-2,-8.949364E-3,-2.8074192E-2,-1.0917126E-2,2.668984E-2,6.5000616E-3,1.3637725E-2,1.4067299E-3,-1.3765511E-2,-1.2725947E-3,-3.425673E-3,7.778226E-3,-2.2112716E-2,-7.964375E-3,7.980391E-3,-4.209743E-3,5.371568E-4,9.733989E-3,1.656871E-2,3.1389154E-2,-5.2222356E-2,1.2886764E-2,2.3344707E-2,-1.5276881E-3,-2.3695678E-3,7.4263494E-3,8.303267E-3,1.4226584E-2,9.025613E-3,1.4626995E-2,-1.01705855E-2,8.7663817E-4,7.841704E-3,1.9183373E-2,1.911589E-2,2.6991293E-2,8.675485E-3,1.8111154E-2,1.8313533E-2,2.5523698E-2,2.2712883E-2,-0E0,1.9422246E-2,3.2008953E-2],"categories":[],"categories_nodes":[],"categories_segments":[],"categories_sizes":[],"default_left":[0,0,0,0,0,0,0,0,0,0,0,0,0,0,0,0,0,0,0,0,0,0,0,0,0,0,0,0,0,0,0,0,0,0,0,0,0,0,0,0,0,0,0,0,0,0,0,0,0,0,0,0,0,0,0,0,0,0,0,0,0,0,0,0,0,0,0,0,0,0,0,0,0,0,0,0,0,0,0,0,0,0,0,0,0,0,0,0,0,0,0,0,0,0,0,0,0,0,0,0,0,0,0,0,0,0,0,0,0,0,0,0,0,0,0,0,0,0,0,0,0,0,0,0,0,0,0],"id":8,"left_children":[1,3,5,7,9,11,13,15,17,19,21,23,25,27,29,31,33,35,37,39,41,43,45,47,49,51,53,55,57,59,61,63,65,67,69,71,73,75,77,79,81,83,85,87,89,91,93,95,97,99,101,103,105,107,109,111,113,115,117,119,121,123,125,-1,-1,-1,-1,-1,-1,-1,-1,-1,-1,-1,-1,-1,-1,-1,-1,-1,-1,-1,-1,-1,-1,-1,-1,-1,-1,-1,-1,-1,-1,-1,-1,-1,-1,-1,-1,-1,-1,-1,-1,-1,-1,-1,-1,-1,-1,-1,-1,-1,-1,-1,-1,-1,-1,-1,-1,-1,-1,-1,-1,-1,-1,-1,-1],"loss_changes":[2.3595388E3,5.1820703E2,2.794657E2,2.1661694E2,3.929711E2,1.6700684E2,4.1303223E1,7.915344E1,9.752397E1,1.0478253E2,7.710472E1,9.011747E1,4.895645E1,2.8535858E1,1.5941589E1,2.8329529E1,7.837457E1,3.3520325E1,2.6950483E1,5.4621887E1,6.024971E1,1.8866425E1,5.8937088E1,4.673412E1,2.2850815E1,1.6856323E1,3.9433487E1,1.6042618E1,7.4597473E0,7.917816E0,8.293152E0,1.7964355E1,6.265808E0,1.7673218E1,3.242447E1,2.9259338E0,3.022786E1,1.2219938E1,5.0891857E0,5.1700897E0,4.0972046E1,1.200732E1,5.066768E1,2.7081985E0,9.430641E0,3.287477E1,4.6623028E1,2.1543922E1,2.573219E1,1.7295063E1,3.249012E0,1.7248913E1,1.7162247E1,2.5520996E1,1.0268951E1,6.762375E0,2.0819838E0,7.7466965E0,4.7186737E0,7.8210373E0,3.4441986E0,4.063324E0,1.4268341E0,0E0,0E0,0E0,0E0,0E0,0E0,0E0,0E0,0E0,0E0,0E0,0E0,0E0,0E0,0E0,0E0,0E0,0E0,0E0,0E0,0E0,0E0,0E0,0E0,0E0,0E0,0E0,0E0,0E0,0E0,0E0,0E0,0E0,0E0,0E0,0E0,0E0,0E0,0E0,0E0,0E0,0E0,0E0,0E0,0E0,0E0,0E0,0E0,0E0,0E0,0E0,0E0,0E0,0E0,0E0,0E0,0E0,0E0,0E0,0E0,0E0,0E0,0E0,0E0],"parents":[2147483647,0,0,1,1,2,2,3,3,4,4,5,5,6,6,7,7,8,8,9,9,10,10,11,11,12,12,13,13,14,14,15,15,16,16,17,17,18,18,19,19,20,20,21,21,22,22,23,23,24,24,25,25,26,26,27,27,28,28,29,29,30,30,31,31,32,32,33,33,34,34,35,35,36,36,37,37,38,38,39,39,40,40,41,41,42,42,43,43,44,44,45,45,46,46,47,47,48,48,49,49,50,50,51,51,52,52,53,53,54,54,55,55,56,56,57,57,58,58,59,59,60,60,61,61,62,62],"right_children":[2,4,6,8,10,12,14,16,18,20,22,24,26,28,30,32,34,36,38,40,42,44,46,48,50,52,54,56,58,60,62,64,66,68,70,72,74,76,78,80,82,84,86,88,90,92,94,96,98,100,102,104,106,108,110,112,114,116,118,120,122,124,126,-1,-1,-1,-1,-1,-1,-1,-1,-1,-1,-1,-1,-1,-1,-1,-1,-1,-1,-1,-1,-1,-1,-1,-1,-1,-1,-1,-1,-1,-1,-1,-1,-1,-1,-1,-1,-1,-1,-1,-1,-1,-1,-1,-1,-1,-1,-1,-1,-1,-1,-1,-1,-1,-1,-1,-1,-1,-1,-1,-1,-1,-1,-1,-1],"split_conditions":[2.0622923E-4,5.6236724E-5,6.519415E-4,1.1E1,9E0,8E0,1.8117002E-1,9E0,2.2263534E-5,5.721841E-1,-2.666703E0,7.6850027E-1,-2.0192955E0,-1.1452237E0,1.1985714E3,5.93409E-1,1.9623056E-5,3.321366E-6,-2.0520825E0,7E0,-2.6904433E0,-3.3384745E0,5.159505E-1,7E0,-1.01984315E-1,6.362135E-1,6.6578263E-1,-5.9720224E-1,7E0,8.2543606E-1,-1.1391816E0,-2.467316E0,-3.5802093E0,-2.9846287E0,-2.7441585E0,1.1340508E-1,-3.4057746E0,-2.8298068E0,6.387415E-2,1.3599126E-4,-2.5568802E0,-1.0052842E0,7E0,-8.841323E-1,8.525345E0,1.1E1,-2.7291272E0,3.3173765E-4,-1.9584105E0,1.0977789E-1,1.24233514E-1,1.25E2,-4.890472E-1,9E0,3.3573632E-4,1.17875E3,1.1333637E0,8.645376E-1,-6.300141E-1,7E0,-1.328616E0,-4.1149655E-1,-2.861934E0,-5.286833E-2,-3.7003193E-2,-3.6560822E-2,-2.0448374E-2,-4.9378697E-2,-3.1462062E-2,-7.7831317E-3,-2.520295E-2,-5.192549E-2,-1.4416058E-2,-1.7103759E-3,-2.5197156E-2,4.2881854E-3,-1.0929594E-2,2.429171E-3,1.6010998E-2,-5.4557588E-2,-3.512677E-2,-3.2132547E-2,-1.6727561E-2,1.28905885E-2,-8.949364E-3,-2.8074192E-2,-1.0917126E-2,2.668984E-2,6.5000616E-3,1.3637725E-2,1.4067299E-3,-1.3765511E-2,-1.2725947E-3,-3.425673E-3,7.778226E-3,-2.2112716E-2,-7.964375E-3,7.980391E-3,-4.209743E-3,5.371568E-4,9.733989E-3,1.656871E-2,3.1389154E-2,-5.2222356E-2,1.2886764E-2,2.3344707E-2,-1.5276881E-3,-2.3695678E-3,7.4263494E-3,8.303267E-3,1.4226584E-2,9.025613E-3,1.4626995E-2,-1.01705855E-2,8.7663817E-4,7.841704E-3,1.9183373E-2,1.911589E-2,2.6991293E-2,8.675485E-3,1.8111154E-2,1.8313533E-2,2.5523698E-2,2.2712883E-2,-0E0,1.9422246E-2,3.2008953E-2],"split_indices":[19,19,19,8,8,8,6,8,19,20,0,20,0,1,14,20,19,19,3,8,0,0,20,8,1,20,20,3,8,20,1,3,3,3,0,6,0,0,6,19,3,3,8,3,26,8,3,19,0,6,6,16,3,8,19,14,21,20,1,8,1,3,3,0,0,0,0,0,0,0,0,0,0,0,0,0,0,0,0,0,0,0,0,0,0,0,0,0,0,0,0,0,0,0,0,0,0,0,0,0,0,0,0,0,0,0,0,0,0,0,0,0,0,0,0,0,0,0,0,0,0,0,0,0,0,0,0],"split_type":[0,0,0,0,0,0,0,0,0,0,0,0,0,0,0,0,0,0,0,0,0,0,0,0,0,0,0,0,0,0,0,0,0,0,0,0,0,0,0,0,0,0,0,0,0,0,0,0,0,0,0,0,0,0,0,0,0,0,0,0,0,0,0,0,0,0,0,0,0,0,0,0,0,0,0,0,0,0,0,0,0,0,0,0,0,0,0,0,0,0,0,0,0,0,0,0,0,0,0,0,0,0,0,0,0,0,0,0,0,0,0,0,0,0,0,0,0,0,0,0,0,0,0,0,0,0,0],"sum_hessian":[5.7305E4,2.5127E4,3.2178E4,8.512E3,1.6615E4,2.0141E4,1.2037E4,5.044E3,3.468E3,7.13E3,9.485E3,8.118E3,1.2023E4,6.345E3,5.692E3,1.818E3,3.226E3,1.612E3,1.856E3,2.92E3,4.21E3,1.334E3,8.151E3,4.863E3,3.255E3,2.718E3,9.305E3,3.684E3,2.661E3,2.835E3,2.857E3,1.362E3,4.56E2,9.4E2,2.286E3,1.79E2,1.433E3,1.42E3,4.36E2,3.72E2,2.548E3,4.72E2,3.738E3,3.74E2,9.6E2,3.011E3,5.14E3,1.646E3,3.217E3,2.906E3,3.49E2,1.164E3,1.554E3,4.405E3,4.9E3,3.353E3,3.31E2,9.5E2,1.711E3,1.468E3,1.367E3,2.145E3,7.12E2,8.93E2,4.69E2,2.46E2,2.1E2,5.39E2,4.01E2,4.93E2,1.793E3,1.61E2,1.8E1,2.37E2,1.196E3,2.04E2,1.216E3,2.68E2,1.68E2,2.33E2,1.39E2,1.084E3,1.464E3,3.65E2,1.07E2,7.62E2,2.976E3,3.33E2,4.1E1,5.78E2,3.82E2,1.695E3,1.316E3,2.633E3,2.507E3,6.23E2,1.023E3,7.93E2,2.424E3,1.333E3,1.573E3,2.42E2,1.07E2,1.1E1,1.153E3,1.459E3,9.5E1,1.291E3,3.114E3,1.645E3,3.255E3,1.544E3,1.809E3,7E1,2.61E2,4.12E2,5.38E2,1.222E3,4.89E2,5.41E2,9.27E2,8E2,5.67E2,2.123E3,2.2E1,9.5E1,6.17E2],"tree_param":{"num_deleted":"0","num_feature":"172","num_nodes":"127","size_leaf_vector":"1"}},{"base_weights":[5.1226973E-4,-2.9948413E-1,1.22268915E-1,-5.163545E-1,-2.0763175E-1,2.0090959E-3,2.2461542E-1,-6.830757E-1,-3.9706746E-1,-4.6954623E-1,-1.06640264E-1,-1.7121387E-1,8.153249E-2,1.5980609E-1,2.8960276E-1,-8.121737E-1,-5.467257E-1,-5.226345E-1,-2.2321913E-1,-6.0774404E-1,-3.6535242E-1,-1.9513817E-1,7.1562263E-3,-3.194931E-1,-7.0232205E-2,8.520158E-3,1.5058997E-1,1.2985274E-1,3.0135936E-1,2.2497365E-1,3.5009465E-1,-8.723278E-1,-6.315896E-1,-6.6361374E-1,-3.8297442E-1,-5.81729E-1,-2.1888824E-1,-3.0543673E-1,1.5019936E-2,-8.2635075E-1,-5.288683E-1,-5.173714E-1,-2.433504E-1,-2.884291E-1,-7.715481E-2,-6.699803E-2,1.4103584E-1,-4.866605E-1,-2.4651738E-1,-1.16554916E-1,1.1306925E-1,-8.318324E-2,1.5570126E-2,6.267083E-2,2.1655628E-1,6.8863705E-2,1.9063254E-1,2.1431677E-1,3.4571216E-1,1.1825452E-1,2.9368907E-1,2.0272687E-1,3.6877304E-1,-4.1455228E-2,-5.5532023E-2,-4.502214E-2,-2.8701542E-2,-4.903752E-2,-3.2637455E-2,-3.140509E-2,-1.5374759E-2,-4.2240717E-2,-2.6844209E-2,-2.4550213E-2,-4.605499E-3,-2.1741759E-2,-3.1335277E-3,-1.8832484E-2,3.530709E-3,-5.0700728E-2,-1.0494239E-2,-3.576922E-2,-2.2283215E-2,-3.5783827E-2,-1.804171E-2,-1.8147845E-2,-2.1197225E-3,-8.677842E-3,-2.2914067E-2,-1.2686966E-2,1.9163354E-3,-7.211261E-3,6.897572E-3,-0E0,1.2966679E-2,-2.3996605E-2,-3.721141E-2,-9.47626E-3,-2.1474382E-2,-1.5461273E-2,-1.5729546E-3,9.336122E-3,-1.9087475E-2,-4.5623844E-3,6.1517693E-3,-1.7089524E-3,7.3926114E-3,9.032441E-3,2.0899348E-2,-6.7832443E-4,8.193682E-3,8.820126E-3,1.4768759E-2,1.8228843E-3,1.6938267E-2,1.817771E-2,2.6487347E-2,1.2329454E-3,1.0140925E-2,1.5542642E-2,2.0497203E-2,3.4924485E-3,1.388366E-2,2.00944E-2,3.0196141E-2],"categories":[],"categories_nodes":[],"categories_segments":[],"categories_sizes":[],"default_left":[0,0,0,0,0,0,0,0,0,0,0,0,0,0,0,0,0,0,0,0,0,0,0,0,0,0,0,0,0,0,0,0,0,0,0,0,0,0,0,0,0,0,0,0,0,0,0,0,0,0,0,0,0,0,0,0,0,0,0,0,0,0,0,0,0,0,0,0,0,0,0,0,0,0,0,0,0,0,0,0,0,0,0,0,0,0,0,0,0,0,0,0,0,0,0,0,0,0,0,0,0,0,0,0,0,0,0,0,0,0,0,0,0,0,0,0,0,0,0,0,0,0,0,0,0],"id":9,"left_children":[1,3,5,7,9,11,13,15,17,19,21,23,25,27,29,31,33,35,37,39,41,43,45,47,49,51,53,55,57,59,61,63,65,67,69,71,73,75,77,79,81,83,85,87,89,91,93,95,97,99,101,-1,103,105,107,109,111,113,115,117,119,121,123,-1,-1,-1,-1,-1,-1,-1,-1,-1,-1,-1,-1,-1,-1,-1,-1,-1,-1,-1,-1,-1,-1,-1,-1,-1,-1,-1,-1,-1,-1,-1,-1,-1,-1,-1,-1,-1,-1,-1,-1,-1,-1,-1,-1,-1,-1,-1,-1,-1,-1,-1,-1,-1,-1,-1,-1,-1,-1,-1,-1,-1,-1],"loss_changes":[2.092891E3,3.2799634E2,5.013839E2,9.520386E1,3.0651917E2,2.5821954E2,9.1865845E1,3.244342E1,6.1259644E1,4.4314087E1,8.491163E1,8.757031E1,6.458316E1,4.6006836E1,4.1758118E1,7.2510986E0,1.6853302E1,2.8187775E1,2.4318813E1,2.032071E1,3.2828552E1,5.1448105E1,3.658005E1,2.751477E1,2.9904503E1,6.0555843E1,3.7774002E1,3.3377777E1,6.281601E0,3.830362E1,1.4418152E1,4.5057983E0,2.1989822E0,7.132614E0,6.227089E0,2.081192E1,6.8966246E0,1.3872589E1,4.291833E0,5.7926025E0,9.857788E0,1.354982E1,1.3385002E1,3.6364044E1,3.2185913E1,2.4089018E1,1.4796131E1,5.7941895E0,1.5863434E1,3.6432747E1,1.3854375E1,0E0,5.164434E1,1.6544212E1,3.1862137E1,2.60354E1,1.0442612E1,8.414415E0,3.2098389E0,1.0698767E1,3.97641E0,2.565117E0,1.8004639E1,0E0,0E0,0E0,0E0,0E0,0E0,0E0,0E0,0E0,0E0,0E0,0E0,0E0,0E0,0E0,0E0,0E0,0E0,0E0,0E0,0E0,0E0,0E0,0E0,0E0,0E0,0E0,0E0,0E0,0E0,0E0,0E0,0E0,0E0,0E0,0E0,0E0,0E0,0E0,0E0,0E0,0E0,0E0,0E0,0E0,0E0,0E0,0E0,0E0,0E0,0E0,0E0,0E0,0E0,0E0,0E0,0E0,0E0,0E0,0E0,0E0,0E0],"parents":[2147483647,0,0,1,1,2,2,3,3,4,4,5,5,6,6,7,7,8,8,9,9,10,10,11,11,12,12,13,13,14,14,15,15,16,16,17,17,18,18,19,19,20,20,21,21,22,22,23,23,24,24,25,25,26,26,27,27,28,28,29,29,30,30,31,31,32,32,33,33,34,34,35,35,36,36,37,37,38,38,39,39,40,40,41,41,42,42,43,43,44,44,45,45,46,46,47,47,48,48,49,49,50,50,52,52,53,53,54,54,55,55,56,56,57,57,58,58,59,59,60,60,61,61,62,62],"right_children":[2,4,6,8,10,12,14,16,18,20,22,24,26,28,30,32,34,36,38,40,42,44,46,48,50,52,54,56,58,60,62,64,66,68,70,72,74,76,78,80,82,84,86,88,90,92,94,96,98,100,102,-1,104,106,108,110,112,114,116,118,120,122,124,-1,-1,-1,-1,-1,-1,-1,-1,-1,-1,-1,-1,-1,-1,-1,-1,-1,-1,-1,-1,-1,-1,-1,-1,-1,-1,-1,-1,-1,-1,-1,-1,-1,-1,-1,-1,-1,-1,-1,-1,-1,-1,-1,-1,-1,-1,-1,-1,-1,-1,-1,-1,-1,-1,-1,-1,-1,-1,-1,-1,-1,-1],"split_conditions":[1.1746251E-4,9E0,3.695328E-4,5.031362E-1,2.6288595E-5,8E0,1.5850422E-1,-2.5568802E0,-2.942322E0,1.1E1,1.1E1,6.5720016E-1,6.091682E-1,-7.2410303E-1,7.8530186E-1,1.5152666E-1,7.0818506E-2,7.666149E-1,9.198752E-2,9.708641E-6,1.1276926E-5,5.133579E-1,-2.2711275E0,7E0,8.366765E-1,1.1E2,-2.6508596E0,8E0,7E0,8E0,-3.0152876E0,8.2011383E2,-3.286304E0,8E0,4.130429E-1,8E0,7E0,7.262957E-1,7E0,1.8648486E-1,-2.6840556E0,-2.8757432E0,-2.3400018E0,1.3056029E3,-3.1989346E0,1.751034E-1,2.02E3,6.9835284E2,8.5690674E2,7E0,-1.290184E0,-8.318324E-2,1E1,9E0,1.3229136E-1,6.609339E-4,6.4334564E-4,8.324416E-1,-2.605608E-1,7E0,1E1,4.0142855E4,-8.7470347E-1,-4.1455228E-2,-5.5532023E-2,-4.502214E-2,-2.8701542E-2,-4.903752E-2,-3.2637455E-2,-3.140509E-2,-1.5374759E-2,-4.2240717E-2,-2.6844209E-2,-2.4550213E-2,-4.605499E-3,-2.1741759E-2,-3.1335277E-3,-1.8832484E-2,3.530709E-3,-5.0700728E-2,-1.0494239E-2,-3.576922E-2,-2.2283215E-2,-3.5783827E-2,-1.804171E-2,-1.8147845E-2,-2.1197225E-3,-8.677842E-3,-2.2914067E-2,-1.2686966E-2,1.9163354E-3,-7.211261E-3,6.897572E-3,-0E0,1.2966679E-2,-2.3996605E-2,-3.721141E-2,-9.47626E-3,-2.1474382E-2,-1.5461273E-2,-1.5729546E-3,9.336122E-3,-1.9087475E-2,-4.5623844E-3,6.1517693E-3,-1.7089524E-3,7.3926114E-3,9.032441E-3,2.0899348E-2,-6.7832443E-4,8.193682E-3,8.820126E-3,1.4768759E-2,1.8228843E-3,1.6938267E-2,1.817771E-2,2.6487347E-2,1.2329454E-3,1.0140925E-2,1.5542642E-2,2.0497203E-2,3.4924485E-3,1.388366E-2,2.00944E-2,3.0196141E-2],"split_indices":[19,8,19,20,19,8,6,3,3,8,8,20,20,1,20,6,6,20,6,19,19,20,3,8,20,16,3,8,8,8,3,15,3,8,20,8,8,20,8,6,3,3,3,15,3,6,18,15,15,8,3,0,8,8,6,19,19,20,1,8,8,140,1,0,0,0,0,0,0,0,0,0,0,0,0,0,0,0,0,0,0,0,0,0,0,0,0,0,0,0,0,0,0,0,0,0,0,0,0,0,0,0,0,0,0,0,0,0,0,0,0,0,0,0,0,0,0,0,0,0,0,0,0,0,0],"split_type":[0,0,0,0,0,0,0,0,0,0,0,0,0,0,0,0,0,0,0,0,0,0,0,0,0,0,0,0,0,0,0,0,0,0,0,0,0,0,0,0,0,0,0,0,0,0,0,0,0,0,0,0,0,0,0,0,0,0,0,0,0,0,0,0,0,0,0,0,0,0,0,0,0,0,0,0,0,0,0,0,0,0,0,0,0,0,0,0,0,0,0,0,0,0,0,0,0,0,0,0,0,0,0,0,0,0,0,0,0,0,0,0,0,0,0,0,0,0,0,0,0,0,0,0,0],"sum_hessian":[5.73E4,1.6537E4,4.0763E4,4.911E3,1.1626E4,1.875E4,2.2013E4,2.037E3,2.874E3,3.228E3,8.398E3,5.892E3,1.2858E4,1.1039E4,1.0974E4,1.033E3,1.004E3,1.66E3,1.214E3,1.375E3,1.853E3,4.731E3,3.667E3,2.378E3,3.514E3,6.263E3,6.595E3,9.125E3,1.914E3,5.325E3,5.649E3,7.6E2,2.73E2,5.75E2,4.29E2,1.383E3,2.77E2,9.07E2,3.07E2,3.52E2,1.023E3,8.15E2,1.038E3,2.632E3,2.099E3,2.353E3,1.314E3,7.11E2,1.667E3,2.813E3,7.01E2,2.7E1,6.236E3,2.84E3,3.755E3,4.571E3,4.554E3,6.64E2,1.25E3,2.098E3,3.227E3,6.49E2,5E3,2.4E2,5.2E2,1.3E2,1.43E2,2.13E2,3.62E2,1.82E2,2.47E2,6.54E2,7.29E2,1.08E2,1.69E2,7.18E2,1.89E2,3E1,2.77E2,3.31E2,2.1E1,6.6E2,3.63E2,5.62E2,2.53E2,7.84E2,2.54E2,1.105E3,1.527E3,9.34E2,1.165E3,1.816E3,5.37E2,4.71E2,8.43E2,4.74E2,2.37E2,9.78E2,6.89E2,1.063E3,1.75E3,6.4E2,6.1E1,3.038E3,3.198E3,1.145E3,1.695E3,2.589E3,1.166E3,2.122E3,2.449E3,2.732E3,1.822E3,1.97E2,4.67E2,9.41E2,3.09E2,7.6E2,1.338E3,2.113E3,1.114E3,1.32E2,5.17E2,4.212E3,7.88E2],"tree_param":{"num_deleted":"0","num_feature":"172","num_nodes":"125","size_leaf_vector":"1"}},{"base_weights":[-5.041013E-4,-2.1914487E-1,1.4922324E-1,-3.8589716E-1,-1.1876126E-1,7.2953075E-2,2.4777415E-1,-5.6814575E-1,-2.6863045E-1,-2.858381E-1,2.1350956E-4,-4.1843552E-2,1.4396909E-1,1.8131024E-1,2.956735E-1,-7.8056234E-1,-5.110912E-1,-4.5598614E-1,-1.7005251E-1,7.808705E-2,-3.207098E-1,1.7618121E-1,-3.9239764E-2,-1.7858133E-1,1.1276322E-2,3.0747715E-1,1.2120262E-1,1.3109148E-1,2.581376E-1,2.7522132E-1,4.4541717E-1,-8.5980815E-1,-4.7425035E-1,-7.0490295E-1,-4.1559076E-1,-5.54456E-1,-2.8417575E-1,6.6506374E-3,-2.427753E-1,2.5665605E-1,-6.545843E-2,-4.1230008E-1,-2.0001332E-1,4.880531E-3,2.5190344E-1,-1.537188E-1,1.3429996E-2,-2.645236E-1,-4.293689E-2,-4.1001648E-2,1.2549095E-1,2.9976254E-2,2.6581174E-1,5.6593373E-2,1.6949427E-1,1.4684874E-1,-8.616681E-2,1.8180728E-1,2.935801E-1,2.2684608E-1,3.2660732E-1,3.2298222E-1,4.8661083E-1,-4.5973016E-3,-5.137275E-2,-2.7058981E-3,-3.1499013E-2,-4.3053195E-2,-1.5393052E-2,-7.056719E-3,-2.872385E-2,-3.837255E-2,-2.161069E-2,-1.9769983E-2,-0E0,-6.249852E-3,8.410588E-3,4.4859005E-3,-1.7252127E-2,-2.280337E-3,1.698096E-2,-8.616776E-3,6.283912E-3,-3.240775E-2,-1.70199E-2,-2.3485878E-2,-8.552706E-3,-3.897577E-2,1.6224437E-3,1.9041253E-2,7.0357732E-3,-1.1904087E-2,7.6410425E-4,1.1753467E-2,-9.84942E-4,-2.4046496E-2,-1.1531414E-2,2.25058E-2,-4.820767E-3,1.20291095E-2,-4.536159E-3,9.395845E-3,-1.157226E-2,-2.4868608E-2,1.613516E-2,1.5317121E-2,1.4430096E-3,1.2882796E-2,7.497189E-3,1.2883475E-2,6.4312075E-3,-1.1227867E-2,2.5581062E-4,6.244365E-3,1.4343156E-2,1.5857117E-2,2.3057114E-2,1.8976342E-2,1.1726162E-2,1.5085665E-2,2.1473583E-2,1.9690748E-2,-0E0,1.5561576E-2,2.974844E-2],"categories":[],"categories_nodes":[],"categories_segments":[],"categories_sizes":[],"default_left":[0,0,0,0,0,0,0,0,0,0,0,0,0,0,0,0,0,0,0,0,0,0,0,0,0,0,0,0,0,0,0,0,0,0,0,0,0,0,0,0,0,0,0,0,0,0,0,0,0,0,0,0,0,0,0,0,0,0,0,0,0,0,0,0,0,0,0,0,0,0,0,0,0,0,0,0,0,0,0,0,0,0,0,0,0,0,0,0,0,0,0,0,0,0,0,0,0,0,0,0,0,0,0,0,0,0,0,0,0,0,0,0,0,0,0,0,0,0,0,0,0,0,0,0,0],"id":10,"left_children":[1,3,5,7,9,11,13,15,17,19,21,23,25,27,29,31,33,35,37,39,41,43,45,47,49,51,53,55,57,59,61,63,65,67,69,71,73,75,77,79,81,83,85,87,89,91,93,95,97,99,101,-1,103,105,107,109,111,113,115,117,119,121,123,-1,-1,-1,-1,-1,-1,-1,-1,-1,-1,-1,-1,-1,-1,-1,-1,-1,-1,-1,-1,-1,-1,-1,-1,-1,-1,-1,-1,-1,-1,-1,-1,-1,-1,-1,-1,-1,-1,-1,-1,-1,-1,-1,-1,-1,-1,-1,-1,-1,-1,-1,-1,-1,-1,-1,-1,-1,-1,-1,-1,-1,-1],"loss_changes":[1.8756093E3,3.889215E2,2.5498804E2,1.851018E2,2.896642E2,1.565444E2,4.6263916E1,3.8171753E1,9.723901E1,7.7329926E1,5.9217148E1,5.3473747E1,4.334346E1,2.3308456E1,2.4808899E1,1.3959259E1,4.7453125E1,2.9167297E1,4.5413116E1,1.3887627E1,5.9925293E1,1.9864822E1,4.2041573E1,2.3458405E1,3.1611378E1,1.043573E1,3.212616E1,1.3094704E1,5.6970215E0,1.7734253E1,3.3797455E0,3.6532288E0,3.0531578E0,8.048981E0,3.776468E1,1.8681854E1,9.936802E0,1.5726367E1,4.019586E1,2.6866713E0,4.1412597E0,5.1508423E1,2.5092133E1,6.407759E0,9.360481E0,1.8014019E1,2.6914871E1,1.1162987E1,1.2976257E1,3.1687525E1,1.8265577E1,0E0,6.815811E0,2.8752657E1,1.1719666E1,8.978043E0,2.67587E0,3.0908775E0,2.5693817E0,9.374588E0,8.501709E0,8.1386375E-1,1.435852E0,0E0,0E0,0E0,0E0,0E0,0E0,0E0,0E0,0E0,0E0,0E0,0E0,0E0,0E0,0E0,0E0,0E0,0E0,0E0,0E0,0E0,0E0,0E0,0E0,0E0,0E0,0E0,0E0,0E0,0E0,0E0,0E0,0E0,0E0,0E0,0E0,0E0,0E0,0E0,0E0,0E0,0E0,0E0,0E0,0E0,0E0,0E0,0E0,0E0,0E0,0E0,0E0,0E0,0E0,0E0,0E0,0E0,0E0,0E0,0E0,0E0,0E0],"parents":[2147483647,0,0,1,1,2,2,3,3,4,4,5,5,6,6,7,7,8,8,9,9,10,10,11,11,12,12,13,13,14,14,15,15,16,16,17,17,18,18,19,19,20,20,21,21,22,22,23,23,24,24,25,25,26,26,27,27,28,28,29,29,30,30,31,31,32,32,33,33,34,34,35,35,36,36,37,37,38,38,39,39,40,40,41,41,42,42,43,43,44,44,45,45,46,46,47,47,48,48,49,49,50,50,52,52,53,53,54,54,55,55,56,56,57,57,58,58,59,59,60,60,61,61,62,62],"right_children":[2,4,6,8,10,12,14,16,18,20,22,24,26,28,30,32,34,36,38,40,42,44,46,48,50,52,54,56,58,60,62,64,66,68,70,72,74,76,78,80,82,84,86,88,90,92,94,96,98,100,102,-1,104,106,108,110,112,114,116,118,120,122,124,-1,-1,-1,-1,-1,-1,-1,-1,-1,-1,-1,-1,-1,-1,-1,-1,-1,-1,-1,-1,-1,-1,-1,-1,-1,-1,-1,-1,-1,-1,-1,-1,-1,-1,-1,-1,-1,-1,-1,-1,-1,-1,-1,-1,-1,-1,-1,-1,-1,-1,-1,-1,-1,-1,-1,-1,-1,-1,-1,-1,-1,-1],"split_conditions":[1.8480224E-4,5.7767716E-5,5.551871E-4,1E1,9E0,8E0,-1.7226771E0,8E0,1.8265971E-5,-2.9213605E0,-2.5125532E0,2.674494E-4,-2.4055955E0,-1.1058675E0,-8.283521E-1,3.3905465E-2,2.3548208E-5,-2.902081E0,-2.4929948E0,8.154397E0,1.4003804E-2,1.55E3,1E1,3.9050233E-1,4.152697E-1,6.512238E0,2.9246515E-4,-4.890472E-1,7E0,-1.1808912E0,-2.66213E0,-4.2173915E0,5.800514E0,5.31599E-1,-2.6904433E0,-2.4431717E0,-2.2509472E0,5.7317074E-3,-3.6489933E0,1.485E3,9.483261E-1,8E0,7E0,-2.9980934E0,8.58667E0,3.718989E-1,-3.1461625E0,7E0,-2.666703E0,-2.2903235E0,-1.0245408E0,2.9976254E-2,9E2,-2.8497913E0,3E0,3E0,-2.2134554E0,9.3596237E-4,-4.2952955E-1,4.337562E0,7E0,8.2E0,7E2,-4.5973016E-3,-5.137275E-2,-2.7058981E-3,-3.1499013E-2,-4.3053195E-2,-1.5393052E-2,-7.056719E-3,-2.872385E-2,-3.837255E-2,-2.161069E-2,-1.9769983E-2,-0E0,-6.249852E-3,8.410588E-3,4.4859005E-3,-1.7252127E-2,-2.280337E-3,1.698096E-2,-8.616776E-3,6.283912E-3,-3.240775E-2,-1.70199E-2,-2.3485878E-2,-8.552706E-3,-3.897577E-2,1.6224437E-3,1.9041253E-2,7.0357732E-3,-1.1904087E-2,7.6410425E-4,1.1753467E-2,-9.84942E-4,-2.4046496E-2,-1.1531414E-2,2.25058E-2,-4.820767E-3,1.20291095E-2,-4.536159E-3,9.395845E-3,-1.157226E-2,-2.4868608E-2,1.613516E-2,1.5317121E-2,1.4430096E-3,1.2882796E-2,7.497189E-3,1.2883475E-2,6.4312075E-3,-1.1227867E-2,2.5581062E-4,6.244365E-3,1.4343156E-2,1.5857117E-2,2.3057114E-2,1.8976342E-2,1.1726162E-2,1.5085665E-2,2.1473583E-2,1.9690748E-2,-0E0,1.5561576E-2,2.974844E-2],"split_indices":[19,19,19,8,8,8,2,8,19,0,0,19,0,1,1,27,19,3,0,26,27,17,8,23,23,26,19,3,8,2,3,1,26,23,0,2,2,27,1,18,21,8,8,0,26,23,1,8,0,0,3,0,17,1,77,86,2,19,1,26,8,107,14,0,0,0,0,0,0,0,0,0,0,0,0,0,0,0,0,0,0,0,0,0,0,0,0,0,0,0,0,0,0,0,0,0,0,0,0,0,0,0,0,0,0,0,0,0,0,0,0,0,0,0,0,0,0,0,0,0,0,0,0,0,0],"split_type":[0,0,0,0,0,0,0,0,0,0,0,0,0,0,0,0,0,0,0,0,0,0,0,0,0,0,0,0,0,0,0,0,0,0,0,0,0,0,0,0,0,0,0,0,0,0,0,0,0,0,0,0,0,0,0,0,0,0,0,0,0,0,0,0,0,0,0,0,0,0,0,0,0,0,0,0,0,0,0,0,0,0,0,0,0,0,0,0,0,0,0,0,0,0,0,0,0,0,0,0,0,0,0,0,0,0,0,0,0,0,0,0,0,0,0,0,0,0,0,0,0,0,0,0,0],"sum_hessian":[5.7285E4,2.3288E4,3.3997E4,8.742E3,1.4546E4,1.9177E4,1.482E4,3.413E3,5.329E3,6.054E3,8.492E3,7.321E3,1.1856E4,6.227E3,8.593E3,7.09E2,2.704E3,1.828E3,3.501E3,5.25E2,5.529E3,1.561E3,6.931E3,2.055E3,5.266E3,1.436E3,1.042E4,3.783E3,2.444E3,7.577E3,1.016E3,5.55E2,1.54E2,8.81E2,1.823E3,1.152E3,6.76E2,1.015E3,2.486E3,2.38E2,2.87E2,3.132E3,2.397E3,4.86E2,1.075E3,2.192E3,4.739E3,1.249E3,8.06E2,3.604E3,1.662E3,2.34E2,1.202E3,4.474E3,5.946E3,3.535E3,2.48E2,7.95E2,1.649E3,3.927E3,3.65E3,2.72E2,7.44E2,1.1E1,5.44E2,2.3E1,1.31E2,8.27E2,5.4E1,3.63E2,1.46E3,7.49E2,4.03E2,5.72E2,1.04E2,5.49E2,4.66E2,3.33E2,2.153E3,1.8E1,2.2E2,2.02E2,8.5E1,1.468E3,1.664E3,5.08E2,1.889E3,1.1E1,4.75E2,6.88E2,3.87E2,1.706E3,4.86E2,6.66E2,4.073E3,3.92E2,8.57E2,6.2E1,7.44E2,4.54E2,3.15E3,1.509E3,1.53E2,1E1,1.192E3,6E2,3.874E3,2.722E3,3.224E3,1.196E3,2.339E3,1.22E2,1.26E2,3.72E2,4.23E2,1.342E3,3.07E2,8.66E2,3.061E3,1.3E3,2.35E3,2.61E2,1.1E1,6.7E1,6.77E2],"tree_param":{"num_deleted":"0","num_feature":"172","num_nodes":"125","size_leaf_vector":"1"}},{"base_weights":[-7.6272996E-4,-2.5351387E-1,1.1376553E-1,-4.3246517E-1,-1.7415369E-1,1.9072687E-2,2.0906892E-1,-5.8922285E-1,-3.1076118E-1,-4.5295691E-1,-9.5381185E-2,-7.0236474E-2,1.2851231E-1,1.4662987E-1,2.6590127E-1,-6.3883215E-1,-3.3674014E-1,-6.19274E-1,-2.565611E-1,-5.4278153E-1,-2.9192045E-1,-1.7627531E-1,6.5008425E-3,1.930381E-1,-9.308973E-2,2.3130938E-1,8.779571E-2,1.027862E-1,2.2575232E-1,2.4606463E-1,4.0119454E-1,-7.107362E-1,-4.480332E-1,-3.254236E-2,-3.977608E-1,-7.55328E-1,-3.4118044E-1,2.515018E-2,-3.042231E-1,-5.764807E-1,-1.3462931E-1,-7.07159E-1,-2.3244445E-1,1.8350251E-2,-2.2445488E-1,-5.729187E-2,1.2301826E-1,3.2436317E-1,2.3755712E-2,-1.6826172E-1,-3.0786956E-3,1.6841757E-1,3.3585134E-1,2.4406014E-1,5.868009E-2,1.4204521E-3,1.3482688E-1,1.980252E-1,3.3195257E-1,2.114894E-1,3.1454396E-1,2.0820256E-1,4.3337122E-1,-4.3153517E-2,-1.4054259E-2,-7.739121E-3,-2.9455336E-2,-9.483299E-3,1.2306404E-2,-2.5502477E-2,1.4682315E-4,-5.1060252E-2,-3.214482E-2,-2.2419333E-2,-0E0,-8.698186E-3,6.355651E-3,-3.2172005E-3,-2.1869332E-2,-3.920577E-2,-2.2126792E-2,-1.7360464E-2,2.888594E-3,-4.672226E-2,-1.0360098E-2,1.0487678E-3,-1.9167349E-2,6.456504E-3,-6.693364E-3,-2.1246705E-2,-8.258296E-3,-5.8524567E-3,8.100727E-3,4.981849E-3,2.0859312E-2,3.0262528E-2,1.4807447E-2,1.0654334E-2,-5.292002E-3,4.109181E-3,-1.1724325E-2,-8.054638E-3,2.6165901E-3,-4.074496E-2,1.0539967E-2,2.1730624E-2,6.568824E-3,1.9459866E-2,1.0090706E-2,-2.9676754E-4,6.9719646E-3,1.0107698E-2,-4.3292493E-3,1.4139302E-2,6.6321464E-3,5.893132E-3,1.4018335E-2,1.9924583E-2,-0E0,1.0614579E-2,1.7550353E-2,1.4280441E-2,2.0779954E-2,1.5217998E-3,1.5038365E-2,2.2464111E-2,2.935979E-2],"categories":[],"categories_nodes":[],"categories_segments":[],"categories_sizes":[],"default_left":[0,0,0,0,0,0,0,0,0,0,0,0,0,0,0,0,0,0,0,0,0,0,0,0,0,0,0,0,0,0,0,0,0,0,0,0,0,0,0,0,0,0,0,0,0,0,0,0,0,0,0,0,0,0,0,0,0,0,0,0,0,0,0,0,0,0,0,0,0,0,0,0,0,0,0,0,0,0,0,0,0,0,0,0,0,0,0,0,0,0,0,0,0,0,0,0,0,0,0,0,0,0,0,0,0,0,0,0,0,0,0,0,0,0,0,0,0,0,0,0,0,0,0,0,0,0,0],"id":11,"left_children":[1,3,5,7,9,11,13,15,17,19,21,23,25,27,29,31,33,35,37,39,41,43,45,47,49,51,53,55,57,59,61,63,65,67,69,71,73,75,77,79,81,83,85,87,89,91,93,95,97,99,101,103,105,107,109,111,113,115,117,119,121,123,125,-1,-1,-1,-1,-1,-1,-1,-1,-1,-1,-1,-1,-1,-1,-1,-1,-1,-1,-1,-1,-1,-1,-1,-1,-1,-1,-1,-1,-1,-1,-1,-1,-1,-1,-1,-1,-1,-1,-1,-1,-1,-1,-1,-1,-1,-1,-1,-1,-1,-1,-1,-1,-1,-1,-1,-1,-1,-1,-1,-1,-1,-1,-1,-1],"loss_changes":[1.6565436E3,2.5225635E2,3.5493155E2,1.0247009E2,2.7076443E2,1.9326175E2,6.882117E1,2.7666382E1,4.9862183E1,3.7553833E1,7.986699E1,6.531917E1,3.6629364E1,3.189148E1,2.618097E1,2.443451E1,6.7427597E0,1.4737686E1,3.5932663E1,2.2515533E1,2.2381447E1,5.0905136E1,3.1849243E1,1.8617294E1,6.747725E1,1.55168E1,2.8508476E1,1.9411E1,8.741394E0,2.016742E1,6.750412E0,1.270459E1,7.963997E0,2.3387728E0,5.3623047E0,3.3769836E0,2.2032356E0,5.4126277E0,3.7142258E1,2.6236633E1,4.551464E0,3.4651833E0,2.077435E1,1.2867014E1,4.873781E1,2.2520653E1,1.2705826E1,5.0387955E0,7.080538E0,4.015959E1,2.918206E1,1.38337555E1,6.0026093E0,5.2598763E0,2.0694296E1,1.889647E1,1.0066818E1,9.779762E0,1.6969833E0,1.5239471E1,7.0191345E0,1.2246933E0,1.7586517E0,0E0,0E0,0E0,0E0,0E0,0E0,0E0,0E0,0E0,0E0,0E0,0E0,0E0,0E0,0E0,0E0,0E0,0E0,0E0,0E0,0E0,0E0,0E0,0E0,0E0,0E0,0E0,0E0,0E0,0E0,0E0,0E0,0E0,0E0,0E0,0E0,0E0,0E0,0E0,0E0,0E0,0E0,0E0,0E0,0E0,0E0,0E0,0E0,0E0,0E0,0E0,0E0,0E0,0E0,0E0,0E0,0E0,0E0,0E0,0E0,0E0,0E0,0E0,0E0],"parents":[2147483647,0,0,1,1,2,2,3,3,4,4,5,5,6,6,7,7,8,8,9,9,10,10,11,11,12,12,13,13,14,14,15,15,16,16,17,17,18,18,19,19,20,20,21,21,22,22,23,23,24,24,25,25,26,26,27,27,28,28,29,29,30,30,31,31,32,32,33,33,34,34,35,35,36,36,37,37,38,38,39,39,40,40,41,41,42,42,43,43,44,44,45,45,46,46,47,47,48,48,49,49,50,50,51,51,52,52,53,53,54,54,55,55,56,56,57,57,58,58,59,59,60,60,61,61,62,62],"right_children":[2,4,6,8,10,12,14,16,18,20,22,24,26,28,30,32,34,36,38,40,42,44,46,48,50,52,54,56,58,60,62,64,66,68,70,72,74,76,78,80,82,84,86,88,90,92,94,96,98,100,102,104,106,108,110,112,114,116,118,120,122,124,126,-1,-1,-1,-1,-1,-1,-1,-1,-1,-1,-1,-1,-1,-1,-1,-1,-1,-1,-1,-1,-1,-1,-1,-1,-1,-1,-1,-1,-1,-1,-1,-1,-1,-1,-1,-1,-1,-1,-1,-1,-1,-1,-1,-1,-1,-1,-1,-1,-1,-1,-1,-1,-1,-1,-1,-1,-1,-1,-1,-1,-1,-1,-1,-1],"split_conditions":[1.296941E-4,9E0,4.1836756E-4,6.87418E-5,2.2263534E-5,9E0,1.5620387E-1,4.6045464E-1,7E0,1.2E1,1.1E1,-2.666703E0,-2.0079415E0,-1.0837693E0,-8.7470347E-1,-2.2711275E0,6.269975E0,2.9761426E-2,-2.6423986E0,1.832804E-1,3.321366E-6,-2.620394E0,-2.2802088E0,7.3701477E0,2.674494E-4,1.5E3,-2.7756772E0,7E0,-3.6864728E-1,2.732069E-1,-3.0573962E0,2.7959564E-1,-3.3384745E0,-3.434262E0,3.03704E-1,-2.5568802E0,3.03704E-1,6.310675E-3,-2.8894553E0,-2.6508596E0,5.219512E0,1.1557444E4,-3.0351708E0,9.155715E0,5.7767716E-5,2.0040469E-1,1.5850422E-1,3.636994E-2,-3.0819354E0,-3.02042E0,7E0,5.0845783E-2,-9.587005E-1,2E0,2.3208624E-4,4.3748097E0,4.676321E0,7E0,2.1E1,9E0,7E0,1.2819405E-2,3.6574924E-1,-4.3153517E-2,-1.4054259E-2,-7.739121E-3,-2.9455336E-2,-9.483299E-3,1.2306404E-2,-2.5502477E-2,1.4682315E-4,-5.1060252E-2,-3.214482E-2,-2.2419333E-2,-0E0,-8.698186E-3,6.355651E-3,-3.2172005E-3,-2.1869332E-2,-3.920577E-2,-2.2126792E-2,-1.7360464E-2,2.888594E-3,-4.672226E-2,-1.0360098E-2,1.0487678E-3,-1.9167349E-2,6.456504E-3,-6.693364E-3,-2.1246705E-2,-8.258296E-3,-5.8524567E-3,8.100727E-3,4.981849E-3,2.0859312E-2,3.0262528E-2,1.4807447E-2,1.0654334E-2,-5.292002E-3,4.109181E-3,-1.1724325E-2,-8.054638E-3,2.6165901E-3,-4.074496E-2,1.0539967E-2,2.1730624E-2,6.568824E-3,1.9459866E-2,1.0090706E-2,-2.9676754E-4,6.9719646E-3,1.0107698E-2,-4.3292493E-3,1.4139302E-2,6.6321464E-3,5.893132E-3,1.4018335E-2,1.9924583E-2,-0E0,1.0614579E-2,1.7550353E-2,1.4280441E-2,2.0779954E-2,1.5217998E-3,1.5038365E-2,2.2464111E-2,2.935979E-2],"split_indices":[19,8,19,19,19,8,6,23,8,8,8,0,0,1,1,3,26,27,0,6,19,0,3,26,19,17,1,8,1,6,3,6,0,3,1,3,1,27,1,3,55,24,0,26,19,6,6,22,0,1,8,22,3,77,19,26,26,8,100,8,8,27,23,0,0,0,0,0,0,0,0,0,0,0,0,0,0,0,0,0,0,0,0,0,0,0,0,0,0,0,0,0,0,0,0,0,0,0,0,0,0,0,0,0,0,0,0,0,0,0,0,0,0,0,0,0,0,0,0,0,0,0,0,0,0,0,0],"split_type":[0,0,0,0,0,0,0,0,0,0,0,0,0,0,0,0,0,0,0,0,0,0,0,0,0,0,0,0,0,0,0,0,0,0,0,0,0,0,0,0,0,0,0,0,0,0,0,0,0,0,0,0,0,0,0,0,0,0,0,0,0,0,0,0,0,0,0,0,0,0,0,0,0,0,0,0,0,0,0,0,0,0,0,0,0,0,0,0,0,0,0,0,0,0,0,0,0,0,0,0,0,0,0,0,0,0,0,0,0,0,0,0,0,0,0,0,0,0,0,0,0,0,0,0,0,0,0],"sum_hessian":[5.7213E4,1.7844E4,3.9369E4,5.472E3,1.2372E4,1.9758E4,1.9611E4,2.381E3,3.091E3,2.718E3,9.654E3,1.0872E4,8.886E3,9.363E3,1.0248E4,1.981E3,4E2,4.53E2,2.638E3,1.734E3,9.84E2,5.389E3,4.265E3,8.61E2,1.0011E4,2.506E3,6.38E3,6.042E3,3.321E3,8.955E3,1.293E3,1.427E3,5.54E2,7.2E1,3.28E2,2.97E2,1.56E2,3.77E2,2.261E3,1.597E3,1.37E2,1.16E2,8.68E2,1.063E3,4.326E3,2.748E3,1.517E3,4.78E2,3.83E2,5.444E3,4.567E3,1.579E3,9.27E2,9.9E2,5.39E3,1.464E3,4.578E3,2.652E3,6.69E2,5.974E3,2.981E3,1.95E2,1.098E3,1.359E3,6.8E1,8.4E1,4.7E2,5.2E1,2E1,3.05E2,2.3E1,1.83E2,1.14E2,1.4E2,1.6E1,1.15E2,2.62E2,4.85E2,1.776E3,1.096E3,5.01E2,7.7E1,6E1,9.6E1,2E1,2.31E2,6.37E2,6.36E2,4.27E2,1.642E3,2.684E3,2.268E3,4.8E2,1.31E3,2.07E2,1.22E2,3.56E2,1.66E2,2.17E2,6.17E2,4.827E3,1.205E3,3.362E3,1.5E1,1.564E3,8E2,1.27E2,4.38E2,5.52E2,2.595E3,2.795E3,4.53E2,1.011E3,7.81E2,3.797E3,7.83E2,1.869E3,6.59E2,1E1,4.407E3,1.567E3,1.055E3,1.926E3,4.8E1,1.47E2,6.35E2,4.63E2],"tree_param":{"num_deleted":"0","num_feature":"172","num_nodes":"127","size_leaf_vector":"1"}},{"base_weights":[8.2201284E-4,-2.4702191E-1,1.0378693E-1,-4.2244995E-1,-1.7316942E-1,-1.2092337E-3,1.8474284E-1,-5.7834667E-1,-3.1514403E-1,-3.9254293E-1,-8.950105E-2,-1.4833662E-1,6.50654E-2,1.4058569E-1,2.5845093E-1,-7.0489305E-1,-4.4691294E-1,-4.3259895E-1,-1.6334069E-1,-2.2088583E-1,-4.66076E-1,2.3453559E-1,-1.1515005E-1,-2.2390065E-1,7.1979784E-3,3.0143997E-1,4.494209E-2,6.9229655E-2,2.0265275E-1,2.7642676E-1,5.8947206E-2,-8.3455867E-1,-6.1646605E-1,-7.356238E-1,-3.9971963E-1,-4.9384534E-1,-1.423722E-1,-2.4524692E-1,3.728236E-2,-4.7653863E-1,-1.2149559E-1,-6.186321E-1,-3.8536108E-1,8.6064905E-2,3.257797E-1,-1.8843654E-1,-1.8913435E-2,1.373676E-2,-2.6526642E-1,-2.8510084E-2,2.4140008E-1,2.3317741E-1,3.8223675E-1,-9.254273E-3,1.175763E-1,2.7039385E-1,4.662529E-2,1.6312361E-1,2.6609647E-1,3.5478127E-1,2.4955638E-1,1.10721715E-1,-5.1648807E-2,-5.0080758E-2,-1.6226845E-2,-2.2931289E-2,-4.2215105E-2,-4.5429777E-2,-9.056167E-3,-3.1870898E-2,-1.7997297E-2,-4.9336895E-2,-2.6300183E-2,-1.8730536E-2,-1.8071461E-3,-1.8007936E-2,-6.121581E-4,-1.5138803E-2,4.86763E-3,-1.7960126E-2,-3.697299E-2,-1.3041376E-2,3.462943E-3,-4.2640526E-2,-2.7802423E-2,-1.1095642E-2,-2.6792156E-2,7.158287E-3,-1.9247033E-2,2.0224823E-2,-0E0,-1.5996464E-2,-5.0762505E-3,9.419865E-3,-3.2429022E-3,-9.388767E-3,6.26117E-3,-2.3502994E-2,-1.1777601E-2,-4.4020684E-4,-2.1412946E-2,9.145045E-3,2.3415036E-2,-0E0,1.5208252E-2,2.5980335E-2,4.654682E-3,-4.355678E-3,5.3454344E-3,1.1840106E-3,9.148957E-3,1.8261353E-2,1.6911342E-3,2.3417005E-4,9.161426E-3,1.4007663E-2,7.524027E-3,1.6616492E-2,-6.290774E-5,1.7560693E-2,2.6127344E-2,1.1441962E-2,1.686273E-2,8.276079E-3,-0E0,6.3737703E-4,-7.4271928E-3],"categories":[],"categories_nodes":[],"categories_segments":[],"categories_sizes":[],"default_left":[0,0,0,0,0,0,0,0,0,0,0,0,0,0,0,0,0,0,0,0,0,0,0,0,0,0,0,0,0,0,0,0,0,0,0,0,0,0,0,0,0,0,0,0,0,0,0,0,0,0,0,0,0,0,0,0,0,0,0,0,0,0,0,0,0,0,0,0,0,0,0,0,0,0,0,0,0,0,0,0,0,0,0,0,0,0,0,0,0,0,0,0,0,0,0,0,0,0,0,0,0,0,0,0,0,0,0,0,0,0,0,0,0,0,0,0,0,0,0,0,0,0,0,0,0,0,0],"id":12,"left_children":[1,3,5,7,9,11,13,15,17,19,21,23,25,27,29,31,33,35,37,39,41,43,45,47,49,51,53,55,57,59,61,63,65,67,69,71,73,75,77,79,81,83,85,87,89,91,93,95,97,99,101,103,105,107,109,111,113,115,117,119,121,123,125,-1,-1,-1,-1,-1,-1,-1,-1,-1,-1,-1,-1,-1,-1,-1,-1,-1,-1,-1,-1,-1,-1,-1,-1,-1,-1,-1,-1,-1,-1,-1,-1,-1,-1,-1,-1,-1,-1,-1,-1,-1,-1,-1,-1,-1,-1,-1,-1,-1,-1,-1,-1,-1,-1,-1,-1,-1,-1,-1,-1,-1,-1,-1,-1],"loss_changes":[1.4620624E3,2.1666309E2,3.444473E2,8.122284E1,2.1650742E2,1.719799E2,7.368512E1,3.0800293E1,5.157129E1,3.9791504E1,7.121659E1,6.4771385E1,5.7158733E1,6.2948547E1,3.0075134E1,7.8471375E0,1.100238E1,2.8272736E1,2.1738953E1,2.4042206E1,2.5719238E1,7.73061E0,5.579297E1,3.6748642E1,1.5316362E1,3.9656754E0,4.426708E1,2.9819878E1,1.8355469E1,1.5266418E1,4.222394E0,9.864807E-1,1.159523E1,9.1832733E-1,9.791031E0,1.906897E1,5.248757E0,1.2684708E1,4.767254E0,4.996765E0,1.3302633E1,9.068298E0,1.9286545E1,3.4224112E0,2.463932E0,3.7684494E1,2.2178482E1,8.692836E0,2.635376E1,1.0299071E1,2.1941252E0,3.3250294E0,6.5114555E0,4.1421734E1,1.7363281E1,5.8123856E0,2.7678162E1,1.1832115E1,1.2919785E1,8.375183E0,1.0964386E1,1.7854152E0,1.2178575E0,0E0,0E0,0E0,0E0,0E0,0E0,0E0,0E0,0E0,0E0,0E0,0E0,0E0,0E0,0E0,0E0,0E0,0E0,0E0,0E0,0E0,0E0,0E0,0E0,0E0,0E0,0E0,0E0,0E0,0E0,0E0,0E0,0E0,0E0,0E0,0E0,0E0,0E0,0E0,0E0,0E0,0E0,0E0,0E0,0E0,0E0,0E0,0E0,0E0,0E0,0E0,0E0,0E0,0E0,0E0,0E0,0E0,0E0,0E0,0E0,0E0,0E0,0E0,0E0],"parents":[2147483647,0,0,1,1,2,2,3,3,4,4,5,5,6,6,7,7,8,8,9,9,10,10,11,11,12,12,13,13,14,14,15,15,16,16,17,17,18,18,19,19,20,20,21,21,22,22,23,23,24,24,25,25,26,26,27,27,28,28,29,29,30,30,31,31,32,32,33,33,34,34,35,35,36,36,37,37,38,38,39,39,40,40,41,41,42,42,43,43,44,44,45,45,46,46,47,47,48,48,49,49,50,50,51,51,52,52,53,53,54,54,55,55,56,56,57,57,58,58,59,59,60,60,61,61,62,62],"right_children":[2,4,6,8,10,12,14,16,18,20,22,24,26,28,30,32,34,36,38,40,42,44,46,48,50,52,54,56,58,60,62,64,66,68,70,72,74,76,78,80,82,84,86,88,90,92,94,96,98,100,102,104,106,108,110,112,114,116,118,120,122,124,126,-1,-1,-1,-1,-1,-1,-1,-1,-1,-1,-1,-1,-1,-1,-1,-1,-1,-1,-1,-1,-1,-1,-1,-1,-1,-1,-1,-1,-1,-1,-1,-1,-1,-1,-1,-1,-1,-1,-1,-1,-1,-1,-1,-1,-1,-1,-1,-1,-1,-1,-1,-1,-1,-1,-1,-1,-1,-1,-1,-1,-1,-1,-1,-1],"split_conditions":[1.19577235E-4,9E0,3.5182422E-4,5.031362E-1,2.6288595E-5,8E0,8.2090317E-4,7.196562E-2,4.7480054E-2,-2.8298068E0,-3.2783756E0,7.448981E-1,-2.7716637E0,8E0,3.1036356E-1,8E0,3.5278782E-1,7.6299196E-1,-2.362079E0,6.6095686E-1,1.1276926E-5,4.7746763E-1,1.1E1,-2.42287E0,4.74526E-1,6.378583E-1,1E1,-2.2903235E0,7.279703E-1,-1.5379797E0,3.9211908E-1,9.466219E-1,1.075E3,-2.148985E0,8E0,7E0,7E0,7.225431E-1,7E0,3.1111112E0,1.2E1,1.2E1,3.418833E-2,8E0,4.269167E3,5.133579E-1,3.767666E-2,5.879839E-1,7E0,4.2427397E-1,8.5911256E-1,3.4526E4,2.8674445E-1,