{"learner":{"attributes":{"best_iteration":"594","best_score":"0.4546625826060288"},"feature_names":["logit1","logit2","logit3","logit4","prob1","prob2","prob3","prob4","number_of_runners","field_size","purse_usa","distance_id","post_hour","total_pool","avg_field_odds","odds_std","favorite_odds","longshot_odds","odds_range","prob_product","prob_sum","prob_entropy","min_prob","max_prob","pool_per_runner","purse_per_runner","harville_log","prob_variance","surface_D","surface_T","surface_nan","course_type_B","course_type_C","course_type_D","course_type_E","course_type_I","course_type_M","course_type_N","course_type_O","course_type_T","course_type_nan","track_condition_","track_condition_FM","track_condition_FT","track_condition_FZ","track_condition_GD","track_condition_HD","track_condition_HY","track_condition_MY","track_condition_SF","track_condition_SL","track_condition_SY","track_condition_WF","track_condition_YL","track_condition_nan"],"feature_types":[],"gradient_booster":{"model":{"gbtree_model_param":{"num_parallel_tree":"1","num_trees":"595"},"iteration_indptr":[0,1,2,3,4,5,6,7,8,9,10,11,12,13,14,15,16,17,18,19,20,21,22,23,24,25,26,27,28,29,30,31,32,33,34,35,36,37,38,39,40,41,42,43,44,45,46,47,48,49,50,51,52,53,54,55,56,57,58,59,60,61,62,63,64,65,66,67,68,69,70,71,72,73,74,75,76,77,78,79,80,81,82,83,84,85,86,87,88,89,90,91,92,93,94,95,96,97,98,99,100,101,102,103,104,105,106,107,108,109,110,111,112,113,114,115,116,117,118,119,120,121,122,123,124,125,126,127,128,129,130,131,132,133,134,135,136,137,138,139,140,141,142,143,144,145,146,147,148,149,150,151,152,153,154,155,156,157,158,159,160,161,162,163,164,165,166,167,168,169,170,171,172,173,174,175,176,177,178,179,180,181,182,183,184,185,186,187,188,189,190,191,192,193,194,195,196,197,198,199,200,201,202,203,204,205,206,207,208,209,210,211,212,213,214,215,216,217,218,219,220,221,222,223,224,225,226,227,228,229,230,231,232,233,234,235,236,237,238,239,240,241,242,243,244,245,246,247,248,249,250,251,252,253,254,255,256,257,258,259,260,261,262,263,264,265,266,267,268,269,270,271,272,273,274,275,276,277,278,279,280,281,282,283,284,285,286,287,288,289,290,291,292,293,294,295,296,297,298,299,300,301,302,303,304,305,306,307,308,309,310,311,312,313,314,315,316,317,318,319,320,321,322,323,324,325,326,327,328,329,330,331,332,333,334,335,336,337,338,339,340,341,342,343,344,345,346,347,348,349,350,351,352,353,354,355,356,357,358,359,360,361,362,363,364,365,366,367,368,369,370,371,372,373,374,375,376,377,378,379,380,381,382,383,384,385,386,387,388,389,390,391,392,393,394,395,396,397,398,399,400,401,402,403,404,405,406,407,408,409,410,411,412,413,414,415,416,417,418,419,420,421,422,423,424,425,426,427,428,429,430,431,432,433,434,435,436,437,438,439,440,441,442,443,444,445,446,447,448,449,450,451,452,453,454,455,456,457,458,459,460,461,462,463,464,465,466,467,468,469,470,471,472,473,474,475,476,477,478,479,480,481,482,483,484,485,486,487,488,489,490,491,492,493,494,495,496,497,498,499,500,501,502,503,504,505,506,507,508,509,510,511,512,513,514,515,516,517,518,519,520,521,522,523,524,525,526,527,528,529,530,531,532,533,534,535,536,537,538,539,540,541,542,543,544,545,546,547,548,549,550,551,552,553,554,555,556,557,558,559,560,561,562,563,564,565,566,567,568,569,570,571,572,573,574,575,576,577,578,579,580,581,582,583,584,585,586,587,588,589,590,591,592,593,594,595],"tree_info":[0,0,0,0,0,0,0,0,0,0,0,0,0,0,0,0,0,0,0,0,0,0,0,0,0,0,0,0,0,0,0,0,0,0,0,0,0,0,0,0,0,0,0,0,0,0,0,0,0,0,0,0,0,0,0,0,0,0,0,0,0,0,0,0,0,0,0,0,0,0,0,0,0,0,0,0,0,0,0,0,0,0,0,0,0,0,0,0,0,0,0,0,0,0,0,0,0,0,0,0,0,0,0,0,0,0,0,0,0,0,0,0,0,0,0,0,0,0,0,0,0,0,0,0,0,0,0,0,0,0,0,0,0,0,0,0,0,0,0,0,0,0,0,0,0,0,0,0,0,0,0,0,0,0,0,0,0,0,0,0,0,0,0,0,0,0,0,0,0,0,0,0,0,0,0,0,0,0,0,0,0,0,0,0,0,0,0,0,0,0,0,0,0,0,0,0,0,0,0,0,0,0,0,0,0,0,0,0,0,0,0,0,0,0,0,0,0,0,0,0,0,0,0,0,0,0,0,0,0,0,0,0,0,0,0,0,0,0,0,0,0,0,0,0,0,0,0,0,0,0,0,0,0,0,0,0,0,0,0,0,0,0,0,0,0,0,0,0,0,0,0,0,0,0,0,0,0,0,0,0,0,0,0,0,0,0,0,0,0,0,0,0,0,0,0,0,0,0,0,0,0,0,0,0,0,0,0,0,0,0,0,0,0,0,0,0,0,0,0,0,0,0,0,0,0,0,0,0,0,0,0,0,0,0,0,0,0,0,0,0,0,0,0,0,0,0,0,0,0,0,0,0,0,0,0,0,0,0,0,0,0,0,0,0,0,0,0,0,0,0,0,0,0,0,0,0,0,0,0,0,0,0,0,0,0,0,0,0,0,0,0,0,0,0,0,0,0,0,0,0,0,0,0,0,0,0,0,0,0,0,0,0,0,0,0,0,0,0,0,0,0,0,0,0,0,0,0,0,0,0,0,0,0,0,0,0,0,0,0,0,0,0,0,0,0,0,0,0,0,0,0,0,0,0,0,0,0,0,0,0,0,0,0,0,0,0,0,0,0,0,0,0,0,0,0,0,0,0,0,0,0,0,0,0,0,0,0,0,0,0,0,0,0,0,0,0,0,0,0,0,0,0,0,0,0,0,0,0,0,0,0,0,0,0,0,0,0,0,0,0,0,0,0,0,0,0,0,0,0,0,0,0,0,0,0,0,0,0,0,0,0,0,0,0,0,0,0,0,0,0,0,0,0,0,0,0,0,0,0,0,0,0,0,0,0,0,0,0,0,0,0,0,0,0,0,0,0,0,0,0,0,0,0,0,0,0,0,0,0,0,0,0,0,0,0],"trees":[{"base_weights":[-1.076604E-3,-4.4490632E-1,2.3988846E-1,-7.8053874E-1,-2.8523976E-1,8.091941E-2,4.106244E-1,-1.0022057E0,-5.674957E-1,-5.17666E-1,-8.2564704E-2,-8.88623E-2,1.978766E-1,3.3294412E-1,5.011916E-1,-1.1175973E0,-7.065683E-1,-9.910485E-1,-4.4248626E-1,-6.6127056E-1,-2.429785E-1,2.207787E-1,-1.40921E-1,-2.5117642E-1,8.230571E-2,4.5370698E-1,1.5943466E-1,2.530263E-1,4.3034288E-1,5.288696E-1,2.500164E-1,-1.5017475E0,-1.0260723E0,-9.7079116E-1,-5.8787227E-1,-1.3274683E0,-8.871767E-1,-1.3752711E-1,-5.2386004E-1,-1.1527059E0,-5.860085E-1,1.6173564E-1,-2.9111725E-1,6.62149E-2,3.7184292E-1,-2.3486523E-1,-9.666767E-3,-4.3817887E-1,-1.5456377E-1,3.968245E-1,4.9778488E-2,-6.003144E-1,4.6667042E-1,5.990873E-2,2.4547467E-1,1.624646E-1,3.3718285E-1,5.8012766E-1,3.9682293E-1,6.4282256E-1,4.9150413E-1,-1.4662562E-2,3.0093348E-1,-1.07485846E-1,-8.458567E-2,-7.59057E-2,-5.0894648E-2,-6.6079095E-2,-2.1275446E-2,-1.2420945E-2,-3.9033532E-2,-8.460701E-2,-6.7146026E-2,-3.0865977E-2,-5.7028014E-2,-2.1414336E-2,1.0393809E-3,-4.104763E-2,-2.4151318E-2,-7.926601E-2,-5.6037735E-2,-1.4963909E-2,-3.85781E-2,1.564808E-2,-2.2671107E-2,-2.2819035E-2,-5.033124E-3,-6.966147E-2,4.907896E-3,3.2030813E-2,1.5556854E-2,-2.3884222E-2,-8.246623E-3,-6.3891937E-3,6.4149126E-3,-3.5540506E-2,-1.6824786E-2,4.1282326E-3,-1.2989574E-2,2.9160578E-2,-1.5496206E-2,-1.8666636E-3,1.0804474E-2,-4.275458E-2,-0E0,3.674489E-2,2.2962099E-2,-1.5374117E-3,1.0957505E-2,1.002695E-2,1.791498E-2,2.2109112E-2,7.1241735E-3,2.2076631E-2,-7.112303E-4,4.1550566E-2,2.8407795E-2,2.7986981E-2,2.126276E-2,3.2520402E-2,4.300537E-2,2.3179524E-2,3.148016E-2,2.5768634E-3,-1.24460375E-2,1.1765009E-2,2.1513276E-2],"categories":[],"categories_nodes":[],"categories_segments":[],"categories_sizes":[],"default_left":[0,0,0,0,0,0,0,0,0,0,0,0,0,0,0,0,0,0,0,0,0,0,0,0,0,0,0,0,0,0,0,0,0,0,0,0,0,0,0,0,0,0,0,0,0,0,0,0,0,0,0,0,0,0,0,0,0,0,0,0,0,0,0,0,0,0,0,0,0,0,0,0,0,0,0,0,0,0,0,0,0,0,0,0,0,0,0,0,0,0,0,0,0,0,0,0,0,0,0,0,0,0,0,0,0,0,0,0,0,0,0,0,0,0,0,0,0,0,0,0,0,0,0,0,0,0,0],"id":0,"left_children":[1,3,5,7,9,11,13,15,17,19,21,23,25,27,29,31,33,35,37,39,41,43,45,47,49,51,53,55,57,59,61,63,65,67,69,71,73,75,77,79,81,83,85,87,89,91,93,95,97,99,101,103,105,107,109,111,113,115,117,119,121,123,125,-1,-1,-1,-1,-1,-1,-1,-1,-1,-1,-1,-1,-1,-1,-1,-1,-1,-1,-1,-1,-1,-1,-1,-1,-1,-1,-1,-1,-1,-1,-1,-1,-1,-1,-1,-1,-1,-1,-1,-1,-1,-1,-1,-1,-1,-1,-1,-1,-1,-1,-1,-1,-1,-1,-1,-1,-1,-1,-1,-1,-1,-1,-1,-1],"loss_changes":[3.8038508E4,6.7046504E3,6.255708E3,1.9009219E3,3.9944194E3,2.370775E3,7.8006836E2,6.689961E2,1.086148E3,1.5564004E3,8.0213934E2,1.3530814E3,6.940376E2,4.6440137E2,3.5498535E2,4.9100195E2,1.702229E2,1.567793E2,3.9326343E2,9.545762E2,2.6473627E2,1.6985062E2,4.6829224E2,4.5045947E2,2.4163785E2,1.2666382E2,5.258251E2,2.4968408E2,1.331167E2,1.939707E2,6.9246216E1,4.511914E1,4.8199023E2,1.5433936E2,1.0670227E2,1.3562134E1,1.0179419E2,1.18314514E2,2.4447217E2,1.2628125E2,5.1298E2,8.1946625E1,2.3940332E2,7.5853294E1,6.663428E1,3.5740674E2,1.8592053E2,2.1246277E2,2.4466962E2,1.4439429E2,2.3417627E2,9.134766E0,1.07781494E2,3.095631E2,1.4458276E2,1.392038E2,2.2439526E2,5.7355957E1,6.0043213E1,8.695166E1,1.4436523E2,9.725745E0,2.675827E1,0E0,0E0,0E0,0E0,0E0,0E0,0E0,0E0,0E0,0E0,0E0,0E0,0E0,0E0,0E0,0E0,0E0,0E0,0E0,0E0,0E0,0E0,0E0,0E0,0E0,0E0,0E0,0E0,0E0,0E0,0E0,0E0,0E0,0E0,0E0,0E0,0E0,0E0,0E0,0E0,0E0,0E0,0E0,0E0,0E0,0E0,0E0,0E0,0E0,0E0,0E0,0E0,0E0,0E0,0E0,0E0,0E0,0E0,0E0,0E0,0E0,0E0,0E0,0E0],"parents":[2147483647,0,0,1,1,2,2,3,3,4,4,5,5,6,6,7,7,8,8,9,9,10,10,11,11,12,12,13,13,14,14,15,15,16,16,17,17,18,18,19,19,20,20,21,21,22,22,23,23,24,24,25,25,26,26,27,27,28,28,29,29,30,30,31,31,32,32,33,33,34,34,35,35,36,36,37,37,38,38,39,39,40,40,41,41,42,42,43,43,44,44,45,45,46,46,47,47,48,48,49,49,50,50,51,51,52,52,53,53,54,54,55,55,56,56,57,57,58,58,59,59,60,60,61,61,62,62],"right_children":[2,4,6,8,10,12,14,16,18,20,22,24,26,28,30,32,34,36,38,40,42,44,46,48,50,52,54,56,58,60,62,64,66,68,70,72,74,76,78,80,82,84,86,88,90,92,94,96,98,100,102,104,106,108,110,112,114,116,118,120,122,124,126,-1,-1,-1,-1,-1,-1,-1,-1,-1,-1,-1,-1,-1,-1,-1,-1,-1,-1,-1,-1,-1,-1,-1,-1,-1,-1,-1,-1,-1,-1,-1,-1,-1,-1,-1,-1,-1,-1,-1,-1,-1,-1,-1,-1,-1,-1,-1,-1,-1,-1,-1,-1,-1,-1,-1,-1,-1,-1,-1,-1,-1,-1,-1,-1],"split_conditions":[1.7196113E-4,5.0858383E-5,4.9841177E-4,1E1,9E0,8E0,8.8011945E-4,5.4401547E-1,1.2487935E-5,6.6354126E-1,-2.6086867E0,7.315997E-1,-2.3826742E0,8E0,-8.5187614E-1,8E0,8E0,4.4188437E-6,-2.7955701E0,7E0,-2.632151E0,5.3121644E-1,5.7294637E-1,7E0,-2.4197109E0,8.6E2,6.5100694E-1,7.9091966E-1,-1.9567078E0,-1.5257168E0,1E2,7E0,2.22076E-5,8.0642605E-1,-2.58416E0,1.2E1,-3.3208904E0,3.8633063E-1,2.7054195E-5,1.11886315E-4,-2.5401943E0,-4.5001072E-1,7.9782593E-1,1.3E2,-3.3208904E0,1E1,-2.8825734E0,2.963284E-4,-2.074637E0,-2.8741524E-1,8.375126E-1,4.125516E-4,6.8849306E0,1E1,9E0,-2.0199032E0,-7.69292E-1,6.013772E0,5.1955323E0,8.281438E-1,8.785714E2,2.3065496E-2,1.2266757E-1,-1.07485846E-1,-8.458567E-2,-7.59057E-2,-5.0894648E-2,-6.6079095E-2,-2.1275446E-2,-1.2420945E-2,-3.9033532E-2,-8.460701E-2,-6.7146026E-2,-3.0865977E-2,-5.7028014E-2,-2.1414336E-2,1.0393809E-3,-4.104763E-2,-2.4151318E-2,-7.926601E-2,-5.6037735E-2,-1.4963909E-2,-3.85781E-2,1.564808E-2,-2.2671107E-2,-2.2819035E-2,-5.033124E-3,-6.966147E-2,4.907896E-3,3.2030813E-2,1.5556854E-2,-2.3884222E-2,-8.246623E-3,-6.3891937E-3,6.4149126E-3,-3.5540506E-2,-1.6824786E-2,4.1282326E-3,-1.2989574E-2,2.9160578E-2,-1.5496206E-2,-1.8666636E-3,1.0804474E-2,-4.275458E-2,-0E0,3.674489E-2,2.2962099E-2,-1.5374117E-3,1.0957505E-2,1.002695E-2,1.791498E-2,2.2109112E-2,7.1241735E-3,2.2076631E-2,-7.112303E-4,4.1550566E-2,2.8407795E-2,2.7986981E-2,2.126276E-2,3.2520402E-2,4.300537E-2,2.3179524E-2,3.148016E-2,2.5768634E-3,-1.24460375E-2,1.1765009E-2,2.1513276E-2],"split_indices":[19,19,19,8,8,8,19,20,19,20,0,20,0,8,3,8,8,19,0,8,0,20,20,8,0,17,20,20,0,0,16,8,19,20,0,8,0,20,19,19,0,3,20,16,0,8,3,19,0,3,20,19,26,8,8,0,3,26,26,20,14,27,6,0,0,0,0,0,0,0,0,0,0,0,0,0,0,0,0,0,0,0,0,0,0,0,0,0,0,0,0,0,0,0,0,0,0,0,0,0,0,0,0,0,0,0,0,0,0,0,0,0,0,0,0,0,0,0,0,0,0,0,0,0,0,0,0],"split_type":[0,0,0,0,0,0,0,0,0,0,0,0,0,0,0,0,0,0,0,0,0,0,0,0,0,0,0,0,0,0,0,0,0,0,0,0,0,0,0,0,0,0,0,0,0,0,0,0,0,0,0,0,0,0,0,0,0,0,0,0,0,0,0,0,0,0,0,0,0,0,0,0,0,0,0,0,0,0,0,0,0,0,0,0,0,0,0,0,0,0,0,0,0,0,0,0,0,0,0,0,0,0,0,0,0,0,0,0,0,0,0,0,0,0,0,0,0,0,0,0,0,0,0,0,0,0,0],"sum_hessian":[3.55666E5,1.25153E5,2.30513E5,4.0338E4,8.4815E4,1.19377E5,1.11136E5,1.976E4,2.0578E4,3.9502E4,4.5313E4,4.8687E4,7.069E4,5.9841E4,5.1295E4,1.4203E4,5.557E3,4.682E3,1.5896E4,2.5934E4,1.3568E4,7.305E3,3.8008E4,2.4994E4,2.3693E4,9.225E3,6.1465E4,3.2885E4,2.6956E4,4.6195E4,5.1E3,2.721E3,1.1482E4,1.712E3,3.845E3,1.093E3,3.589E3,3.354E3,1.2542E4,3.436E3,2.2498E4,1.438E3,1.213E4,3.618E3,3.687E3,2.2144E4,1.5864E4,8.505E3,1.6489E4,2.213E3,2.148E4,1.09E2,9.116E3,2.851E4,3.2955E4,1.5853E4,1.7032E4,4.912E3,2.2044E4,1.1385E4,3.481E4,8.18E2,4.282E3,4.43E2,2.278E3,4.37E3,7.112E3,1.368E3,3.44E2,6.42E2,3.203E3,6.74E2,4.19E2,6.62E2,2.927E3,1.368E3,1.986E3,4.966E3,7.576E3,1.742E3,1.694E3,3.875E3,1.8623E4,1.212E3,2.26E2,8.255E3,3.875E3,4.5E1,3.573E3,1.41E3,2.277E3,7.903E3,1.4241E4,8.661E3,7.203E3,4.074E3,4.431E3,3.737E3,1.2752E4,1.929E3,2.84E2,1.3339E4,8.141E3,9.1E1,1.8E1,2.98E3,6.136E3,1.6944E4,1.1566E4,1.4455E4,1.85E4,2.577E3,1.3276E4,1.538E4,1.652E3,2.139E3,2.773E3,6.896E3,1.5148E4,5.602E3,5.783E3,1.0627E4,2.4183E4,6.26E2,1.92E2,1.678E3,2.604E3],"tree_param":{"num_deleted":"0","num_feature":"55","num_nodes":"127","size_leaf_vector":"1"}},{"base_weights":[1.2207084E-4,-4.405788E-1,2.1547908E-1,-7.1245885E-1,-2.7318028E-1,4.3301005E-2,3.68314E-1,-1.0329792E0,-5.822571E-1,-6.357647E-1,-1.550524E-1,-1.3275053E-1,1.5564817E-1,2.7791607E-1,4.5265096E-1,-1.115894E0,-5.5688334E-1,-8.494534E-1,-4.1024795E-1,-8.1147337E-1,-3.4090954E-1,2.090631E-1,-2.0354094E-1,-2.6342288E-1,1.0203275E-2,4.221403E-1,1.20083645E-1,1.8825029E-1,3.7697628E-1,4.7774854E-1,2.1711496E-1,-1.3429147E0,-9.8860866E-1,-6.502948E-1,-2.1053843E-1,-1.188901E0,-7.619093E-1,-1.8236969E-3,-4.6685857E-1,-1.0826783E0,-7.1235853E-1,-4.3840864E-1,-6.3472144E-2,-1.0252041E0,2.2993173E-1,-3.2097998E-1,-5.3850114E-2,-4.2535254E-1,-1.4984035E-1,-9.260755E-2,1.0497082E-1,2.9618284E-1,5.393671E-1,3.4540713E-2,1.9910206E-1,4.0655422E-1,1.5407978E-1,5.423244E-1,3.433445E-1,3.8256282E-1,5.2039945E-1,8.626508E-3,2.8499866E-1,-6.17217E-2,-8.3000585E-2,-7.23632E-2,-4.7985338E-2,-6.296034E-2,-3.4068152E-2,-3.2881822E-2,-7.6965024E-3,-8.0894865E-2,-5.8819223E-2,-5.2280102E-2,-3.1442463E-2,-9.177289E-3,1.13263875E-2,-3.206321E-2,-1.6070224E-2,-7.637986E-2,-5.405174E-2,-2.054586E-2,-4.555495E-2,-3.7377965E-2,-1.9987945E-2,-2.2820253E-3,-5.3009868E-2,-6.385586E-2,-1.733226E-2,2.5856322E-2,7.662646E-3,-2.39327E-2,-8.212168E-3,-9.819281E-3,1.2751572E-3,-3.8547385E-2,-1.8991483E-2,-7.5218834E-2,-7.93385E-3,-9.49461E-3,6.8086013E-3,7.795266E-3,-1.245678E-2,-2.9269561E-2,1.903683E-2,4.050079E-2,2.7979884E-2,-5.556154E-3,6.122481E-3,8.9620575E-3,1.7516611E-2,2.8553808E-2,1.1164592E-2,4.159912E-3,1.3992704E-2,3.334985E-2,5.148724E-3,-1.4836444E-2,2.0422263E-2,1.9673415E-2,2.7631963E-2,3.658421E-2,2.8015172E-2,3.2311592E-3,-1.5551044E-2,2.2870738E-2,1.31402E-2],"categories":[],"categories_nodes":[],"categories_segments":[],"categories_sizes":[],"default_left":[0,0,0,0,0,0,0,0,0,0,0,0,0,0,0,0,0,0,0,0,0,0,0,0,0,0,0,0,0,0,0,0,0,0,0,0,0,0,0,0,0,0,0,0,0,0,0,0,0,0,0,0,0,0,0,0,0,0,0,0,0,0,0,0,0,0,0,0,0,0,0,0,0,0,0,0,0,0,0,0,0,0,0,0,0,0,0,0,0,0,0,0,0,0,0,0,0,0,0,0,0,0,0,0,0,0,0,0,0,0,0,0,0,0,0,0,0,0,0,0,0,0,0,0,0,0,0],"id":1,"left_children":[1,3,5,7,9,11,13,15,17,19,21,23,25,27,29,31,33,35,37,39,41,43,45,47,49,51,53,55,57,59,61,63,65,67,69,71,73,75,77,79,81,83,85,87,89,91,93,95,97,99,101,103,105,107,109,111,113,115,117,119,121,123,125,-1,-1,-1,-1,-1,-1,-1,-1,-1,-1,-1,-1,-1,-1,-1,-1,-1,-1,-1,-1,-1,-1,-1,-1,-1,-1,-1,-1,-1,-1,-1,-1,-1,-1,-1,-1,-1,-1,-1,-1,-1,-1,-1,-1,-1,-1,-1,-1,-1,-1,-1,-1,-1,-1,-1,-1,-1,-1,-1,-1,-1,-1,-1,-1],"loss_changes":[3.379644E4,5.317824E3,6.29405E3,1.8543828E3,3.0974917E3,2.2251187E3,9.64541E2,5.0313184E2,1.4531191E3,9.182881E2,9.6377747E2,8.189589E2,6.498916E2,5.422827E2,3.8602832E2,3.0875098E2,6.019763E1,3.628086E2,4.4510132E2,2.941577E2,1.788761E2,1.6453024E2,8.4619946E2,4.200504E2,2.0390149E2,1.1749524E2,4.0923737E2,2.385575E2,1.5960791E2,2.3840137E2,8.900354E1,6.839258E1,2.8718896E2,4.0845703E1,1.0196512E1,8.12207E1,2.7928125E2,7.038101E1,2.5282568E2,9.7938965E1,1.7860645E2,9.328534E1,3.4286007E1,1.4153595E0,1.3058307E2,4.170598E2,1.8077155E2,2.2023108E2,2.2716547E2,1.433287E2,9.4333244E1,8.38793E1,3.700708E1,2.604187E2,1.444596E2,7.230133E1,1.9304718E2,5.1963257E1,4.8822998E1,7.53728E1,1.817168E2,1.9386925E1,2.9226105E1,0E0,0E0,0E0,0E0,0E0,0E0,0E0,0E0,0E0,0E0,0E0,0E0,0E0,0E0,0E0,0E0,0E0,0E0,0E0,0E0,0E0,0E0,0E0,0E0,0E0,0E0,0E0,0E0,0E0,0E0,0E0,0E0,0E0,0E0,0E0,0E0,0E0,0E0,0E0,0E0,0E0,0E0,0E0,0E0,0E0,0E0,0E0,0E0,0E0,0E0,0E0,0E0,0E0,0E0,0E0,0E0,0E0,0E0,0E0,0E0,0E0,0E0,0E0,0E0],"parents":[2147483647,0,0,1,1,2,2,3,3,4,4,5,5,6,6,7,7,8,8,9,9,10,10,11,11,12,12,13,13,14,14,15,15,16,16,17,17,18,18,19,19,20,20,21,21,22,22,23,23,24,24,25,25,26,26,27,27,28,28,29,29,30,30,31,31,32,32,33,33,34,34,35,35,36,36,37,37,38,38,39,39,40,40,41,41,42,42,43,43,44,44,45,45,46,46,47,47,48,48,49,49,50,50,51,51,52,52,53,53,54,54,55,55,56,56,57,57,58,58,59,59,60,60,61,61,62,62],"right_children":[2,4,6,8,10,12,14,16,18,20,22,24,26,28,30,32,34,36,38,40,42,44,46,48,50,52,54,56,58,60,62,64,66,68,70,72,74,76,78,80,82,84,86,88,90,92,94,96,98,100,102,104,106,108,110,112,114,116,118,120,122,124,126,-1,-1,-1,-1,-1,-1,-1,-1,-1,-1,-1,-1,-1,-1,-1,-1,-1,-1,-1,-1,-1,-1,-1,-1,-1,-1,-1,-1,-1,-1,-1,-1,-1,-1,-1,-1,-1,-1,-1,-1,-1,-1,-1,-1,-1,-1,-1,-1,-1,-1,-1,-1,-1,-1,-1,-1,-1,-1,-1,-1,-1,-1,-1,-1],"split_conditions":[1.575744E-4,5.580333E-5,4.3764157E-4,9E0,8E0,8E0,7.622825E-4,5.080283E-1,2.22076E-5,4.0219775E-1,-2.7955701E0,3.6997494E-1,-2.4767153E0,8E0,-8.5187614E-1,2.856962E-5,6.875712E-1,6.7379888E-6,-3.094046E0,7E0,5.8934474E-1,1.31E3,1E1,2.596562E-4,2.7957663E-4,1.43E3,2.596562E-4,-2.101659E0,-2.0469904E0,8.785714E2,1.05E2,-3.094046E0,8E0,7E0,1.7437946E-5,1.1E1,1.1E1,3.18E3,1.1E1,1.0387787E-4,-2.632151E0,7E0,-1.3061523E0,5.618069E-2,-3.3957925E0,3.56451E-1,8.87969E-5,7E0,1.15E2,5.4803985E-1,-8.5187614E-1,9.5E2,-3.2565508E0,9E0,1E1,-1.0398766E0,3.5882285E-1,-5.137294E-1,4.8E2,1.2607756E-3,-1.4164171E0,4.833561E-1,-1.6782776E0,-6.17217E-2,-8.3000585E-2,-7.23632E-2,-4.7985338E-2,-6.296034E-2,-3.4068152E-2,-3.2881822E-2,-7.6965024E-3,-8.0894865E-2,-5.8819223E-2,-5.2280102E-2,-3.1442463E-2,-9.177289E-3,1.13263875E-2,-3.206321E-2,-1.6070224E-2,-7.637986E-2,-5.405174E-2,-2.054586E-2,-4.555495E-2,-3.7377965E-2,-1.9987945E-2,-2.2820253E-3,-5.3009868E-2,-6.385586E-2,-1.733226E-2,2.5856322E-2,7.662646E-3,-2.39327E-2,-8.212168E-3,-9.819281E-3,1.2751572E-3,-3.8547385E-2,-1.8991483E-2,-7.5218834E-2,-7.93385E-3,-9.49461E-3,6.8086013E-3,7.795266E-3,-1.245678E-2,-2.9269561E-2,1.903683E-2,4.050079E-2,2.7979884E-2,-5.556154E-3,6.122481E-3,8.9620575E-3,1.7516611E-2,2.8553808E-2,1.1164592E-2,4.159912E-3,1.3992704E-2,3.334985E-2,5.148724E-3,-1.4836444E-2,2.0422263E-2,1.9673415E-2,2.7631963E-2,3.658421E-2,2.8015172E-2,3.2311592E-3,-1.5551044E-2,2.2870738E-2,1.31402E-2],"split_indices":[19,19,19,9,9,9,19,23,19,23,0,23,0,8,3,19,23,19,0,9,23,17,8,19,19,17,19,0,0,14,16,0,8,8,19,9,8,17,8,19,0,8,3,22,0,23,19,8,16,23,3,17,0,8,9,3,23,3,17,19,0,23,0,0,0,0,0,0,0,0,0,0,0,0,0,0,0,0,0,0,0,0,0,0,0,0,0,0,0,0,0,0,0,0,0,0,0,0,0,0,0,0,0,0,0,0,0,0,0,0,0,0,0,0,0,0,0,0,0,0,0,0,0,0,0,0,0],"split_type":[0,0,0,0,0,0,0,0,0,0,0,0,0,0,0,0,0,0,0,0,0,0,0,0,0,0,0,0,0,0,0,0,0,0,0,0,0,0,0,0,0,0,0,0,0,0,0,0,0,0,0,0,0,0,0,0,0,0,0,0,0,0,0,0,0,0,0,0,0,0,0,0,0,0,0,0,0,0,0,0,0,0,0,0,0,0,0,0,0,0,0,0,0,0,0,0,0,0,0,0,0,0,0,0,0,0,0,0,0,0,0,0,0,0,0,0,0,0,0,0,0,0,0,0,0,0,0],"sum_hessian":[3.56095E5,1.16888E5,2.39207E5,4.4536E4,7.2352E4,1.12492E5,1.26715E5,1.2856E4,3.168E4,1.7773E4,5.4579E4,4.3816E4,6.8676E4,6.1175E4,6.554E4,1.0943E4,1.913E3,1.2399E4,1.9281E4,1.113E4,6.643E3,6.409E3,4.817E4,2.2896E4,2.092E4,8.077E3,6.0599E4,3.2123E4,2.9052E4,5.922E4,6.32E3,3.917E3,7.026E3,1.501E3,4.12E2,2.531E3,9.868E3,2.351E3,1.693E4,2.967E3,8.163E3,4.91E3,1.733E3,1.03E2,6.306E3,2.6985E4,2.1185E4,9.43E3,1.3466E4,1.0026E4,1.0894E4,3.905E3,4.172E3,2.911E4,3.1489E4,4.337E3,2.7786E4,4.895E3,2.4157E4,1.8345E4,4.0875E4,1.559E3,4.761E3,7.31E2,3.186E3,2.942E3,4.084E3,2.11E2,1.29E3,7E1,3.42E2,1.272E3,1.259E3,6.353E3,3.515E3,1.316E3,1.035E3,1.2089E4,4.841E3,1.279E3,1.688E3,1.18E3,6.983E3,1.637E3,3.273E3,1.688E3,4.5E1,9.2E1,1.1E1,2.03E3,4.276E3,1.8349E4,8.636E3,8.499E3,1.2686E4,2.914E3,6.516E3,1.74E2,1.3292E4,7.548E3,2.478E3,1.0033E4,8.61E2,1.25E2,3.78E3,1.247E3,2.925E3,1.0181E4,1.8929E4,2.1325E4,1.0164E4,3.18E3,1.157E3,1.3907E4,1.3879E4,4.647E3,2.48E2,1.32E2,2.4025E4,1.1772E4,6.573E3,1.256E4,2.8315E4,1.34E3,2.19E2,1.769E3,2.992E3],"tree_param":{"num_deleted":"0","num_feature":"55","num_nodes":"127","size_leaf_vector":"1"}},{"base_weights":[4.4724756E-4,-3.5158134E-1,2.0817761E-1,-6.611261E-1,-2.1571593E-1,3.4288887E-2,3.2348558E-1,-9.890598E-1,-5.3315526E-1,-3.179676E-1,-4.8629084E-4,-2.0547849E-1,1.4116587E-1,2.273848E-1,4.118881E-1,-1.1993133E0,-8.0158585E-1,-8.255048E-1,-3.4870684E-1,-5.7505345E-1,-1.3649645E-1,-1.6176486E-1,9.3291506E-2,-3.5781246E-1,-4.71396E-2,9.179449E-3,2.0462158E-1,3.915328E-1,1.7345251E-1,3.162056E-1,4.664975E-1,-1.4041095E0,-1.0839878E0,-1.0214167E0,-6.115734E-1,-1.1069297E0,-7.114001E-1,-5.516248E-1,-2.2557184E-1,-7.957542E-1,-4.4220683E-1,-3.3718497E-1,-7.7502485E-3,-3.7680075E-1,-6.7714445E-2,1.3089915E-1,-4.9674636E-1,-9.558188E-2,-4.3799677E-1,-1.2777658E0,-3.7385136E-2,-7.13036E-2,1.4043668E-1,1.224438E-1,3.1158724E-1,4.6718073E-1,6.7318134E-2,1.000462E-1,2.782992E-1,2.5361624E-1,4.118473E-1,3.769882E-1,5.079831E-1,-9.4923966E-2,-7.7631526E-2,-7.711981E-2,-5.591759E-2,-7.584714E-2,-5.5039655E-2,-2.7883751E-2,-4.793717E-2,-7.141883E-2,-4.841444E-2,-2.8526729E-2,-4.8900492E-2,-4.4096753E-2,-2.7218806E-2,-1.7555011E-2,-2.582636E-3,-7.0182785E-2,-4.344354E-2,-3.5515558E-2,-1.6911497E-2,-6.709E-3,-2.576E-2,9.9142445E-3,-5.9676105E-3,-1.217682E-2,-3.0622937E-2,-9.523705E-3,5.76488E-3,2.0445775E-2,3.2994582E-3,-5.646182E-2,-2.1380663E-2,-1.5909588E-2,-8.0873625E-4,-3.8004342E-2,-2.0126862E-2,-4.7788033E-3,-8.154594E-2,-1.0792074E-2,2.5042724E-3,-5.9444647E-2,-3.4309863E-3,2.5145938E-3,1.3944598E-2,-1.4357652E-4,1.0873697E-2,1.0735484E-2,2.14597E-2,3.7340537E-2,2.3956876E-2,-1.1324712E-2,8.911117E-3,1.554264E-2,-9.291048E-4,2.1839136E-2,1.379918E-2,8.855668E-3,1.7861135E-2,1.930756E-2,2.7477203E-2,1.7591331E-2,2.5678156E-2,2.8415063E-2,3.891683E-2],"categories":[],"categories_nodes":[],"categories_segments":[],"categories_sizes":[],"default_left":[0,0,0,0,0,0,0,0,0,0,0,0,0,0,0,0,0,0,0,0,0,0,0,0,0,0,0,0,0,0,0,0,0,0,0,0,0,0,0,0,0,0,0,0,0,0,0,0,0,0,0,0,0,0,0,0,0,0,0,0,0,0,0,0,0,0,0,0,0,0,0,0,0,0,0,0,0,0,0,0,0,0,0,0,0,0,0,0,0,0,0,0,0,0,0,0,0,0,0,0,0,0,0,0,0,0,0,0,0,0,0,0,0,0,0,0,0,0,0,0,0,0,0,0,0,0,0],"id":2,"left_children":[1,3,5,7,9,11,13,15,17,19,21,23,25,27,29,31,33,35,37,39,41,43,45,47,49,51,53,55,57,59,61,63,65,67,69,71,73,75,77,79,81,83,85,87,89,91,93,95,97,99,101,103,105,107,109,111,113,115,117,119,121,123,125,-1,-1,-1,-1,-1,-1,-1,-1,-1,-1,-1,-1,-1,-1,-1,-1,-1,-1,-1,-1,-1,-1,-1,-1,-1,-1,-1,-1,-1,-1,-1,-1,-1,-1,-1,-1,-1,-1,-1,-1,-1,-1,-1,-1,-1,-1,-1,-1,-1,-1,-1,-1,-1,-1,-1,-1,-1,-1,-1,-1,-1,-1,-1,-1],"loss_changes":[2.6041008E4,5.556006E3,4.489912E3,1.6875078E3,2.020854E3,2.2884688E3,1.1426729E3,4.397119E2,1.5611572E3,2.9033652E3,4.4768082E2,6.6334985E2,5.170469E2,5.702012E2,3.6472656E2,1.1729541E2,2.457793E2,3.5491553E2,4.4291406E2,7.5222754E2,9.426665E2,2.1938416E2,4.1467184E2,2.9393384E2,1.5988031E2,2.1214734E2,3.658341E2,3.9023218E2,3.7325146E2,1.5127051E2,1.6374023E2,2.3214355E1,9.659741E1,5.7123047E1,8.6926636E1,9.09187E1,2.1229712E2,1.1543823E2,1.4533661E2,2.1715186E2,3.992317E2,3.1787634E2,3.664161E2,7.899057E1,1.1813895E2,2.840834E2,6.598489E1,4.6565765E1,2.1199902E2,1.0683258E1,1.5645738E2,1.5035971E2,7.14052E1,1.8351053E2,1.2245654E2,1.2792236E2,6.594566E1,5.429154E2,8.0187256E1,7.820001E1,4.453589E1,6.3819458E1,1.1626953E2,0E0,0E0,0E0,0E0,0E0,0E0,0E0,0E0,0E0,0E0,0E0,0E0,0E0,0E0,0E0,0E0,0E0,0E0,0E0,0E0,0E0,0E0,0E0,0E0,0E0,0E0,0E0,0E0,0E0,0E0,0E0,0E0,0E0,0E0,0E0,0E0,0E0,0E0,0E0,0E0,0E0,0E0,0E0,0E0,0E0,0E0,0E0,0E0,0E0,0E0,0E0,0E0,0E0,0E0,0E0,0E0,0E0,0E0,0E0,0E0,0E0,0E0,0E0,0E0],"parents":[2147483647,0,0,1,1,2,2,3,3,4,4,5,5,6,6,7,7,8,8,9,9,10,10,11,11,12,12,13,13,14,14,15,15,16,16,17,17,18,18,19,19,20,20,21,21,22,22,23,23,24,24,25,25,26,26,27,27,28,28,29,29,30,30,31,31,32,32,33,33,34,34,35,35,36,36,37,37,38,38,39,39,40,40,41,41,42,42,43,43,44,44,45,45,46,46,47,47,48,48,49,49,50,50,51,51,52,52,53,53,54,54,55,55,56,56,57,57,58,58,59,59,60,60,61,61,62,62],"right_children":[2,4,6,8,10,12,14,16,18,20,22,24,26,28,30,32,34,36,38,40,42,44,46,48,50,52,54,56,58,60,62,64,66,68,70,72,74,76,78,80,82,84,86,88,90,92,94,96,98,100,102,104,106,108,110,112,114,116,118,120,122,124,126,-1,-1,-1,-1,-1,-1,-1,-1,-1,-1,-1,-1,-1,-1,-1,-1,-1,-1,-1,-1,-1,-1,-1,-1,-1,-1,-1,-1,-1,-1,-1,-1,-1,-1,-1,-1,-1,-1,-1,-1,-1,-1,-1,-1,-1,-1,-1,-1,-1,-1,-1,-1,-1,-1,-1,-1,-1,-1,-1,-1,-1,-1,-1,-1],"split_conditions":[9.9188584E-1,4.6786746E-1,7.086508E-1,9E0,7.019915E-1,8E0,1.1439692E0,8.5425454E-1,7.965041E-1,9E0,3.7698083E-2,1.0732751E0,8.217696E-2,1.6121899E-1,-1.743439E0,8E0,8E0,6.9120747E-1,5.9166204E-2,4.4127613E-2,4.4713564E-2,-2.8049216E0,4.5531654E-1,1.1026201E-1,1.15E2,1E1,-1.9129007E0,3.255592E-1,8E0,-1.026395E0,8.785714E2,3.7698083E-2,7.717959E-1,7E0,1.1414286E3,1.2E1,6.8581454E-2,1E1,1.1E1,7E0,8E0,1.4775926E-1,1.0222151E-1,6.083261E0,8.225929E-1,1.7067036E-1,4E1,7E0,7E0,1.754E3,7E0,8.7E2,6.233344E-1,9E0,5.9658766E-1,7.16548E-2,8E1,4.8613243E0,5.17588E0,7E0,7E0,8.029439E-1,-7.95252E-1,-9.4923966E-2,-7.7631526E-2,-7.711981E-2,-5.591759E-2,-7.584714E-2,-5.5039655E-2,-2.7883751E-2,-4.793717E-2,-7.141883E-2,-4.841444E-2,-2.8526729E-2,-4.8900492E-2,-4.4096753E-2,-2.7218806E-2,-1.7555011E-2,-2.582636E-3,-7.0182785E-2,-4.344354E-2,-3.5515558E-2,-1.6911497E-2,-6.709E-3,-2.576E-2,9.9142445E-3,-5.9676105E-3,-1.217682E-2,-3.0622937E-2,-9.523705E-3,5.76488E-3,2.0445775E-2,3.2994582E-3,-5.646182E-2,-2.1380663E-2,-1.5909588E-2,-8.0873625E-4,-3.8004342E-2,-2.0126862E-2,-4.7788033E-3,-8.154594E-2,-1.0792074E-2,2.5042724E-3,-5.9444647E-2,-3.4309863E-3,2.5145938E-3,1.3944598E-2,-1.4357652E-4,1.0873697E-2,1.0735484E-2,2.14597E-2,3.7340537E-2,2.3956876E-2,-1.1324712E-2,8.911117E-3,1.554264E-2,-9.291048E-4,2.1839136E-2,1.379918E-2,8.855668E-3,1.7861135E-2,1.930756E-2,2.7477203E-2,1.7591331E-2,2.5678156E-2,2.8415063E-2,3.891683E-2],"split_indices":[21,20,20,8,20,8,21,21,21,8,7,21,7,4,2,8,8,21,7,7,7,2,7,4,16,8,2,7,8,1,14,7,21,9,14,9,4,8,8,8,8,4,4,26,20,4,16,8,9,13,8,17,20,8,20,4,16,26,26,8,8,20,1,0,0,0,0,0,0,0,0,0,0,0,0,0,0,0,0,0,0,0,0,0,0,0,0,0,0,0,0,0,0,0,0,0,0,0,0,0,0,0,0,0,0,0,0,0,0,0,0,0,0,0,0,0,0,0,0,0,0,0,0,0,0,0,0],"split_type":[0,0,0,0,0,0,0,0,0,0,0,0,0,0,0,0,0,0,0,0,0,0,0,0,0,0,0,0,0,0,0,0,0,0,0,0,0,0,0,0,0,0,0,0,0,0,0,0,0,0,0,0,0,0,0,0,0,0,0,0,0,0,0,0,0,0,0,0,0,0,0,0,0,0,0,0,0,0,0,0,0,0,0,0,0,0,0,0,0,0,0,0,0,0,0,0,0,0,0,0,0,0,0,0,0,0,0,0,0,0,0,0,0,0,0,0,0,0,0,0,0,0,0,0,0,0,0],"sum_hessian":[3.56104E5,1.32149E5,2.23955E5,4.0303E4,9.1846E4,8.9302E4,1.34653E5,1.1304E4,2.8999E4,6.2259E4,2.9587E4,2.7528E4,6.1774E4,6.4531E4,7.0122E4,5.317E3,5.987E3,1.1211E4,1.7788E4,2.5756E4,3.6503E4,1.0884E4,1.8703E4,1.4023E4,1.3505E4,2.0066E4,4.1708E4,1.5947E4,4.8584E4,2.5497E4,4.4625E4,1.899E3,3.418E3,2.766E3,3.221E3,3.223E3,7.988E3,6.709E3,1.1079E4,9.668E3,1.6088E4,1.4259E4,2.2244E4,3.304E3,7.58E3,1.7587E4,1.116E3,3.29E3,1.0733E4,1.02E2,1.3403E4,1.2432E4,7.634E3,2.3599E4,1.8109E4,1.2925E4,3.022E3,2.8589E4,1.9995E4,1.5428E4,1.0069E4,1.4154E4,3.0471E4,5.37E2,1.362E3,1.265E3,2.153E3,6.67E2,2.099E3,1.924E3,1.297E3,2.341E3,8.82E2,2.753E3,5.235E3,2.084E3,4.625E3,7.913E3,3.166E3,1.229E3,8.439E3,7.891E3,8.197E3,4.422E3,9.837E3,7.712E3,1.4532E4,1.518E3,1.786E3,4.842E3,2.738E3,4.516E3,1.3071E4,2.44E2,8.72E2,1.042E3,2.248E3,3.395E3,7.338E3,1E1,9.2E1,4.75E3,8.653E3,1.66E2,1.2266E4,3.799E3,3.835E3,7.835E3,1.5764E4,5.258E3,1.2851E4,3.425E3,9.5E3,7.33E2,2.289E3,1.1845E4,1.6744E4,6.431E3,1.3564E4,5.021E3,1.0407E4,3.986E3,6.083E3,6.097E3,8.057E3,2.6119E4,4.352E3],"tree_param":{"num_deleted":"0","num_feature":"55","num_nodes":"127","size_leaf_vector":"1"}},{"base_weights":[-1.1680595E-5,-3.476683E-1,2.1578735E-1,-6.127659E-1,-1.9424947E-1,9.901133E-2,3.6278358E-1,-8.951596E-1,-4.908042E-1,-3.773018E-1,-2.2002036E-2,-3.033344E-2,1.9546932E-1,2.8500688E-1,4.2744341E-1,-1.0244515E0,-5.9865755E-1,-7.55079E-1,-3.4777892E-1,-5.272738E-1,-2.0525955E-1,2.2844912E-1,-7.234707E-2,-1.5830024E-1,1.1146194E-1,4.050904E-1,1.6178602E-1,2.240358E-1,3.974587E-1,3.8968346E-1,5.4539686E-1,-1.2242228E0,-9.045892E-1,-7.0965236E-1,-2.6937056E-1,-9.9192256E-1,-6.5221167E-1,-8.672689E-3,-4.0441027E-1,-6.9181085E-1,-3.6542153E-1,1.143517E-1,-2.5884598E-1,4.4888607E-1,1.4651264E-1,1.8448177E-1,-1.09597616E-1,-3.163274E-1,-7.304918E-2,3.889345E-1,8.3847106E-2,-7.2398436E-1,4.1557586E-1,7.022115E-2,2.3482053E-1,2.4610016E-1,-6.338783E-2,3.1868255E-1,4.4814995E-1,3.3652684E-1,4.4596183E-1,4.8097044E-1,6.2065583E-1,-8.9018986E-2,-6.814074E-2,-6.7140035E-2,-4.4440683E-2,-2.1673763E-2,-4.7056913E-2,-2.3215875E-2,-4.5882915E-3,-6.507543E-2,-4.158582E-2,-4.311858E-2,-1.8113397E-2,-8.536057E-3,9.959165E-3,-3.8628688E-3,-2.6856681E-2,-5.525102E-2,-3.5317197E-2,-6.587932E-3,-2.5427466E-2,9.813305E-3,-1.916264E-2,-2.1227E-2,-4.9554976E-3,-3.9511107E-2,2.727491E-2,-4.736155E-2,9.224086E-3,-5.0997842E-2,1.1774484E-2,-1.2747723E-2,-9.785345E-4,-2.6891341E-2,-1.1720427E-2,-1.1193622E-2,1.3672363E-3,2.94529E-2,-3.1457734E-3,1.3756456E-3,1.1604071E-2,-5.015081E-2,-6.7370227E-3,1.7272713E-2,2.8831756E-2,-3.6739279E-3,7.853403E-3,1.0155105E-2,1.6839122E-2,1.1471638E-2,1.8898094E-2,-1.0410205E-3,-2.3152206E-2,1.1612015E-2,2.3312066E-2,2.3559753E-2,3.1132137E-2,1.298273E-2,2.216795E-2,2.2244876E-2,2.892087E-2,1.953569E-2,3.16959E-2,4.000167E-2,2.9735278E-2],"categories":[],"categories_nodes":[],"categories_segments":[],"categories_sizes":[],"default_left":[0,0,0,0,0,0,0,0,0,0,0,0,0,0,0,0,0,0,0,0,0,0,0,0,0,0,0,0,0,0,0,0,0,0,0,0,0,0,0,0,0,0,0,0,0,0,0,0,0,0,0,0,0,0,0,0,0,0,0,0,0,0,0,0,0,0,0,0,0,0,0,0,0,0,0,0,0,0,0,0,0,0,0,0,0,0,0,0,0,0,0,0,0,0,0,0,0,0,0,0,0,0,0,0,0,0,0,0,0,0,0,0,0,0,0,0,0,0,0,0,0,0,0,0,0,0,0],"id":3,"left_children":[1,3,5,7,9,11,13,15,17,19,21,23,25,27,29,31,33,35,37,39,41,43,45,47,49,51,53,55,57,59,61,63,65,67,69,71,73,75,77,79,81,83,85,87,89,91,93,95,97,99,101,103,105,107,109,111,113,115,117,119,121,123,125,-1,-1,-1,-1,-1,-1,-1,-1,-1,-1,-1,-1,-1,-1,-1,-1,-1,-1,-1,-1,-1,-1,-1,-1,-1,-1,-1,-1,-1,-1,-1,-1,-1,-1,-1,-1,-1,-1,-1,-1,-1,-1,-1,-1,-1,-1,-1,-1,-1,-1,-1,-1,-1,-1,-1,-1,-1,-1,-1,-1,-1,-1,-1,-1],"loss_changes":[2.6698516E4,5.5416367E3,3.768169E3,1.7171152E3,2.7216814E3,1.5270371E3,4.8731543E2,5.729912E2,1.3166094E3,1.0783706E3,5.607773E2,9.485672E2,4.9388623E2,3.0140308E2,2.3419629E2,2.4434863E2,1.6540527E2,2.9392334E2,4.3436523E2,5.928677E2,3.3432275E2,1.3326083E2,3.544112E2,3.6953766E2,1.890968E2,1.15151855E2,4.0344934E2,1.8196912E2,6.0273926E1,1.1860156E2,5.9666504E1,6.648779E1,2.2636328E2,1.0164526E2,2.6951202E1,1.14220215E2,2.3299268E2,7.8709496E1,3.3799E2,2.4741553E2,1.8851758E2,6.417151E1,2.955476E2,3.2417175E1,5.1412888E1,7.532425E1,3.2109705E2,1.57008E2,2.014295E2,1.1076816E2,1.5402753E2,5.0581894E0,8.521619E1,2.2454878E2,1.061814E2,1.0107239E2,3.0040503E1,5.5914795E1,3.4355957E1,9.454053E1,5.8075195E1,5.734607E1,3.7092773E1,0E0,0E0,0E0,0E0,0E0,0E0,0E0,0E0,0E0,0E0,0E0,0E0,0E0,0E0,0E0,0E0,0E0,0E0,0E0,0E0,0E0,0E0,0E0,0E0,0E0,0E0,0E0,0E0,0E0,0E0,0E0,0E0,0E0,0E0,0E0,0E0,0E0,0E0,0E0,0E0,0E0,0E0,0E0,0E0,0E0,0E0,0E0,0E0,0E0,0E0,0E0,0E0,0E0,0E0,0E0,0E0,0E0,0E0,0E0,0E0,0E0,0E0,0E0,0E0],"parents":[2147483647,0,0,1,1,2,2,3,3,4,4,5,5,6,6,7,7,8,8,9,9,10,10,11,11,12,12,13,13,14,14,15,15,16,16,17,17,18,18,19,19,20,20,21,21,22,22,23,23,24,24,25,25,26,26,27,27,28,28,29,29,30,30,31,31,32,32,33,33,34,34,35,35,36,36,37,37,38,38,39,39,40,40,41,41,42,42,43,43,44,44,45,45,46,46,47,47,48,48,49,49,50,50,51,51,52,52,53,53,54,54,55,55,56,56,57,57,58,58,59,59,60,60,61,61,62,62],"right_children":[2,4,6,8,10,12,14,16,18,20,22,24,26,28,30,32,34,36,38,40,42,44,46,48,50,52,54,56,58,60,62,64,66,68,70,72,74,76,78,80,82,84,86,88,90,92,94,96,98,100,102,104,106,108,110,112,114,116,118,120,122,124,126,-1,-1,-1,-1,-1,-1,-1,-1,-1,-1,-1,-1,-1,-1,-1,-1,-1,-1,-1,-1,-1,-1,-1,-1,-1,-1,-1,-1,-1,-1,-1,-1,-1,-1,-1,-1,-1,-1,-1,-1,-1,-1,-1,-1,-1,-1,-1,-1,-1,-1,-1,-1,-1,-1,-1,-1,-1,-1,-1,-1,-1,-1,-1,-1],"split_conditions":[1.9227118E-4,6.2326166E-5,5.645346E-4,9E0,9E0,8E0,-1.6771543E0,5.7516265E-1,2.22076E-5,6.252714E-1,7.308801E-2,7.4628013E-1,9.0034135E-2,2.6837865E-1,2.5136137E-1,8E0,7.6928145E-1,8.788257E-6,4.895632E-2,8E0,8.5859664E-2,3.709221E-2,4.0748544E-2,7E0,8.310405E-2,7.9E2,6.5820825E-1,3.7431967E-1,7E0,9.691257E-4,8.5567033E-1,7E0,2.856962E-5,1.008442E-1,8.4543365E-1,1.2E1,1.2E1,2.83E3,2.8721621E-2,7E0,8.168194E-2,4.286368E-1,7.6414466E-1,2.01E3,1.01E3,1.86E3,1.1376699E-4,3.223144E-4,3.074895E-4,3.4134606E-1,8.5149866E-1,4.077828E-4,6.3652074E-1,9E0,3.4179023E-4,8E0,4.996692E-1,8.5567033E-1,3.5861167E-1,7E0,-1.2570167E0,7E0,2.2949402E-1,-8.9018986E-2,-6.814074E-2,-6.7140035E-2,-4.4440683E-2,-2.1673763E-2,-4.7056913E-2,-2.3215875E-2,-4.5882915E-3,-6.507543E-2,-4.158582E-2,-4.311858E-2,-1.8113397E-2,-8.536057E-3,9.959165E-3,-3.8628688E-3,-2.6856681E-2,-5.525102E-2,-3.5317197E-2,-6.587932E-3,-2.5427466E-2,9.813305E-3,-1.916264E-2,-2.1227E-2,-4.9554976E-3,-3.9511107E-2,2.727491E-2,-4.736155E-2,9.224086E-3,-5.0997842E-2,1.1774484E-2,-1.2747723E-2,-9.785345E-4,-2.6891341E-2,-1.1720427E-2,-1.1193622E-2,1.3672363E-3,2.94529E-2,-3.1457734E-3,1.3756456E-3,1.1604071E-2,-5.015081E-2,-6.7370227E-3,1.7272713E-2,2.8831756E-2,-3.6739279E-3,7.853403E-3,1.0155105E-2,1.6839122E-2,1.1471638E-2,1.8898094E-2,-1.0410205E-3,-2.3152206E-2,1.1612015E-2,2.3312066E-2,2.3559753E-2,3.1132137E-2,1.298273E-2,2.216795E-2,2.2244876E-2,2.892087E-2,1.953569E-2,3.16959E-2,4.000167E-2,2.9735278E-2],"split_indices":[19,19,19,9,9,9,2,20,19,20,4,20,4,5,5,9,20,19,4,9,4,4,5,9,4,17,20,7,9,19,20,9,19,4,20,9,9,18,5,9,4,7,20,17,17,17,19,19,19,7,20,19,20,9,19,9,23,20,5,9,2,9,4,0,0,0,0,0,0,0,0,0,0,0,0,0,0,0,0,0,0,0,0,0,0,0,0,0,0,0,0,0,0,0,0,0,0,0,0,0,0,0,0,0,0,0,0,0,0,0,0,0,0,0,0,0,0,0,0,0,0,0,0,0,0,0,0],"split_type":[0,0,0,0,0,0,0,0,0,0,0,0,0,0,0,0,0,0,0,0,0,0,0,0,0,0,0,0,0,0,0,0,0,0,0,0,0,0,0,0,0,0,0,0,0,0,0,0,0,0,0,0,0,0,0,0,0,0,0,0,0,0,0,0,0,0,0,0,0,0,0,0,0,0,0,0,0,0,0,0,0,0,0,0,0,0,0,0,0,0,0,0,0,0,0,0,0,0,0,0,0,0,0,0,0,0,0,0,0,0,0,0,0,0,0,0,0,0,0,0,0,0,0,0,0,0,0],"sum_hessian":[3.55858E5,1.36293E5,2.19565E5,4.9955E4,8.6338E4,1.22369E5,9.7196E4,1.5058E4,3.4897E4,4.185E4,4.4488E4,5.2267E4,7.0102E4,4.4141E4,5.3055E4,1.0477E4,4.581E3,1.2246E4,2.2651E4,2.2351E4,1.9499E4,7.439E3,3.7049E4,2.7479E4,2.4788E4,9.694E3,6.0408E4,2.8637E4,1.5504E4,4.0209E4,1.2846E4,3.914E3,6.563E3,3.42E3,1.161E3,3.696E3,8.55E3,3.246E3,1.9405E4,1.1074E4,1.1277E4,2.795E3,1.6704E4,2.007E3,5.432E3,4.686E3,3.2363E4,9.62E3,1.7859E4,2.235E3,2.2553E4,8.6E1,9.608E3,2.6816E4,3.3592E4,2.6601E4,2.036E3,6.091E3,9.413E3,2.0703E4,1.9506E4,6.944E3,5.902E3,7.28E2,3.186E3,2.545E3,4.018E3,7.15E2,2.705E3,6.96E2,4.65E2,2.64E3,1.056E3,6.936E3,1.614E3,1.843E3,1.403E3,2.567E3,1.6838E4,3.006E3,8.068E3,2.343E3,8.934E3,2.503E3,2.92E2,1.0557E4,6.147E3,2.2E1,1.985E3,5.3E1,5.379E3,6.4E1,4.622E3,1.5051E4,1.7312E4,4.373E3,5.247E3,8.068E3,9.791E3,1.789E3,4.46E2,1.4708E4,7.845E3,6.8E1,1.8E1,3.632E3,5.976E3,8.639E3,1.8177E4,1.5135E4,1.8457E4,1.5787E4,1.0814E4,1.795E3,2.41E2,2.376E3,3.715E3,5.909E3,3.504E3,5.302E3,1.5401E4,7.775E3,1.1731E4,1.935E3,5.009E3,3.904E3,1.998E3],"tree_param":{"num_deleted":"0","num_feature":"55","num_nodes":"127","size_leaf_vector":"1"}},{"base_weights":[-7.8616504E-5,-3.907066E-1,1.7134134E-1,-6.412569E-1,-2.6498905E-1,1.4106117E-2,2.9947758E-1,-8.3410764E-1,-4.6490997E-1,-4.7142965E-1,-9.985678E-2,-1.4772496E-1,1.11779824E-1,2.3591048E-1,3.956639E-1,-9.182186E-1,-5.61424E-1,-7.856937E-1,-3.5827345E-1,-6.127665E-1,-2.7991307E-1,1.6862197E-1,-1.4827757E-1,-2.4972102E-1,4.3941088E-2,3.5273778E-1,7.8310855E-2,9.751729E-2,2.8099138E-1,3.4391958E-1,4.7665527E-1,-1.2242696E0,-8.4853816E-1,-7.847423E-1,-4.58306E-1,-1.065775E0,-6.99615E-1,-9.996852E-2,-4.3282485E-1,-7.868724E-1,-4.5508116E-1,9.205335E-2,-3.258155E-1,5.0397754E-2,3.188347E-1,1.3683783E-1,-1.8290132E-1,-4.228944E-1,-1.6165948E-1,1.073658E-2,2.7754018E-1,2.402898E-1,4.6614143E-1,-3.5606879E-3,1.6134354E-1,-5.4489616E-2,1.8558186E-1,4.456026E-1,2.5254086E-1,2.9741213E-1,4.5707837E-1,4.3156278E-1,5.7189435E-1,-5.7277635E-2,-7.646511E-2,-6.627305E-2,-4.4482537E-2,-5.3792387E-2,-1.8127033E-2,-3.0903164E-2,-7.0935832E-3,-3.9545316E-2,-6.537867E-2,-1.8439652E-2,-4.5089006E-2,-1.578973E-2,4.366312E-3,-7.2985995E-3,-2.9296713E-2,-6.154288E-2,-4.1022006E-2,-1.2901908E-2,-3.1366315E-2,-1.2605574E-2,9.686172E-3,-2.410833E-2,-5.8723185E-3,1.0695293E-2,-5.9007416E-3,2.6690578E-2,1.3535268E-2,-5.6506176E-2,9.144154E-3,-1.7038684E-2,-5.2576675E-3,-9.190663E-3,-2.8482853E-2,4.5374287E-3,-1.2861977E-2,-4.505736E-3,5.487954E-3,2.9068587E-2,1.2197006E-2,-3.8360726E-2,1.5427064E-2,3.6156055E-2,2.4011241E-2,-5.0307787E-3,6.544626E-3,4.882618E-3,1.2888968E-2,-5.1818264E-4,-1.1974506E-2,8.894688E-3,2.261948E-2,3.455761E-2,2.1959947E-2,1.2543199E-2,1.9216394E-2,1.2940542E-2,2.0238925E-2,1.9662147E-2,2.8725889E-2,1.5910046E-2,2.6880512E-2,2.0290444E-2,3.497985E-2],"categories":[],"categories_nodes":[],"categories_segments":[],"categories_sizes":[],"default_left":[0,0,0,0,0,0,0,0,0,0,0,0,0,0,0,0,0,0,0,0,0,0,0,0,0,0,0,0,0,0,0,0,0,0,0,0,0,0,0,0,0,0,0,0,0,0,0,0,0,0,0,0,0,0,0,0,0,0,0,0,0,0,0,0,0,0,0,0,0,0,0,0,0,0,0,0,0,0,0,0,0,0,0,0,0,0,0,0,0,0,0,0,0,0,0,0,0,0,0,0,0,0,0,0,0,0,0,0,0,0,0,0,0,0,0,0,0,0,0,0,0,0,0,0,0,0,0],"id":4,"left_children":[1,3,5,7,9,11,13,15,17,19,21,23,25,27,29,31,33,35,37,39,41,43,45,47,49,51,53,55,57,59,61,63,65,67,69,71,73,75,77,79,81,83,85,87,89,91,93,95,97,99,101,103,105,107,109,111,113,115,117,119,121,123,125,-1,-1,-1,-1,-1,-1,-1,-1,-1,-1,-1,-1,-1,-1,-1,-1,-1,-1,-1,-1,-1,-1,-1,-1,-1,-1,-1,-1,-1,-1,-1,-1,-1,-1,-1,-1,-1,-1,-1,-1,-1,-1,-1,-1,-1,-1,-1,-1,-1,-1,-1,-1,-1,-1,-1,-1,-1,-1,-1,-1,-1,-1,-1,-1],"loss_changes":[2.3865389E4,3.422002E3,4.9899785E3,1.2317432E3,2.4667773E3,1.7581428E3,8.331377E2,3.9377148E2,6.4656104E2,8.6876953E2,5.2299774E2,8.1869025E2,5.586797E2,5.120571E2,2.257207E2,2.7606445E2,9.1352905E1,1.09031006E2,2.7347974E2,5.048921E2,2.3384827E2,1.0844469E2,3.3665277E2,4.1558997E2,1.1227167E2,1.0633984E2,4.1439825E2,2.707386E2,2.8882617E2,1.7283838E2,8.8476074E1,3.823755E1,2.7336816E2,7.603601E1,6.189209E1,1.4192871E1,8.9993774E1,9.404285E1,2.1925537E2,2.0002197E2,1.7609631E2,3.324923E1,2.28807E2,6.826599E1,3.087033E1,7.351342E1,3.0213464E2,1.4774707E2,2.4558984E2,9.162731E1,2.6010773E1,8.191345E1,3.3909485E1,2.878163E2,1.3587964E2,5.0017998E1,8.679962E1,9.149634E1,1.5318042E2,8.3266846E1,3.4574463E1,5.6002686E1,3.1733398E1,0E0,0E0,0E0,0E0,0E0,0E0,0E0,0E0,0E0,0E0,0E0,0E0,0E0,0E0,0E0,0E0,0E0,0E0,0E0,0E0,0E0,0E0,0E0,0E0,0E0,0E0,0E0,0E0,0E0,0E0,0E0,0E0,0E0,0E0,0E0,0E0,0E0,0E0,0E0,0E0,0E0,0E0,0E0,0E0,0E0,0E0,0E0,0E0,0E0,0E0,0E0,0E0,0E0,0E0,0E0,0E0,0E0,0E0,0E0,0E0,0E0,0E0,0E0,0E0],"parents":[2147483647,0,0,1,1,2,2,3,3,4,4,5,5,6,6,7,7,8,8,9,9,10,10,11,11,12,12,13,13,14,14,15,15,16,16,17,17,18,18,19,19,20,20,21,21,22,22,23,23,24,24,25,25,26,26,27,27,28,28,29,29,30,30,31,31,32,32,33,33,34,34,35,35,36,36,37,37,38,38,39,39,40,40,41,41,42,42,43,43,44,44,45,45,46,46,47,47,48,48,49,49,50,50,51,51,52,52,53,53,54,54,55,55,56,56,57,57,58,58,59,59,60,60,61,61,62,62],"right_children":[2,4,6,8,10,12,14,16,18,20,22,24,26,28,30,32,34,36,38,40,42,44,46,48,50,52,54,56,58,60,62,64,66,68,70,72,74,76,78,80,82,84,86,88,90,92,94,96,98,100,102,104,106,108,110,112,114,116,118,120,122,124,126,-1,-1,-1,-1,-1,-1,-1,-1,-1,-1,-1,-1,-1,-1,-1,-1,-1,-1,-1,-1,-1,-1,-1,-1,-1,-1,-1,-1,-1,-1,-1,-1,-1,-1,-1,-1,-1,-1,-1,-1,-1,-1,-1,-1,-1,-1,-1,-1,-1,-1,-1,-1,-1,-1,-1,-1,-1,-1,-1,-1,-1,-1,-1,-1],"split_conditions":[1.437489E-4,4.605612E-5,4.032485E-4,1E1,9E0,8E0,8.5451914E-4,5.6827694E-1,1.2487935E-5,6.1116874E-1,-2.6823518E0,7.6260334E-1,-2.4767153E0,7E0,2.0834163E-1,8E0,8E0,4.4188437E-6,-2.76613E0,8E0,-2.6823518E0,2.28E3,-3.3551476E0,7E0,-9.50715E-2,1.49E3,6.419393E-1,7.726163E-1,-2.101659E0,-9.0485424E-1,-1.2584438E0,-2.7955701E0,1.5806912E-5,8.081585E-1,7.6100576E-1,-4.0710363E0,-3.474902E0,2.79E3,-3.520963E0,7E0,-2.36527E0,7E0,7.858532E-1,8.645308E0,-3.5691867E0,2.28E3,8.6914064E-5,-2.202603E0,-2.1878796E0,7E0,-2.4375753E0,9.3E2,7.036592E0,1E1,9E0,7.230698E2,-3.6474958E-1,6.013772E0,9E0,7E0,8.960788E-2,4.004E3,2.556E3,-5.7277635E-2,-7.646511E-2,-6.627305E-2,-4.4482537E-2,-5.3792387E-2,-1.8127033E-2,-3.0903164E-2,-7.0935832E-3,-3.9545316E-2,-6.537867E-2,-1.8439652E-2,-4.5089006E-2,-1.578973E-2,4.366312E-3,-7.2985995E-3,-2.9296713E-2,-6.154288E-2,-4.1022006E-2,-1.2901908E-2,-3.1366315E-2,-1.2605574E-2,9.686172E-3,-2.410833E-2,-5.8723185E-3,1.0695293E-2,-5.9007416E-3,2.6690578E-2,1.3535268E-2,-5.6506176E-2,9.144154E-3,-1.7038684E-2,-5.2576675E-3,-9.190663E-3,-2.8482853E-2,4.5374287E-3,-1.2861977E-2,-4.505736E-3,5.487954E-3,2.9068587E-2,1.2197006E-2,-3.8360726E-2,1.5427064E-2,3.6156055E-2,2.4011241E-2,-5.0307787E-3,6.544626E-3,4.882618E-3,1.2888968E-2,-5.1818264E-4,-1.1974506E-2,8.894688E-3,2.261948E-2,3.455761E-2,2.1959947E-2,1.2543199E-2,1.9216394E-2,1.2940542E-2,2.0238925E-2,1.9662147E-2,2.8725889E-2,1.5910046E-2,2.6880512E-2,2.0290444E-2,3.497985E-2],"split_indices":[19,19,19,9,9,9,19,20,19,20,0,20,0,9,6,9,9,19,0,9,0,17,1,9,1,17,20,20,0,1,1,0,19,20,20,0,0,18,1,9,0,9,20,26,0,17,19,0,0,9,0,17,26,9,9,15,1,26,9,9,6,13,13,0,0,0,0,0,0,0,0,0,0,0,0,0,0,0,0,0,0,0,0,0,0,0,0,0,0,0,0,0,0,0,0,0,0,0,0,0,0,0,0,0,0,0,0,0,0,0,0,0,0,0,0,0,0,0,0,0,0,0,0,0,0,0,0],"split_type":[0,0,0,0,0,0,0,0,0,0,0,0,0,0,0,0,0,0,0,0,0,0,0,0,0,0,0,0,0,0,0,0,0,0,0,0,0,0,0,0,0,0,0,0,0,0,0,0,0,0,0,0,0,0,0,0,0,0,0,0,0,0,0,0,0,0,0,0,0,0,0,0,0,0,0,0,0,0,0,0,0,0,0,0,0,0,0,0,0,0,0,0,0,0,0,0,0,0,0,0,0,0,0,0,0,0,0,0,0,0,0,0,0,0,0,0,0,0,0,0,0,0,0,0,0,0,0],"sum_hessian":[3.56394E5,1.08699E5,2.47695E5,3.631E4,7.2389E4,1.11226E5,1.36469E5,1.7334E4,1.8976E4,3.2164E4,4.0225E4,4.1857E4,6.9369E4,8.2183E4,5.4286E4,1.3238E4,4.096E3,4.726E3,1.425E4,1.8498E4,1.3666E4,6.14E3,3.4085E4,2.7324E4,1.4533E4,8.451E3,6.0918E4,2.0204E4,6.1979E4,3.3145E4,2.1141E4,2.442E3,1.0796E4,1.283E3,2.813E3,1.099E3,3.627E3,3.198E3,1.1052E4,8.781E3,9.717E3,1.497E3,1.2169E4,3.444E3,2.696E3,3.685E3,3.04E4,9.201E3,1.8123E4,1.2733E4,1.8E3,4.255E3,4.196E3,3.0665E4,3.0253E4,7.405E3,1.2799E4,9.119E3,5.286E4,2.3508E4,9.637E3,1.437E4,6.771E3,5.68E2,1.874E3,2.712E3,8.084E3,1.006E3,2.77E2,2.346E3,4.67E2,1.19E2,9.8E2,5.34E2,3.093E3,1.631E3,1.567E3,1.916E3,9.136E3,2.267E3,6.514E3,2.408E3,7.309E3,2.81E2,1.216E3,8.881E3,3.288E3,1.846E3,1.598E3,1.063E3,1.633E3,5.7E1,3.628E3,1.4222E4,1.6178E4,1.711E3,7.49E3,3.473E3,1.465E4,6.177E3,6.556E3,4.33E2,1.367E3,9.7E1,4.158E3,1.175E3,3.021E3,1.7902E4,1.2763E4,1.2807E4,1.7446E4,5.676E3,1.729E3,1.0911E4,1.888E3,3.089E3,6.03E3,3.4408E4,1.8452E4,8.782E3,1.4726E4,1.934E3,7.703E3,1.926E3,1.2444E4,6.07E2,6.164E3],"tree_param":{"num_deleted":"0","num_feature":"55","num_nodes":"127","size_leaf_vector":"1"}},{"base_weights":[-8.500183E-4,-3.3346167E-1,1.561223E-1,-5.375261E-1,-1.6714197E-1,-7.4436784E-2,2.1563761E-1,-3.9215565E-1,-7.1783644E-1,-3.5457554E-1,-4.4651482E-2,8.804586E-2,-2.0660722E-1,8.532811E-2,3.085444E-1,-6.211303E-1,-2.2133677E-1,-9.145112E-1,-5.5042505E-1,-6.500228E-1,-2.5326958E-1,-3.1238213E-1,4.3613262E-2,2.2533074E-1,2.4018E-2,-4.5070913E-1,-9.3911335E-2,1.8952343E-1,-4.0322556E-3,2.1221149E-1,3.874768E-1,-7.618068E-1,-4.7851932E-1,-3.1332472E-1,-4.8366297E-2,-1.00815E0,-6.678592E-1,-6.6217476E-1,-2.6567483E-1,-8.213664E-1,-5.1939684E-1,-4.02768E-1,-1.446059E-1,-5.665252E-1,-2.4716708E-1,-6.681268E-2,1.5202734E-1,3.983132E-1,1.8399075E-1,-2.002405E-1,9.64849E-2,-2.4696572E-1,-6.0006064E-1,9.030125E-2,-1.9938754E-1,9.4189405E-2,2.3889026E-1,-1.9311926E-1,1.0316407E-1,7.3879264E-2,2.9449064E-1,3.445153E-1,4.977241E-1,-3.6020584E-2,-5.2944016E-2,-2.2957014E-2,-4.138516E-2,-2.645275E-2,-1.36648575E-2,-5.3988226E-2,-2.0993298E-3,-7.46751E-2,-5.5798676E-2,-5.742806E-2,-3.3857636E-2,-3.2404765E-2,-5.2435044E-2,-2.4483621E-2,-8.246851E-3,-5.8325745E-2,-4.0127043E-2,-4.3474153E-2,-2.3401525E-2,-4.221236E-2,-2.0517206E-2,-2.5624856E-2,-5.3189634E-3,-4.028454E-2,-2.1864893E-2,-1.96328E-2,-3.3066915E-3,-4.7377344E-2,-3.088547E-3,-5.3689886E-2,9.4567295E-3,1.2822025E-2,2.4948645E-2,1.6567979E-2,7.282737E-3,3.196733E-3,-1.8432003E-2,1.8453257E-2,1.8895975E-3,-7.091863E-3,-2.2818921E-2,-3.0763175E-2,-5.095224E-2,-2.056579E-3,9.56758E-3,-6.9658137E-3,-2.285719E-2,1.2338097E-2,-1.6227099E-3,1.1955192E-2,2.1366024E-2,-1.9375231E-2,-6.593663E-3,1.4632888E-3,1.2720117E-2,-1.6836593E-3,8.394667E-3,2.2591917E-2,1.3723379E-2,2.1311812E-2,4.465529E-3,3.3642016E-2,2.5413483E-2],"categories":[],"categories_nodes":[],"categories_segments":[],"categories_sizes":[],"default_left":[0,0,0,0,0,0,0,0,0,0,0,0,0,0,0,0,0,0,0,0,0,0,0,0,0,0,0,0,0,0,0,0,0,0,0,0,0,0,0,0,0,0,0,0,0,0,0,0,0,0,0,0,0,0,0,0,0,0,0,0,0,0,0,0,0,0,0,0,0,0,0,0,0,0,0,0,0,0,0,0,0,0,0,0,0,0,0,0,0,0,0,0,0,0,0,0,0,0,0,0,0,0,0,0,0,0,0,0,0,0,0,0,0,0,0,0,0,0,0,0,0,0,0,0,0,0,0],"id":5,"left_children":[1,3,5,7,9,11,13,15,17,19,21,23,25,27,29,31,33,35,37,39,41,43,45,47,49,51,53,55,57,59,61,63,65,67,69,71,73,75,77,79,81,83,85,87,89,91,93,95,97,99,101,103,105,107,109,111,113,115,117,119,121,123,125,-1,-1,-1,-1,-1,-1,-1,-1,-1,-1,-1,-1,-1,-1,-1,-1,-1,-1,-1,-1,-1,-1,-1,-1,-1,-1,-1,-1,-1,-1,-1,-1,-1,-1,-1,-1,-1,-1,-1,-1,-1,-1,-1,-1,-1,-1,-1,-1,-1,-1,-1,-1,-1,-1,-1,-1,-1,-1,-1,-1,-1,-1,-1,-1],"loss_changes":[1.8604342E4,3.8762344E3,3.3219883E3,1.3420088E3,1.4446764E3,1.0667947E3,2.3287832E3,1.1095215E3,7.4982715E2,7.4261597E2,9.0039325E2,1.953684E2,7.525537E2,7.460886E2,8.528506E2,2.4038379E2,2.5841785E2,2.3824805E2,3.9180444E2,1.3864795E2,3.000138E2,1.5485455E2,3.4301132E2,4.944763E1,2.4692E2,2.613236E2,3.6451868E2,1.7347302E2,8.74075E2,5.752605E2,2.9049023E2,1.2156543E2,1.17581665E2,1.1589209E2,6.0916946E1,1.1325E2,7.8966675E1,2.2317358E2,6.484337E1,6.007849E1,9.381976E1,1.307356E2,1.6847108E2,4.1634705E1,1.2318988E2,1.4887517E2,1.3022565E2,4.87619E0,3.2850815E1,1.06804596E2,1.5992645E2,6.421918E1,9.9172485E1,6.1844746E1,1.8162863E2,1.7762299E2,1.0723572E2,1.7122833E2,2.4261594E2,1.3299701E2,1.7249292E2,2.0575195E2,8.1813965E1,0E0,0E0,0E0,0E0,0E0,0E0,0E0,0E0,0E0,0E0,0E0,0E0,0E0,0E0,0E0,0E0,0E0,0E0,0E0,0E0,0E0,0E0,0E0,0E0,0E0,0E0,0E0,0E0,0E0,0E0,0E0,0E0,0E0,0E0,0E0,0E0,0E0,0E0,0E0,0E0,0E0,0E0,0E0,0E0,0E0,0E0,0E0,0E0,0E0,0E0,0E0,0E0,0E0,0E0,0E0,0E0,0E0,0E0,0E0,0E0,0E0,0E0,0E0,0E0],"parents":[2147483647,0,0,1,1,2,2,3,3,4,4,5,5,6,6,7,7,8,8,9,9,10,10,11,11,12,12,13,13,14,14,15,15,16,16,17,17,18,18,19,19,20,20,21,21,22,22,23,23,24,24,25,25,26,26,27,27,28,28,29,29,30,30,31,31,32,32,33,33,34,34,35,35,36,36,37,37,38,38,39,39,40,40,41,41,42,42,43,43,44,44,45,45,46,46,47,47,48,48,49,49,50,50,51,51,52,52,53,53,54,54,55,55,56,56,57,57,58,58,59,59,60,60,61,61,62,62],"right_children":[2,4,6,8,10,12,14,16,18,20,22,24,26,28,30,32,34,36,38,40,42,44,46,48,50,52,54,56,58,60,62,64,66,68,70,72,74,76,78,80,82,84,86,88,90,92,94,96,98,100,102,104,106,108,110,112,114,116,118,120,122,124,126,-1,-1,-1,-1,-1,-1,-1,-1,-1,-1,-1,-1,-1,-1,-1,-1,-1,-1,-1,-1,-1,-1,-1,-1,-1,-1,-1,-1,-1,-1,-1,-1,-1,-1,-1,-1,-1,-1,-1,-1,-1,-1,-1,-1,-1,-1,-1,-1,-1,-1,-1,-1,-1,-1,-1,-1,-1,-1,-1,-1,-1,-1,-1,-1],"split_conditions":[6.0701686E-1,-2.6159396E0,-2.9949207E0,8.681064E0,9E0,5.926486E0,-2.093058E0,9E0,1E1,4.7546047E-1,4.3502688E-1,4.668792E0,8E0,5.8057947E0,7.576626E-1,8E0,-1.743439E0,-1.8001634E0,-1.9212565E0,8E0,-2.4332356E0,3.2578927E-1,-2.3595018E0,-9.4129705E-1,7E0,-1.3211758E0,-1.3821994E0,7E0,8E0,8E0,2.5346425E-1,8.259309E2,1.39E3,1E1,1.1E3,8E0,8E0,1.03711E1,-3.6162426E0,-2.637783E0,3.9848608E-1,7E0,7E0,1.1E1,1.1E1,9.5E1,1.1E2,-2.140654E0,3.8991275E0,-1.1982173E0,-1.2261009E0,6.774739E0,7.016718E0,9E0,7.11487E0,4.767729E0,3.2670826E-1,7E0,1.9994676E-1,6.856517E-1,-1.7522848E0,-5.595465E-1,-1.6388057E0,-3.6020584E-2,-5.2944016E-2,-2.2957014E-2,-4.138516E-2,-2.645275E-2,-1.36648575E-2,-5.3988226E-2,-2.0993298E-3,-7.46751E-2,-5.5798676E-2,-5.742806E-2,-3.3857636E-2,-3.2404765E-2,-5.2435044E-2,-2.4483621E-2,-8.246851E-3,-5.8325745E-2,-4.0127043E-2,-4.3474153E-2,-2.3401525E-2,-4.221236E-2,-2.0517206E-2,-2.5624856E-2,-5.3189634E-3,-4.028454E-2,-2.1864893E-2,-1.96328E-2,-3.3066915E-3,-4.7377344E-2,-3.088547E-3,-5.3689886E-2,9.4567295E-3,1.2822025E-2,2.4948645E-2,1.6567979E-2,7.282737E-3,3.196733E-3,-1.8432003E-2,1.8453257E-2,1.8895975E-3,-7.091863E-3,-2.2818921E-2,-3.0763175E-2,-5.095224E-2,-2.056579E-3,9.56758E-3,-6.9658137E-3,-2.285719E-2,1.2338097E-2,-1.6227099E-3,1.1955192E-2,2.1366024E-2,-1.9375231E-2,-6.593663E-3,1.4632888E-3,1.2720117E-2,-1.6836593E-3,8.394667E-3,2.2591917E-2,1.3723379E-2,2.1311812E-2,4.465529E-3,3.3642016E-2,2.5413483E-2],"split_indices":[20,3,3,26,8,26,2,8,8,20,20,26,9,26,20,9,2,2,2,8,2,20,2,0,8,0,0,8,9,8,5,15,14,9,17,8,8,26,3,2,20,8,8,8,8,16,16,2,26,0,0,26,26,8,26,26,5,9,5,20,0,3,0,0,0,0,0,0,0,0,0,0,0,0,0,0,0,0,0,0,0,0,0,0,0,0,0,0,0,0,0,0,0,0,0,0,0,0,0,0,0,0,0,0,0,0,0,0,0,0,0,0,0,0,0,0,0,0,0,0,0,0,0,0,0,0,0],"split_type":[0,0,0,0,0,0,0,0,0,0,0,0,0,0,0,0,0,0,0,0,0,0,0,0,0,0,0,0,0,0,0,0,0,0,0,0,0,0,0,0,0,0,0,0,0,0,0,0,0,0,0,0,0,0,0,0,0,0,0,0,0,0,0,0,0,0,0,0,0,0,0,0,0,0,0,0,0,0,0,0,0,0,0,0,0,0,0,0,0,0,0,0,0,0,0,0,0,0,0,0,0,0,0,0,0,0,0,0,0,0,0,0,0,0,0,0,0,0,0,0,0,0,0,0,0,0,0],"sum_hessian":[3.5632E5,1.14247E5,2.42073E5,5.1295E4,6.2952E4,4.9661E4,1.92412E5,2.8409E4,2.2886E4,2.4873E4,3.8079E4,2.2271E4,2.739E4,8.0095E4,1.12317E5,1.2131E4,1.6278E4,1.0513E4,1.2373E4,6.343E3,1.853E4,9.444E3,2.8635E4,7.073E3,1.5198E4,8.644E3,1.8746E4,3.6985E4,4.311E4,5.0597E4,6.172E4,6.095E3,6.036E3,1.0619E4,5.659E3,7.609E3,2.904E3,8.879E3,3.494E3,2.732E3,3.611E3,7.79E3,1.074E4,1.919E3,7.525E3,1.4179E4,1.4456E4,1.352E3,5.721E3,3.705E3,1.1493E4,3.664E3,4.98E3,6.82E3,1.1926E4,1.2632E4,2.4353E4,1.5602E4,2.7508E4,1.888E4,3.1717E4,4.4432E4,1.7288E4,2.92E3,3.175E3,4.334E3,1.702E3,3.966E3,6.653E3,7.7E1,5.582E3,1.429E3,6.18E3,6.65E2,2.239E3,5.965E3,2.914E3,1.584E3,1.91E3,1.226E3,1.506E3,1.284E3,2.327E3,1.142E3,6.648E3,1.684E3,9.056E3,1.189E3,7.3E2,5.179E3,2.346E3,2.66E2,1.3913E4,1.11E2,1.4345E4,1.77E2,1.175E3,2.176E3,3.545E3,1.133E3,2.572E3,2.624E3,8.869E3,1.936E3,1.728E3,3.861E3,1.119E3,2.485E3,4.335E3,8.349E3,3.577E3,6.494E3,6.138E3,1.8893E4,5.46E3,5.826E3,9.776E3,1.6245E4,1.1263E4,7.565E3,1.1315E4,1.294E4,1.8777E4,4.1738E4,2.694E3,8.18E3,9.108E3],"tree_param":{"num_deleted":"0","num_feature":"55","num_nodes":"127","size_leaf_vector":"1"}},{"base_weights":[-1.273898E-4,-2.910891E-1,1.8359198E-1,-5.1344246E-1,-1.5823975E-1,7.6905616E-2,2.968889E-1,-6.6916597E-1,-3.4715635E-1,-4.112905E-1,-6.569908E-2,-3.6359284E-2,1.5917364E-1,2.3678493E-1,3.6559203E-1,-9.2016745E-1,-5.8274037E-1,-6.2794065E-1,-2.3636594E-1,-5.27951E-1,-1.915455E-1,1.6621576E-1,-1.10125214E-1,-1.6037582E-1,6.414364E-2,3.2137212E-1,1.2351138E-1,1.8240514E-1,3.3062658E-1,2.9510948E-1,4.1678676E-1,-6.718858E-1,-9.798039E-1,-8.0671066E-1,-4.9648514E-1,-9.71326E-1,-5.640307E-1,-3.2763863E-1,-8.45087E-2,-2.19142E-1,-5.893338E-1,-2.614994E-1,2.8874776E-3,8.506849E-3,2.6950184E-1,-1.9549827E-1,6.0954466E-3,6.565249E-2,-2.0869341E-1,2.6174524E-1,2.782046E-2,-7.0491767E-1,3.30601E-1,3.363325E-2,1.803671E-1,2.0696604E-1,-3.4158505E-3,2.883116E-1,4.103643E-1,1.3095854E-1,3.337523E-1,3.06895E-1,4.4718572E-1,-4.860585E-2,-2.4176087E-2,-6.0217537E-2,-3.296704E-2,-5.349067E-2,-2.1534847E-2,-1.4396052E-2,-3.3096164E-2,-6.163299E-2,-4.358794E-2,-1.15745105E-2,-3.741748E-2,-2.2972012E-2,-7.7434243E-3,-1.3314251E-2,5.088598E-4,-2.6189093E-2,-7.936938E-3,-4.7205295E-2,-2.982013E-2,-2.6015434E-2,-9.613067E-3,1.667755E-3,-5.5564158E-2,-5.338981E-2,1.489349E-3,2.7589358E-2,1.2814852E-2,-1.6523078E-2,-1.8021998E-3,1.306361E-2,-1.6546074E-3,1.1448579E-2,-4.561814E-4,-2.0096686E-2,-8.217417E-3,1.8985825E-2,-1.4280129E-2,-2.5113332E-3,7.479311E-3,-5.3858493E-2,-8.662064E-3,2.8031873E-2,1.6735079E-2,-4.4619016E-2,2.7167196E-3,8.512488E-3,1.6091242E-2,8.953381E-3,1.585898E-2,2.687055E-3,-1.5501207E-2,1.1720585E-2,1.976197E-2,1.9652342E-2,2.7139869E-2,2.4139674E-3,1.2296077E-2,2.472196E-2,1.712659E-2,1.53033445E-2,2.2559691E-2,2.4791306E-2,3.4016483E-2],"categories":[],"categories_nodes":[],"categories_segments":[],"categories_sizes":[],"default_left":[0,0,0,0,0,0,0,0,0,0,0,0,0,0,0,0,0,0,0,0,0,0,0,0,0,0,0,0,0,0,0,0,0,0,0,0,0,0,0,0,0,0,0,0,0,0,0,0,0,0,0,0,0,0,0,0,0,0,0,0,0,0,0,0,0,0,0,0,0,0,0,0,0,0,0,0,0,0,0,0,0,0,0,0,0,0,0,0,0,0,0,0,0,0,0,0,0,0,0,0,0,0,0,0,0,0,0,0,0,0,0,0,0,0,0,0,0,0,0,0,0,0,0,0,0,0,0],"id":6,"left_children":[1,3,5,7,9,11,13,15,17,19,21,23,25,27,29,31,33,35,37,39,41,43,45,47,49,51,53,55,57,59,61,63,65,67,69,71,73,75,77,79,81,83,85,87,89,91,93,95,97,99,101,103,105,107,109,111,113,115,117,119,121,123,125,-1,-1,-1,-1,-1,-1,-1,-1,-1,-1,-1,-1,-1,-1,-1,-1,-1,-1,-1,-1,-1,-1,-1,-1,-1,-1,-1,-1,-1,-1,-1,-1,-1,-1,-1,-1,-1,-1,-1,-1,-1,-1,-1,-1,-1,-1,-1,-1,-1,-1,-1,-1,-1,-1,-1,-1,-1,-1,-1,-1,-1,-1,-1,-1],"loss_changes":[1.9027785E4,4.0683613E3,2.6365566E3,1.331832E3,2.0189504E3,1.0473892E3,4.3568066E2,5.730283E2,7.7360645E2,5.9049316E2,6.5074304E2,5.894448E2,3.7576746E2,2.8709082E2,1.7657812E2,9.618262E1,3.7921777E2,1.5060474E2,2.4711652E2,2.841123E2,1.0946146E2,1.6487442E2,5.2634955E2,2.3148071E2,1.8690622E2,1.1110474E2,2.7243665E2,1.6353748E2,6.836792E1,1.3098486E2,9.38208E1,5.0415833E1,9.358887E1,2.4278882E2,2.3412646E2,1.3961548E1,1.5406909E2,1.3555957E2,8.8999344E1,4.663086E1,2.1820068E2,1.0333591E2,4.9543137E1,6.043382E1,6.1892456E1,4.2808313E2,1.6584311E2,3.5495792E1,1.5902826E2,1.23954285E2,1.5430087E2,1.002906E1,7.689807E1,2.0346796E2,1.079762E2,1.073363E2,5.3496857E1,5.6041748E1,2.5942627E1,2.7385803E1,6.0646484E1,2.0932251E1,7.432715E1,0E0,0E0,0E0,0E0,0E0,0E0,0E0,0E0,0E0,0E0,0E0,0E0,0E0,0E0,0E0,0E0,0E0,0E0,0E0,0E0,0E0,0E0,0E0,0E0,0E0,0E0,0E0,0E0,0E0,0E0,0E0,0E0,0E0,0E0,0E0,0E0,0E0,0E0,0E0,0E0,0E0,0E0,0E0,0E0,0E0,0E0,0E0,0E0,0E0,0E0,0E0,0E0,0E0,0E0,0E0,0E0,0E0,0E0,0E0,0E0,0E0,0E0,0E0,0E0],"parents":[2147483647,0,0,1,1,2,2,3,3,4,4,5,5,6,6,7,7,8,8,9,9,10,10,11,11,12,12,13,13,14,14,15,15,16,16,17,17,18,18,19,19,20,20,21,21,22,22,23,23,24,24,25,25,26,26,27,27,28,28,29,29,30,30,31,31,32,32,33,33,34,34,35,35,36,36,37,37,38,38,39,39,40,40,41,41,42,42,43,43,44,44,45,45,46,46,47,47,48,48,49,49,50,50,51,51,52,52,53,53,54,54,55,55,56,56,57,57,58,58,59,59,60,60,61,61,62,62],"right_children":[2,4,6,8,10,12,14,16,18,20,22,24,26,28,30,32,34,36,38,40,42,44,46,48,50,52,54,56,58,60,62,64,66,68,70,72,74,76,78,80,82,84,86,88,90,92,94,96,98,100,102,104,106,108,110,112,114,116,118,120,122,124,126,-1,-1,-1,-1,-1,-1,-1,-1,-1,-1,-1,-1,-1,-1,-1,-1,-1,-1,-1,-1,-1,-1,-1,-1,-1,-1,-1,-1,-1,-1,-1,-1,-1,-1,-1,-1,-1,-1,-1,-1,-1,-1,-1,-1,-1,-1,-1,-1,-1,-1,-1,-1,-1,-1,-1,-1,-1,-1,-1,-1,-1,-1,-1,-1],"split_conditions":[1.9484473E-4,6.402324E-5,5.236671E-4,1E1,8E0,8E0,-1.5523362E0,2.3782755E-5,1.7437946E-5,6.9873E-1,-2.5401943E0,7.185397E-1,-2.1727812E0,-1.0485305E0,8.012051E-1,-3.094046E0,8E0,4.4188437E-6,-2.573869E0,-2.4972644E0,8.3949244E-1,1.49E3,1E1,-2.202603E0,-2.0199032E0,7E2,6.436947E-1,-6.9302315E-1,-5.3241265E-1,7E0,6.701E3,3.8633063E-1,6.8045217E-1,7.16886E-1,-2.632151E0,-2.931304E0,-3.3208904E0,5.539389E-1,4.044736E-1,5.0538284E-1,7E0,7E0,-3.7519404E-1,1E3,-3.5691867E0,6.419393E-1,-3.1019638E0,-2.6570868E0,7E0,-2.8741524E-1,8.262728E-1,9.4314165E-2,-2.8594608E0,1.3E2,1E1,1.1875E3,2.2498991E-2,7E0,-2.258561E0,-2.0425386E0,-1.7740707E0,-1.2668988E0,-8.1261504E-1,-4.860585E-2,-2.4176087E-2,-6.0217537E-2,-3.296704E-2,-5.349067E-2,-2.1534847E-2,-1.4396052E-2,-3.3096164E-2,-6.163299E-2,-4.358794E-2,-1.15745105E-2,-3.741748E-2,-2.2972012E-2,-7.7434243E-3,-1.3314251E-2,5.088598E-4,-2.6189093E-2,-7.936938E-3,-4.7205295E-2,-2.982013E-2,-2.6015434E-2,-9.613067E-3,1.667755E-3,-5.5564158E-2,-5.338981E-2,1.489349E-3,2.7589358E-2,1.2814852E-2,-1.6523078E-2,-1.8021998E-3,1.306361E-2,-1.6546074E-3,1.1448579E-2,-4.561814E-4,-2.0096686E-2,-8.217417E-3,1.8985825E-2,-1.4280129E-2,-2.5113332E-3,7.479311E-3,-5.3858493E-2,-8.662064E-3,2.8031873E-2,1.6735079E-2,-4.4619016E-2,2.7167196E-3,8.512488E-3,1.6091242E-2,8.953381E-3,1.585898E-2,2.687055E-3,-1.5501207E-2,1.1720585E-2,1.976197E-2,1.9652342E-2,2.7139869E-2,2.4139674E-3,1.2296077E-2,2.472196E-2,1.712659E-2,1.53033445E-2,2.2559691E-2,2.4791306E-2,3.4016483E-2],"split_indices":[19,19,19,8,8,8,2,19,19,20,0,20,0,1,20,0,8,19,3,0,20,18,8,0,0,17,20,3,1,8,13,20,20,20,0,3,0,20,20,20,9,8,3,17,0,20,1,0,8,3,20,22,0,16,8,14,27,9,2,3,0,1,1,0,0,0,0,0,0,0,0,0,0,0,0,0,0,0,0,0,0,0,0,0,0,0,0,0,0,0,0,0,0,0,0,0,0,0,0,0,0,0,0,0,0,0,0,0,0,0,0,0,0,0,0,0,0,0,0,0,0,0,0,0,0,0,0],"split_type":[0,0,0,0,0,0,0,0,0,0,0,0,0,0,0,0,0,0,0,0,0,0,0,0,0,0,0,0,0,0,0,0,0,0,0,0,0,0,0,0,0,0,0,0,0,0,0,0,0,0,0,0,0,0,0,0,0,0,0,0,0,0,0,0,0,0,0,0,0,0,0,0,0,0,0,0,0,0,0,0,0,0,0,0,0,0,0,0,0,0,0,0,0,0,0,0,0,0,0,0,0,0,0,0,0,0,0,0,0,0,0,0,0,0,0,0,0,0,0,0,0,0,0,0,0,0,0],"sum_hessian":[3.55948E5,1.37768E5,2.1818E5,5.1519E4,8.6249E4,1.12378E5,1.05802E5,2.6595E4,2.4924E4,2.3088E4,6.3161E4,4.7274E4,6.5104E4,5.6452E4,4.935E4,6.8E3,1.9795E4,7.044E3,1.788E4,1.5074E4,8.014E3,1.0147E4,5.3014E4,2.1168E4,2.6106E4,1.1722E4,5.3382E4,3.5757E4,2.0695E4,2.0785E4,2.8565E4,1.329E3,5.471E3,5.492E3,1.4303E4,1.095E3,5.949E3,1.1159E4,6.721E3,2.506E3,1.2568E4,5.899E3,2.115E3,4.023E3,6.124E3,3.057E4,2.2444E4,3.722E3,1.7446E4,4.044E3,2.2062E4,1.01E2,1.1621E4,2.0697E4,3.2685E4,3.159E4,4.167E3,1.3542E4,7.153E3,3.971E3,1.6814E4,6.208E3,2.2357E4,8.3E2,4.99E2,4.961E3,5.1E2,4.46E3,1.032E3,2.954E3,1.1349E4,8.14E2,2.81E2,9.71E2,4.978E3,8.459E3,2.7E3,2.673E3,4.048E3,6.74E2,1.832E3,3.525E3,9.043E3,2.073E3,3.826E3,2.064E3,5.1E1,6.8E1,3.955E3,1.257E3,4.867E3,2.0163E4,1.0407E4,3.075E3,1.9369E4,1.358E3,2.364E3,5.973E3,1.1473E4,3.614E3,4.3E2,1.2889E4,9.173E3,7E1,3.1E1,2.802E3,8.819E3,3.17E2,2.038E4,2.3596E4,9.089E3,1.6799E4,1.4791E4,3.502E3,6.65E2,4.698E3,8.844E3,2.857E3,4.296E3,1.853E3,2.118E3,5.585E3,1.1229E4,3.856E3,2.352E3,1.8623E4,3.734E3],"tree_param":{"num_deleted":"0","num_feature":"55","num_nodes":"127","size_leaf_vector":"1"}},{"base_weights":[-5.8045513E-5,-3.6862615E-1,1.2808137E-1,-5.997365E-1,-2.8225923E-1,-1.3128738E-2,2.4232352E-1,-7.82534E-1,-4.5434427E-1,-4.7975227E-1,-1.435015E-1,-1.66177E-1,7.1551695E-2,1.6383155E-1,3.0836293E-1,-8.305954E-1,-4.5829993E-1,-7.302633E-1,-3.7972966E-1,-5.6945986E-1,-2.495164E-1,6.42906E-2,-1.9732761E-1,-3.029723E-1,-4.7005743E-2,3.4288234E-1,4.6068937E-2,8.587232E-2,2.4049652E-1,3.280018E-1,1.1832131E-1,-5.763305E-1,-8.958813E-1,-5.3168947E-1,-6.2714025E-2,-8.363719E-1,-5.3788036E-1,-1.3966508E-2,-4.3041652E-1,-9.658778E-1,-5.17586E-1,-4.6572232E-1,-1.9234326E-1,-6.752066E-2,1.7642511E-1,-2.7811942E-1,-7.982849E-2,-1.15349844E-1,-3.661875E-1,2.8743607E-1,-7.388204E-2,2.773097E-1,5.1193637E-1,-2.686599E-2,1.14227995E-1,7.397529E-3,1.677486E-1,3.5303387E-1,2.0563175E-1,2.7398077E-1,3.809152E-1,-1.58049E-2,1.9088808E-1,-4.6818297E-2,-2.2763677E-2,-5.9376072E-2,-4.5678955E-2,-4.7227412E-2,-2.475808E-2,-9.358639E-3,2.0383181E-2,-5.1576123E-2,-2.3003587E-2,-4.4495393E-2,-2.2825522E-2,-9.071317E-3,8.977393E-3,-1.0253551E-2,-2.8972045E-2,-3.464239E-2,-6.003367E-2,-1.4049467E-2,-3.449138E-2,-3.7407167E-2,-5.331036E-3,-1.8034622E-2,-5.0907345E-3,-7.076978E-2,-3.2789872E-3,-2.239333E-2,1.1298512E-2,-2.551641E-2,-1.1639781E-2,-9.390111E-3,2.3050918E-3,-1.6414616E-2,-1.4278142E-3,-3.1314377E-2,-1.7092967E-2,2.1820651E-2,-7.255387E-3,-9.114493E-3,2.7622357E-3,-1.4184652E-2,1.7624427E-2,3.184966E-2,1.1947486E-2,-6.929847E-2,-1.0742454E-3,1.8411006E-3,1.0034545E-2,-6.1143897E-3,4.4841124E-3,1.1559629E-2,-5.9372983E-3,2.5338652E-2,1.63996E-2,7.705739E-3,1.4163548E-2,8.290298E-3,1.8312005E-2,2.7872017E-2,1.9511556E-2,-1.6697796E-2,7.203362E-4,1.9182416E-2,9.438391E-3],"categories":[],"categories_nodes":[],"categories_segments":[],"categories_sizes":[],"default_left":[0,0,0,0,0,0,0,0,0,0,0,0,0,0,0,0,0,0,0,0,0,0,0,0,0,0,0,0,0,0,0,0,0,0,0,0,0,0,0,0,0,0,0,0,0,0,0,0,0,0,0,0,0,0,0,0,0,0,0,0,0,0,0,0,0,0,0,0,0,0,0,0,0,0,0,0,0,0,0,0,0,0,0,0,0,0,0,0,0,0,0,0,0,0,0,0,0,0,0,0,0,0,0,0,0,0,0,0,0,0,0,0,0,0,0,0,0,0,0,0,0,0,0,0,0,0,0],"id":7,"left_children":[1,3,5,7,9,11,13,15,17,19,21,23,25,27,29,31,33,35,37,39,41,43,45,47,49,51,53,55,57,59,61,63,65,67,69,71,73,75,77,79,81,83,85,87,89,91,93,95,97,99,101,103,105,107,109,111,113,115,117,119,121,123,125,-1,-1,-1,-1,-1,-1,-1,-1,-1,-1,-1,-1,-1,-1,-1,-1,-1,-1,-1,-1,-1,-1,-1,-1,-1,-1,-1,-1,-1,-1,-1,-1,-1,-1,-1,-1,-1,-1,-1,-1,-1,-1,-1,-1,-1,-1,-1,-1,-1,-1,-1,-1,-1,-1,-1,-1,-1,-1,-1,-1,-1,-1,-1,-1],"loss_changes":[1.6823213E4,1.8323574E3,4.2642334E3,6.6120215E2,1.8322881E3,1.5320671E3,7.564697E2,1.6922461E2,2.8423608E2,5.683955E2,4.3987317E2,6.858854E2,5.2543555E2,3.9853198E2,2.9526318E2,1.5595312E2,4.0713226E1,5.6875732E1,2.0276575E2,4.0450732E2,9.4475555E1,1.196795E2,2.957821E2,2.3155298E2,2.0208961E2,7.066937E1,3.4597943E2,2.1254683E2,1.3094348E2,2.0415283E2,7.273448E1,7.9352905E1,9.817578E1,3.3454376E1,8.965563E0,3.0146729E1,3.214572E1,3.1356024E1,1.5046777E2,4.1837402E1,3.3155957E2,1.0114087E2,7.331525E1,4.7646378E1,3.7379456E1,2.2963098E2,1.207871E2,7.3144646E1,1.8244922E2,5.7484924E1,2.0377612E2,5.3815857E1,1.4618683E1,3.3126083E2,1.671896E2,1.2934808E2,1.2420923E2,4.4248413E1,6.629956E1,1.7419312E2,1.6459131E2,2.0019253E1,1.9048904E1,0E0,0E0,0E0,0E0,0E0,0E0,0E0,0E0,0E0,0E0,0E0,0E0,0E0,0E0,0E0,0E0,0E0,0E0,0E0,0E0,0E0,0E0,0E0,0E0,0E0,0E0,0E0,0E0,0E0,0E0,0E0,0E0,0E0,0E0,0E0,0E0,0E0,0E0,0E0,0E0,0E0,0E0,0E0,0E0,0E0,0E0,0E0,0E0,0E0,0E0,0E0,0E0,0E0,0E0,0E0,0E0,0E0,0E0,0E0,0E0,0E0,0E0,0E0,0E0],"parents":[2147483647,0,0,1,1,2,2,3,3,4,4,5,5,6,6,7,7,8,8,9,9,10,10,11,11,12,12,13,13,14,14,15,15,16,16,17,17,18,18,19,19,20,20,21,21,22,22,23,23,24,24,25,25,26,26,27,27,28,28,29,29,30,30,31,31,32,32,33,33,34,34,35,35,36,36,37,37,38,38,39,39,40,40,41,41,42,42,43,43,44,44,45,45,46,46,47,47,48,48,49,49,50,50,51,51,52,52,53,53,54,54,55,55,56,56,57,57,58,58,59,59,60,60,61,61,62,62],"right_children":[2,4,6,8,10,12,14,16,18,20,22,24,26,28,30,32,34,36,38,40,42,44,46,48,50,52,54,56,58,60,62,64,66,68,70,72,74,76,78,80,82,84,86,88,90,92,94,96,98,100,102,104,106,108,110,112,114,116,118,120,122,124,126,-1,-1,-1,-1,-1,-1,-1,-1,-1,-1,-1,-1,-1,-1,-1,-1,-1,-1,-1,-1,-1,-1,-1,-1,-1,-1,-1,-1,-1,-1,-1,-1,-1,-1,-1,-1,-1,-1,-1,-1,-1,-1,-1,-1,-1,-1,-1,-1,-1,-1,-1,-1,-1,-1,-1,-1,-1,-1,-1,-1,-1,-1,-1,-1],"split_conditions":[1.17877884E-4,3.3259912E-5,3.7109962E-4,1E1,9E0,8E0,6.6564657E-4,6.4010966E-1,8.788257E-6,6.597942E-1,7.308801E-2,6.856517E-1,6.239905E-2,8E0,-8.5187614E-1,4.7140215E-2,8.244434E-1,1.2E1,3.4861434E-2,7E0,7E0,1.87E3,5.4401547E-1,1.1026201E-1,6.239905E-2,2.03E3,6.233344E-1,7.726163E-1,1.3189243E-1,8.262728E-1,1.2E2,3.556966E-1,9E0,8E0,9E0,4.083486E-1,4.4188437E-6,3.63E3,-3.520963E0,6.0857084E-2,7.16548E-2,8.3949244E-1,-3.391616E0,3.2357655E-2,1.854E3,1E1,-2.8825734E0,5.634938E-1,7E0,-5.595465E-1,8.081585E-1,9.5E2,-5.595465E-1,1.1E2,9E0,7E0,-8.298372E-1,6.407066E0,7.7E2,7E0,2.3294781E-1,7E1,1.1297356E-1,-4.6818297E-2,-2.2763677E-2,-5.9376072E-2,-4.5678955E-2,-4.7227412E-2,-2.475808E-2,-9.358639E-3,2.0383181E-2,-5.1576123E-2,-2.3003587E-2,-4.4495393E-2,-2.2825522E-2,-9.071317E-3,8.977393E-3,-1.0253551E-2,-2.8972045E-2,-3.464239E-2,-6.003367E-2,-1.4049467E-2,-3.449138E-2,-3.7407167E-2,-5.331036E-3,-1.8034622E-2,-5.0907345E-3,-7.076978E-2,-3.2789872E-3,-2.239333E-2,1.1298512E-2,-2.551641E-2,-1.1639781E-2,-9.390111E-3,2.3050918E-3,-1.6414616E-2,-1.4278142E-3,-3.1314377E-2,-1.7092967E-2,2.1820651E-2,-7.255387E-3,-9.114493E-3,2.7622357E-3,-1.4184652E-2,1.7624427E-2,3.184966E-2,1.1947486E-2,-6.929847E-2,-1.0742454E-3,1.8411006E-3,1.0034545E-2,-6.1143897E-3,4.4841124E-3,1.1559629E-2,-5.9372983E-3,2.5338652E-2,1.63996E-2,7.705739E-3,1.4163548E-2,8.290298E-3,1.8312005E-2,2.7872017E-2,1.9511556E-2,-1.6697796E-2,7.203362E-4,1.9182416E-2,9.438391E-3],"split_indices":[19,19,19,8,8,9,19,20,19,20,4,20,4,8,3,4,20,9,4,9,8,18,20,4,4,18,20,20,4,20,16,20,8,8,8,23,19,18,1,4,4,20,3,22,13,9,3,20,9,3,20,18,3,16,9,8,3,26,18,8,4,16,4,0,0,0,0,0,0,0,0,0,0,0,0,0,0,0,0,0,0,0,0,0,0,0,0,0,0,0,0,0,0,0,0,0,0,0,0,0,0,0,0,0,0,0,0,0,0,0,0,0,0,0,0,0,0,0,0,0,0,0,0,0,0,0,0],"split_type":[0,0,0,0,0,0,0,0,0,0,0,0,0,0,0,0,0,0,0,0,0,0,0,0,0,0,0,0,0,0,0,0,0,0,0,0,0,0,0,0,0,0,0,0,0,0,0,0,0,0,0,0,0,0,0,0,0,0,0,0,0,0,0,0,0,0,0,0,0,0,0,0,0,0,0,0,0,0,0,0,0,0,0,0,0,0,0,0,0,0,0,0,0,0,0,0,0,0,0,0,0,0,0,0,0,0,0,0,0,0,0,0,0,0,0,0,0,0,0,0,0,0,0,0,0,0,0],"sum_hessian":[3.56198E5,9.1893E4,2.64305E5,2.4989E4,6.6904E4,1.18196E5,1.46109E5,1.106E4,1.3929E4,2.7601E4,3.9303E4,4.2108E4,7.6088E4,6.6776E4,7.9333E4,9.624E3,1.436E3,2.955E3,1.0974E4,1.9854E4,7.747E3,8.08E3,3.1223E4,1.9596E4,2.2512E4,6.524E3,6.9564E4,3.3122E4,3.3654E4,7.1893E4,7.44E3,1.977E3,7.647E3,1.207E3,2.29E2,1.893E3,1.062E3,1.34E3,9.634E3,2.288E3,1.7566E4,1.61E3,6.137E3,3.708E3,4.372E3,1.8491E4,1.2732E4,4.947E3,1.4649E4,1.668E3,2.0844E4,4.713E3,1.811E3,3.3594E4,3.597E4,1.6924E4,1.6198E4,7.943E3,2.5711E4,3.5598E4,3.6295E4,2.605E3,4.835E3,9.11E2,1.066E3,3.941E3,3.706E3,3.43E2,8.64E2,1.9E2,3.9E1,1.734E3,1.59E2,4.25E2,6.37E2,7.33E2,6.07E2,1.87E3,7.764E3,2.91E2,1.997E3,3.448E3,1.4118E4,1.105E3,5.05E2,2.948E3,3.189E3,3.4E1,3.674E3,1.13E2,4.259E3,6.308E3,1.2183E4,7.636E3,5.096E3,1.763E3,3.184E3,4.599E3,1.005E4,1.391E3,2.77E2,1.2493E4,8.351E3,1.87E2,4.526E3,1.65E3,1.61E2,2.46E2,3.3348E4,1.4528E4,2.1442E4,6.455E3,1.0469E4,1.465E4,1.548E3,3.888E3,4.055E3,8.186E3,1.7525E4,7.734E3,2.7864E4,1.268E4,2.3615E4,2.5E2,2.355E3,8.81E2,3.954E3],"tree_param":{"num_deleted":"0","num_feature":"55","num_nodes":"127","size_leaf_vector":"1"}},{"base_weights":[-1.989495E-4,-2.533635E-1,1.6776164E-1,-4.4454378E-1,-1.3007931E-1,7.8755565E-2,2.690201E-1,-5.833933E-1,-2.916839E-1,-3.5153607E-1,-4.607681E-2,1.7107133E-2,1.9448769E-1,2.1155722E-1,3.2624206E-1,-8.0804175E-1,-5.0545335E-1,-4.9076018E-1,-1.5927958E-1,-4.598929E-1,-1.9489548E-1,1.4142269E-1,-9.215091E-2,2.6483512E-1,-5.2224062E-3,3.601815E-1,1.6526361E-1,1.6421334E-1,3.0137783E-1,2.9119694E-1,4.06145E-1,-5.692861E-1,-8.63279E-1,-7.141946E-1,-4.2203316E-1,-7.618256E-1,-4.2413223E-1,8.064956E-2,-2.1741247E-1,-6.5246195E-1,-3.8477156E-1,-2.627769E-1,-4.2280942E-2,3.5437608E-1,8.388485E-2,-1.6566375E-1,1.1091522E-2,3.7949386E-1,1.380032E-1,-9.876117E-2,5.7626553E-2,4.554084E-1,2.9557896E-1,1.3947222E-1,2.672452E-1,1.8835329E-1,2.5620821E-3,2.565453E-1,3.7034237E-1,2.5075123E-1,3.5321772E-1,4.9690267E-1,3.5724238E-1,-2.6087351E-2,-4.8887394E-2,-2.9633617E-2,-5.3068034E-2,-4.655604E-2,-1.3519727E-2,-2.9288473E-2,-1.3887274E-2,-5.0738294E-2,-3.46928E-2,-1.7305039E-3,-2.78203E-2,1.2045683E-2,-4.2855474E-5,2.433992E-3,-1.5478064E-2,-1.4711527E-2,-4.1058484E-2,-6.678794E-3,-2.5575193E-2,-2.4975276E-2,-1.03165405E-2,-1.048687E-3,-4.767474E-2,2.7054608E-2,1.4627022E-2,-2.2886074E-4,1.1560584E-2,2.356528E-3,-1.2270215E-2,1.234822E-2,-1.1658727E-3,3.190595E-2,1.8128376E-2,1.9393513E-2,5.291524E-3,-1.4305935E-2,-3.0330108E-3,-2.8965296E-3,6.062065E-3,2.8999567E-2,1.6734762E-2,2.143613E-2,1.0467368E-2,7.026729E-3,1.628027E-2,2.5234358E-2,1.4148797E-2,1.6180588E-2,9.257623E-3,-1.0989645E-2,3.1378416E-3,1.3316864E-2,1.9593254E-2,1.426565E-2,2.3394406E-2,1.3019146E-2,1.928712E-2,1.7638918E-2,2.3251483E-2,2.464706E-2,3.256029E-2,1.5193379E-2,2.5139391E-2],"categories":[],"categories_nodes":[],"categories_segments":[],"categories_sizes":[],"default_left":[0,0,0,0,0,0,0,0,0,0,0,0,0,0,0,0,0,0,0,0,0,0,0,0,0,0,0,0,0,0,0,0,0,0,0,0,0,0,0,0,0,0,0,0,0,0,0,0,0,0,0,0,0,0,0,0,0,0,0,0,0,0,0,0,0,0,0,0,0,0,0,0,0,0,0,0,0,0,0,0,0,0,0,0,0,0,0,0,0,0,0,0,0,0,0,0,0,0,0,0,0,0,0,0,0,0,0,0,0,0,0,0,0,0,0,0,0,0,0,0,0,0,0,0,0,0,0],"id":8,"left_children":[1,3,5,7,9,11,13,15,17,19,21,23,25,27,29,31,33,35,37,39,41,43,45,47,49,51,53,55,57,59,61,63,65,67,69,71,73,75,77,79,81,83,85,87,89,91,93,95,97,99,101,103,105,107,109,111,113,115,117,119,121,123,125,-1,-1,-1,-1,-1,-1,-1,-1,-1,-1,-1,-1,-1,-1,-1,-1,-1,-1,-1,-1,-1,-1,-1,-1,-1,-1,-1,-1,-1,-1,-1,-1,-1,-1,-1,-1,-1,-1,-1,-1,-1,-1,-1,-1,-1,-1,-1,-1,-1,-1,-1,-1,-1,-1,-1,-1,-1,-1,-1,-1,-1,-1,-1,-1],"loss_changes":[1.5156804E4,3.3497295E3,1.9305796E3,1.1809355E3,1.6073608E3,8.133664E2,3.2850244E2,5.0788574E2,6.9822314E2,4.0206348E2,5.414227E2,4.1211737E2,1.9087146E2,2.1186255E2,1.3910645E2,9.532471E1,3.74958E2,1.8849097E2,2.2269443E2,2.0070679E2,1.0026132E2,1.5062376E2,3.8218835E2,8.859076E1,4.0141678E2,3.488611E1,8.787604E1,1.2760791E2,5.206006E1,8.63645E1,6.594531E1,4.3841034E1,7.9026855E1,2.2615625E2,2.1570508E2,3.2035645E1,1.6108228E2,3.1643856E1,1.5111902E2,6.854285E1,1.3460986E2,9.384686E1,5.5056164E1,2.7705475E1,9.637516E1,2.58211E2,1.2861931E2,3.568521E1,2.628075E1,1.8645786E2,1.9756773E2,1.3408264E1,2.755185E1,7.363141E1,2.8198486E1,7.595502E1,4.0773186E1,2.3172607E1,2.1989258E1,4.7142456E1,2.9258667E1,2.1150879E1,6.732568E1,0E0,0E0,0E0,0E0,0E0,0E0,0E0,0E0,0E0,0E0,0E0,0E0,0E0,0E0,0E0,0E0,0E0,0E0,0E0,0E0,0E0,0E0,0E0,0E0,0E0,0E0,0E0,0E0,0E0,0E0,0E0,0E0,0E0,0E0,0E0,0E0,0E0,0E0,0E0,0E0,0E0,0E0,0E0,0E0,0E0,0E0,0E0,0E0,0E0,0E0,0E0,0E0,0E0,0E0,0E0,0E0,0E0,0E0,0E0,0E0,0E0,0E0,0E0,0E0],"parents":[2147483647,0,0,1,1,2,2,3,3,4,4,5,5,6,6,7,7,8,8,9,9,10,10,11,11,12,12,13,13,14,14,15,15,16,16,17,17,18,18,19,19,20,20,21,21,22,22,23,23,24,24,25,25,26,26,27,27,28,28,29,29,30,30,31,31,32,32,33,33,34,34,35,35,36,36,37,37,38,38,39,39,40,40,41,41,42,42,43,43,44,44,45,45,46,46,47,47,48,48,49,49,50,50,51,51,52,52,53,53,54,54,55,55,56,56,57,57,58,58,59,59,60,60,61,61,62,62],"right_children":[2,4,6,8,10,12,14,16,18,20,22,24,26,28,30,32,34,36,38,40,42,44,46,48,50,52,54,56,58,60,62,64,66,68,70,72,74,76,78,80,82,84,86,88,90,92,94,96,98,100,102,104,106,108,110,112,114,116,118,120,122,124,126,-1,-1,-1,-1,-1,-1,-1,-1,-1,-1,-1,-1,-1,-1,-1,-1,-1,-1,-1,-1,-1,-1,-1,-1,-1,-1,-1,-1,-1,-1,-1,-1,-1,-1,-1,-1,-1,-1,-1,-1,-1,-1,-1,-1,-1,-1,-1,-1,-1,-1,-1,-1,-1,-1,-1,-1,-1,-1,-1,-1,-1,-1,-1,-1],"split_conditions":[2.0296048E-4,6.9137954E-5,5.5027806E-4,1E1,8E0,9E0,-1.6015445E0,2.5457635E-5,2.5457635E-5,3.8672397E-1,-2.3826742E0,-2.5401943E0,-2.28002E0,-1.0028644E0,-1.2294576E0,-3.094046E0,8E0,6.7379888E-6,-2.7097745E0,7E0,5.590728E-1,-3.2565508E0,1E1,6.8658104E0,3.1851715E-4,-2.7097745E0,-1.3574713E0,-7.283396E-1,1.338E3,1.29375E3,-1.8384808E0,1.09480505E1,8.398272E0,5.7497066E-1,1.7590418E-2,1.2E1,-3.474902E0,2.7014876E-2,-3.4310699E0,-2.7364395E0,-2.4972644E0,7E0,-9.5342517E-1,8.174845E0,1E1,-2.9576297E0,-3.1019638E0,-3.048303E0,-3.1963966E0,7E0,7E0,-9.5342517E-1,7.154213E0,-8.396285E-1,-2.9576297E0,4.38759E0,9E1,-4.6139082E-1,-2.637783E0,1.2607756E-3,-1.158627E0,1.0277778E3,1.0370761E-3,-2.6087351E-2,-4.8887394E-2,-2.9633617E-2,-5.3068034E-2,-4.655604E-2,-1.3519727E-2,-2.9288473E-2,-1.3887274E-2,-5.0738294E-2,-3.46928E-2,-1.7305039E-3,-2.78203E-2,1.2045683E-2,-4.2855474E-5,2.433992E-3,-1.5478064E-2,-1.4711527E-2,-4.1058484E-2,-6.678794E-3,-2.5575193E-2,-2.4975276E-2,-1.03165405E-2,-1.048687E-3,-4.767474E-2,2.7054608E-2,1.4627022E-2,-2.2886074E-4,1.1560584E-2,2.356528E-3,-1.2270215E-2,1.234822E-2,-1.1658727E-3,3.190595E-2,1.8128376E-2,1.9393513E-2,5.291524E-3,-1.4305935E-2,-3.0330108E-3,-2.8965296E-3,6.062065E-3,2.8999567E-2,1.6734762E-2,2.143613E-2,1.0467368E-2,7.026729E-3,1.628027E-2,2.5234358E-2,1.4148797E-2,1.6180588E-2,9.257623E-3,-1.0989645E-2,3.1378416E-3,1.3316864E-2,1.9593254E-2,1.426565E-2,2.3394406E-2,1.3019146E-2,1.928712E-2,1.7638918E-2,2.3251483E-2,2.464706E-2,3.256029E-2,1.5193379E-2,2.5139391E-2],"split_indices":[19,19,19,8,9,8,2,19,19,23,0,0,0,1,1,0,8,19,0,9,23,0,8,26,19,0,2,3,14,14,0,26,26,23,27,9,0,22,1,0,0,8,3,26,8,1,1,0,0,8,8,3,26,1,1,26,16,1,2,19,2,14,19,0,0,0,0,0,0,0,0,0,0,0,0,0,0,0,0,0,0,0,0,0,0,0,0,0,0,0,0,0,0,0,0,0,0,0,0,0,0,0,0,0,0,0,0,0,0,0,0,0,0,0,0,0,0,0,0,0,0,0,0,0,0,0,0],"split_type":[0,0,0,0,0,0,0,0,0,0,0,0,0,0,0,0,0,0,0,0,0,0,0,0,0,0,0,0,0,0,0,0,0,0,0,0,0,0,0,0,0,0,0,0,0,0,0,0,0,0,0,0,0,0,0,0,0,0,0,0,0,0,0,0,0,0,0,0,0,0,0,0,0,0,0,0,0,0,0,0,0,0,0,0,0,0,0,0,0,0,0,0,0,0,0,0,0,0,0,0,0,0,0,0,0,0,0,0,0,0,0,0,0,0,0,0,0,0,0,0,0,0,0,0,0,0,0],"sum_hessian":[3.5644E5,1.42165E5,2.14275E5,5.5727E4,8.6438E4,1.14048E5,1.00227E5,2.9192E4,2.6535E4,2.3763E4,6.2675E4,7.4422E4,3.9626E4,5.0029E4,5.0198E4,7.507E3,2.1685E4,1.0591E4,1.5944E4,1.4037E4,9.726E3,1.2355E4,5.032E4,6.157E3,6.8265E4,5.928E3,3.3698E4,3.2778E4,1.7251E4,3.4917E4,1.5281E4,1.422E3,6.085E3,6.18E3,1.5505E4,2.079E3,8.512E3,3.104E3,1.284E4,3.927E3,1.011E4,6.723E3,3.003E3,2.619E3,9.736E3,2.94E4,2.092E4,3.224E3,2.933E3,2.7444E4,4.0821E4,2.379E3,3.549E3,2.6914E4,6.784E3,2.851E4,4.268E3,1.0477E4,6.774E3,2.1159E4,1.3758E4,5.33E3,9.951E3,9.67E2,4.55E2,5.84E2,5.501E3,5.336E3,8.44E2,1.1036E4,4.469E3,1.306E3,7.73E2,9.3E2,7.582E3,1.237E3,1.867E3,1.91E3,1.093E4,3.97E2,3.53E3,1.564E3,8.546E3,2.357E3,4.366E3,2.915E3,8.8E1,1.304E3,1.315E3,5.46E3,4.276E3,5.043E3,2.4357E4,2.821E3,1.8099E4,9.76E2,2.248E3,5.8E2,2.353E3,6.767E3,2.0677E4,1.2145E4,2.8676E4,1.945E3,4.34E2,2.234E3,1.315E3,2.3472E4,3.442E3,9.6E2,5.824E3,7.545E3,2.0965E4,8.94E2,3.374E3,7.505E3,2.972E3,1.188E3,5.586E3,1.5272E4,5.887E3,6.023E3,7.735E3,2.239E3,3.091E3,4.114E3,5.837E3],"tree_param":{"num_deleted":"0","num_feature":"55","num_nodes":"127","size_leaf_vector":"1"}},{"base_weights":[-1.7061266E-4,-2.914202E-1,1.16024144E-1,-4.6013185E-1,-1.5135047E-1,-5.3797353E-2,1.7150378E-1,-5.796814E-1,-3.0421707E-1,-3.1647494E-1,-4.9365472E-2,-1.5391764E-1,1.0005192E-1,7.6955386E-2,2.6213098E-1,-7.764709E-1,-4.9070224E-1,-5.0486106E-1,-1.8927024E-1,-5.814533E-1,-2.4646743E-1,-2.9029563E-1,1.3194691E-2,-3.4419146E-1,-6.511049E-2,-5.725003E-2,1.474785E-1,1.3060112E-2,1.794946E-1,1.7180748E-1,3.1497535E-1,-8.9647657E-1,-6.4146453E-1,-6.667506E-1,-3.8885528E-1,-7.372364E-1,-4.3153572E-1,-3.772015E-1,-1.1888202E-1,-7.370086E-1,-4.709683E-1,-3.2432082E-1,-1.02460414E-1,-3.7378588E-1,-1.2106068E-1,-6.9098346E-2,1.20925546E-1,-5.3556937E-1,-2.5148538E-1,-1.9133076E-1,3.8130324E-2,-1.3388976E-1,8.395995E-2,1.1353846E-1,2.980645E-1,3.1369224E-2,-3.1757393E-1,9.908168E-2,2.3443103E-1,8.9718714E-2,2.8393424E-1,2.7603716E-1,3.974817E-1,-4.8738383E-2,-6.513284E-2,-5.0656397E-2,-3.37033E-2,-4.7950633E-2,-3.239059E-2,-3.4855124E-2,-1.8730838E-2,-5.2778505E-2,-3.6577243E-2,-3.303841E-2,-1.8883834E-2,-3.1370264E-2,-1.43776955E-2,-1.5055306E-2,-3.6533892E-3,-5.8108926E-2,-3.90631E-2,-2.0316528E-2,-3.7008274E-2,-3.449068E-2,-1.6525207E-2,-2.0595588E-2,-3.4362879E-3,-1.8892117E-2,-3.6390953E-2,-1.6201822E-2,-7.076476E-4,-5.9586125E-3,8.200248E-3,4.5923623E-3,1.453397E-2,-4.2203672E-2,-2.5272567E-2,-2.343615E-2,-1.0096872E-2,-1.7841233E-2,-7.1880394E-3,8.203858E-3,-1.3487219E-3,-2.1398602E-2,-3.5992134E-3,-3.4503726E-4,8.976083E-3,1.3817992E-4,8.971064E-3,1.437173E-2,2.4594236E-2,-2.6283034E-3,5.4986305E-3,-1.483886E-2,-4.339908E-2,-4.0083025E-3,1.0775004E-2,8.534326E-3,1.6677666E-2,-3.3190134E-3,7.5477017E-3,2.0597383E-2,1.3596827E-2,1.2042181E-2,1.8443767E-2,1.9911285E-2,2.7627094E-2],"categories":[],"categories_nodes":[],"categories_segments":[],"categories_sizes":[],"default_left":[0,0,0,0,0,0,0,0,0,0,0,0,0,0,0,0,0,0,0,0,0,0,0,0,0,0,0,0,0,0,0,0,0,0,0,0,0,0,0,0,0,0,0,0,0,0,0,0,0,0,0,0,0,0,0,0,0,0,0,0,0,0,0,0,0,0,0,0,0,0,0,0,0,0,0,0,0,0,0,0,0,0,0,0,0,0,0,0,0,0,0,0,0,0,0,0,0,0,0,0,0,0,0,0,0,0,0,0,0,0,0,0,0,0,0,0,0,0,0,0,0,0,0,0,0,0,0],"id":9,"left_children":[1,3,5,7,9,11,13,15,17,19,21,23,25,27,29,31,33,35,37,39,41,43,45,47,49,51,53,55,57,59,61,63,65,67,69,71,73,75,77,79,81,83,85,87,89,91,93,95,97,99,101,103,105,107,109,111,113,115,117,119,121,123,125,-1,-1,-1,-1,-1,-1,-1,-1,-1,-1,-1,-1,-1,-1,-1,-1,-1,-1,-1,-1,-1,-1,-1,-1,-1,-1,-1,-1,-1,-1,-1,-1,-1,-1,-1,-1,-1,-1,-1,-1,-1,-1,-1,-1,-1,-1,-1,-1,-1,-1,-1,-1,-1,-1,-1,-1,-1,-1,-1,-1,-1,-1,-1,-1],"loss_changes":[1.2053493E4,2.399165E3,2.3988694E3,8.5678613E2,9.3412634E2,9.657235E2,1.6437681E3,4.5329883E2,4.600055E2,3.912766E2,5.1781085E2,6.410773E2,1.8449799E2,6.151139E2,4.666997E2,1.2720264E2,3.1964404E2,1.2124365E2,1.6744699E2,7.303552E1,1.8721619E2,9.911731E1,2.4165567E2,2.1266052E2,3.378373E2,6.1992943E1,9.630673E1,3.4997644E2,1.5865564E2,3.3234253E2,1.9712744E2,5.608252E1,5.428076E1,1.096792E2,1.6177722E2,2.8026001E1,7.765259E1,6.994861E1,7.150453E1,2.9085754E1,4.9345276E1,1.2248523E2,6.3584385E1,5.9200684E1,3.8986153E1,1.0310042E2,6.324849E1,7.308057E1,9.440076E1,8.9372345E1,8.812866E1,6.1274345E1,1.25682535E1,6.66136E1,2.1138794E1,2.584581E2,8.134186E1,2.0551663E2,9.254553E1,1.1742854E2,5.2186157E1,1.1051001E2,8.2427734E1,0E0,0E0,0E0,0E0,0E0,0E0,0E0,0E0,0E0,0E0,0E0,0E0,0E0,0E0,0E0,0E0,0E0,0E0,0E0,0E0,0E0,0E0,0E0,0E0,0E0,0E0,0E0,0E0,0E0,0E0,0E0,0E0,0E0,0E0,0E0,0E0,0E0,0E0,0E0,0E0,0E0,0E0,0E0,0E0,0E0,0E0,0E0,0E0,0E0,0E0,0E0,0E0,0E0,0E0,0E0,0E0,0E0,0E0,0E0,0E0,0E0,0E0,0E0,0E0],"parents":[2147483647,0,0,1,1,2,2,3,3,4,4,5,5,6,6,7,7,8,8,9,9,10,10,11,11,12,12,13,13,14,14,15,15,16,16,17,17,18,18,19,19,20,20,21,21,22,22,23,23,24,24,25,25,26,26,27,27,28,28,29,29,30,30,31,31,32,32,33,33,34,34,35,35,36,36,37,37,38,38,39,39,40,40,41,41,42,42,43,43,44,44,45,45,46,46,47,47,48,48,49,49,50,50,51,51,52,52,53,53,54,54,55,55,56,56,57,57,58,58,59,59,60,60,61,61,62,62],"right_children":[2,4,6,8,10,12,14,16,18,20,22,24,26,28,30,32,34,36,38,40,42,44,46,48,50,52,54,56,58,60,62,64,66,68,70,72,74,76,78,80,82,84,86,88,90,92,94,96,98,100,102,104,106,108,110,112,114,116,118,120,122,124,126,-1,-1,-1,-1,-1,-1,-1,-1,-1,-1,-1,-1,-1,-1,-1,-1,-1,-1,-1,-1,-1,-1,-1,-1,-1,-1,-1,-1,-1,-1,-1,-1,-1,-1,-1,-1,-1,-1,-1,-1,-1,-1,-1,-1,-1,-1,-1,-1,-1,-1,-1,-1,-1,-1,-1,-1,-1,-1,-1,-1,-1,-1,-1,-1],"split_conditions":[5.881587E-1,-2.626787E0,-2.859105E0,1.11711375E-1,9E0,7.6928145E-1,1.2653697E-1,9E0,9E0,4.4805026E-1,4.0999737E-1,8E0,8.38785E-2,-1.199916E0,7.299762E-1,4.9615878E-1,3.9848608E-1,4.524029E-1,4.304608E-1,8E0,1.2059659E-1,1.1E1,9.632352E-2,9.718995E-2,1.2266757E-1,8.5567033E-1,-4.8378873E-1,-2.8741524E-1,7.3647994E-1,9E0,-1.2294576E0,1.43E3,2.3816157E-2,-3.373496E0,-3.6890645E0,-3.3055298E0,-3.207321E0,-3.391616E0,-3.6162426E0,7E0,1.1875E3,7E0,7E0,2.0188889E3,4.5231376E-2,1.2E1,1.1E1,2.6728386E-2,-3.4878259E0,-3.5707312E0,1.7862123E-1,7E0,2.7014876E-2,-3.6641407E0,8E0,8E0,5.694154E-1,8E0,7E0,7E0,1.4242259E-1,7E0,1.2E3,-4.8738383E-2,-6.513284E-2,-5.0656397E-2,-3.37033E-2,-4.7950633E-2,-3.239059E-2,-3.4855124E-2,-1.8730838E-2,-5.2778505E-2,-3.6577243E-2,-3.303841E-2,-1.8883834E-2,-3.1370264E-2,-1.43776955E-2,-1.5055306E-2,-3.6533892E-3,-5.8108926E-2,-3.90631E-2,-2.0316528E-2,-3.7008274E-2,-3.449068E-2,-1.6525207E-2,-2.0595588E-2,-3.4362879E-3,-1.8892117E-2,-3.6390953E-2,-1.6201822E-2,-7.076476E-4,-5.9586125E-3,8.200248E-3,4.5923623E-3,1.453397E-2,-4.2203672E-2,-2.5272567E-2,-2.343615E-2,-1.0096872E-2,-1.7841233E-2,-7.1880394E-3,8.203858E-3,-1.3487219E-3,-2.1398602E-2,-3.5992134E-3,-3.4503726E-4,8.976083E-3,1.3817992E-4,8.971064E-3,1.437173E-2,2.4594236E-2,-2.6283034E-3,5.4986305E-3,-1.483886E-2,-4.339908E-2,-4.0083025E-3,1.0775004E-2,8.534326E-3,1.6677666E-2,-3.3190134E-3,7.5477017E-3,2.0597383E-2,1.3596827E-2,1.2042181E-2,1.8443767E-2,1.9911285E-2,2.7627094E-2],"split_indices":[20,3,3,6,8,20,6,8,8,20,20,9,6,1,20,20,20,20,20,8,6,8,6,6,6,20,1,3,20,9,1,14,22,3,3,3,3,3,3,8,14,8,8,14,6,8,8,22,3,3,4,8,22,3,8,9,23,8,8,8,4,9,14,0,0,0,0,0,0,0,0,0,0,0,0,0,0,0,0,0,0,0,0,0,0,0,0,0,0,0,0,0,0,0,0,0,0,0,0,0,0,0,0,0,0,0,0,0,0,0,0,0,0,0,0,0,0,0,0,0,0,0,0,0,0,0,0],"split_type":[0,0,0,0,0,0,0,0,0,0,0,0,0,0,0,0,0,0,0,0,0,0,0,0,0,0,0,0,0,0,0,0,0,0,0,0,0,0,0,0,0,0,0,0,0,0,0,0,0,0,0,0,0,0,0,0,0,0,0,0,0,0,0,0,0,0,0,0,0,0,0,0,0,0,0,0,0,0,0,0,0,0,0,0,0,0,0,0,0,0,0,0,0,0,0,0,0,0,0,0,0,0,0,0,0,0,0,0,0,0,0,0,0,0,0,0,0,0,0,0,0,0,0,0,0,0,0],"sum_hessian":[3.56159E5,1.01572E5,2.54587E5,4.6067E4,5.5505E4,6.2684E4,1.91903E5,2.6064E4,2.0003E4,2.1184E4,3.4321E4,3.7979E4,2.4705E4,9.3931E4,9.7972E4,8.103E3,1.7961E4,7.277E3,1.2726E4,4.418E3,1.6766E4,7.078E3,2.7243E4,1.2077E4,2.5902E4,5.715E3,1.899E4,5.7882E4,3.6049E4,3.6178E4,6.1794E4,4.275E3,3.828E3,6.571E3,1.139E4,1.734E3,5.543E3,3.458E3,9.268E3,1.822E3,2.596E3,1.0873E4,5.893E3,4.731E3,2.347E3,1.5437E4,1.1806E4,3.931E3,8.146E3,1.166E4,1.4242E4,3.712E3,2.003E3,1.551E4,3.48E3,5.4852E4,3.03E3,1.4647E4,2.1402E4,2.0898E4,1.528E4,4.2003E4,1.9791E4,3.231E3,1.044E3,9.08E2,2.92E3,2.893E3,3.678E3,2.937E3,8.453E3,7.19E2,1.015E3,2.547E3,2.996E3,1.586E3,1.872E3,2.711E3,6.557E3,4.03E2,1.419E3,1.452E3,1.144E3,1.55E3,9.323E3,8.84E2,5.009E3,3.897E3,8.34E2,9.65E2,1.382E3,1.3386E4,2.051E3,8.814E3,2.992E3,1.445E3,2.486E3,2.869E3,5.277E3,4.455E3,7.205E3,5.368E3,8.874E3,8.86E2,2.826E3,8.57E2,1.146E3,4.021E3,1.1489E4,2.411E3,1.069E3,2.463E4,3.0222E4,2.627E3,4.03E2,4.887E3,9.76E3,7.556E3,1.3846E4,4.343E3,1.6555E4,6.806E3,8.474E3,1.4354E4,2.7649E4,1.0831E4,8.96E3],"tree_param":{"num_deleted":"0","num_feature":"55","num_nodes":"127","size_leaf_vector":"1"}},{"base_weights":[3.8049088E-4,-3.121635E-1,1.09164596E-1,-4.7185767E-1,-2.205578E-1,-3.5931831E-3,2.1039727E-1,-6.898849E-1,-3.8975862E-1,-4.6283183E-1,-1.2696072E-1,-8.2694896E-2,1.0926283E-1,1.6738129E-1,2.901018E-1,-7.3607415E-1,-3.822863E-1,-4.8400134E-1,-2.4545446E-1,-5.576135E-1,-3.0980393E-1,6.0317215E-2,-1.7638257E-1,-1.5766409E-1,-1.4180658E-4,2.5984514E-1,7.382703E-2,6.1543178E-2,2.0226853E-1,3.1378865E-1,1.4591308E-1,-5.5257356E-1,-8.079584E-1,-1.4089692E-1,-4.6646905E-1,-8.366961E-1,-4.3783063E-1,1.047984E-3,-2.914783E-1,-4.7323844E-1,-7.2334474E-1,-3.7763345E-1,-6.468597E-2,-5.9272315E-2,1.5555745E-1,8.6820275E-2,-2.0611507E-1,-3.7096396E-1,-1.1244658E-1,-1.2066459E-1,5.160239E-2,-6.1214525E-1,2.6709762E-1,2.623725E-1,4.965085E-2,1.9685617E-1,1.6085872E-2,3.215605E-1,1.7803988E-1,1.4298354E-1,3.327989E-1,2.0392673E-1,3.30095E-2,-4.3775495E-2,-2.3121981E-2,-5.575042E-2,-4.2972602E-2,9.058572E-3,-1.2673509E-2,-5.0035905E-2,-2.398083E-2,-5.851926E-2,-4.2455457E-2,-1.341494E-2,-2.9673077E-2,3.9710575E-3,-2.207444E-2,-4.5172377E-3,-2.0563092E-2,-1.2032492E-2,-3.145186E-2,-4.64272E-2,-2.695124E-2,-3.3803992E-2,-1.8600438E-2,-1.6114209E-2,2.3354094E-3,-1.0358445E-2,1.8475043E-3,1.309037E-2,2.6588645E-3,-5.8783803E-2,6.229236E-3,-1.8203223E-2,-8.194678E-3,-2.88016E-2,-1.505139E-2,-1.1151317E-2,-5.299874E-4,4.322449E-3,-1.0796077E-2,2.0626519E-2,1.9297695E-3,-1.8504899E-2,-4.645843E-2,2.2714958E-2,1.2952559E-2,-4.8552044E-2,1.5981281E-2,1.8759127E-4,7.713404E-3,2.3719983E-2,1.021656E-2,1.2267552E-2,-1.3582511E-3,2.5306068E-2,1.5315706E-2,8.537996E-3,1.4217739E-2,1.4297553E-2,5.4661534E-3,1.7363155E-2,2.3562687E-2,4.077175E-3,1.3154424E-2,1.1269562E-2,-4.6680414E-4],"categories":[],"categories_nodes":[],"categories_segments":[],"categories_sizes":[],"default_left":[0,0,0,0,0,0,0,0,0,0,0,0,0,0,0,0,0,0,0,0,0,0,0,0,0,0,0,0,0,0,0,0,0,0,0,0,0,0,0,0,0,0,0,0,0,0,0,0,0,0,0,0,0,0,0,0,0,0,0,0,0,0,0,0,0,0,0,0,0,0,0,0,0,0,0,0,0,0,0,0,0,0,0,0,0,0,0,0,0,0,0,0,0,0,0,0,0,0,0,0,0,0,0,0,0,0,0,0,0,0,0,0,0,0,0,0,0,0,0,0,0,0,0,0,0,0,0],"id":10,"left_children":[1,3,5,7,9,11,13,15,17,19,21,23,25,27,29,31,33,35,37,39,41,43,45,47,49,51,53,55,57,59,61,63,65,67,69,71,73,75,77,79,81,83,85,87,89,91,93,95,97,99,101,103,105,107,109,111,113,115,117,119,121,123,125,-1,-1,-1,-1,-1,-1,-1,-1,-1,-1,-1,-1,-1,-1,-1,-1,-1,-1,-1,-1,-1,-1,-1,-1,-1,-1,-1,-1,-1,-1,-1,-1,-1,-1,-1,-1,-1,-1,-1,-1,-1,-1,-1,-1,-1,-1,-1,-1,-1,-1,-1,-1,-1,-1,-1,-1,-1,-1,-1,-1,-1,-1,-1,-1],"loss_changes":[1.2106485E4,1.3434873E3,3.0155483E3,5.971987E2,1.3239304E3,1.1154851E3,4.763623E2,1.2747217E2,3.2964185E2,2.3420093E2,3.9042474E2,4.544752E2,2.741277E2,3.334214E2,1.6570557E2,1.0143213E2,2.3331924E1,2.3661084E2,1.0975635E2,1.3750952E2,1.0294141E2,1.0038733E2,2.6133875E2,3.7038562E2,2.1828882E2,6.1865906E1,1.89492E2,1.376291E2,1.95552E2,1.3507959E2,4.4770447E1,6.6079285E1,5.7253174E1,7.2145233E0,1.7160355E1,2.6031616E1,1.7892944E2,3.7306286E1,9.97699E1,1.0741174E2,5.515039E1,5.7291687E1,3.0068468E1,4.1406548E1,3.5657494E1,6.833501E1,2.0589417E2,9.005621E1,2.5233777E2,1.2802524E2,1.3697983E2,1.7094688E0,5.3165222E1,4.5705658E1,1.3941666E2,2.6003647E1,1.2672911E2,7.480652E1,1.17755005E2,2.0455177E1,9.484082E1,1.1360031E1,1.5556007E1,0E0,0E0,0E0,0E0,0E0,0E0,0E0,0E0,0E0,0E0,0E0,0E0,0E0,0E0,0E0,0E0,0E0,0E0,0E0,0E0,0E0,0E0,0E0,0E0,0E0,0E0,0E0,0E0,0E0,0E0,0E0,0E0,0E0,0E0,0E0,0E0,0E0,0E0,0E0,0E0,0E0,0E0,0E0,0E0,0E0,0E0,0E0,0E0,0E0,0E0,0E0,0E0,0E0,0E0,0E0,0E0,0E0,0E0,0E0,0E0,0E0,0E0,0E0,0E0],"parents":[2147483647,0,0,1,1,2,2,3,3,4,4,5,5,6,6,7,7,8,8,9,9,10,10,11,11,12,12,13,13,14,14,15,15,16,16,17,17,18,18,19,19,20,20,21,21,22,22,23,23,24,24,25,25,26,26,27,27,28,28,29,29,30,30,31,31,32,32,33,33,34,34,35,35,36,36,37,37,38,38,39,39,40,40,41,41,42,42,43,43,44,44,45,45,46,46,47,47,48,48,49,49,50,50,51,51,52,52,53,53,54,54,55,55,56,56,57,57,58,58,59,59,60,60,61,61,62,62],"right_children":[2,4,6,8,10,12,14,16,18,20,22,24,26,28,30,32,34,36,38,40,42,44,46,48,50,52,54,56,58,60,62,64,66,68,70,72,74,76,78,80,82,84,86,88,90,92,94,96,98,100,102,104,106,108,110,112,114,116,118,120,122,124,126,-1,-1,-1,-1,-1,-1,-1,-1,-1,-1,-1,-1,-1,-1,-1,-1,-1,-1,-1,-1,-1,-1,-1,-1,-1,-1,-1,-1,-1,-1,-1,-1,-1,-1,-1,-1,-1,-1,-1,-1,-1,-1,-1,-1,-1,-1,-1,-1,-1,-1,-1,-1,-1,-1,-1,-1,-1,-1,-1,-1,-1,-1,-1,-1],"split_conditions":[1.17877884E-4,9E0,3.938261E-4,4.439245E-5,2.856962E-5,9E0,9.0893125E-4,5.3140765E-1,1.7404914E-2,-2.9067018E0,-2.5401943E0,3.5096613E-1,-2.263095E0,7E0,-9.791597E-1,-2.5615435E0,6.4576244E0,7E0,-2.4767153E0,1.0515961E1,1.2E1,1.87E3,-3.520963E0,7E0,7E0,7.6E2,-2.9576297E0,4.4774365E0,-2.0199032E0,4.159E2,1.0981261E-2,2.3782755E-5,8E0,5.135006E0,7E0,-2.8825734E0,-2.36527E0,-4.5001072E-1,5.9972835E0,-2.5615435E0,-1.9033579E0,7.065137E-1,7.196486E-1,6.402324E-5,9.139798E0,2.7E3,6.0651175E-5,2.494893E-4,-2.0811806E0,4.81555E0,-2.8940532E0,1.4428572E3,7.174636E0,1.4E3,2.596562E-4,-1.3281287E0,-2.0880675E0,6.013772E0,9E0,5E2,1.37E3,5.778571E2,-2.060721E0,-4.3775495E-2,-2.3121981E-2,-5.575042E-2,-4.2972602E-2,9.058572E-3,-1.2673509E-2,-5.0035905E-2,-2.398083E-2,-5.851926E-2,-4.2455457E-2,-1.341494E-2,-2.9673077E-2,3.9710575E-3,-2.207444E-2,-4.5172377E-3,-2.0563092E-2,-1.2032492E-2,-3.145186E-2,-4.64272E-2,-2.695124E-2,-3.3803992E-2,-1.8600438E-2,-1.6114209E-2,2.3354094E-3,-1.0358445E-2,1.8475043E-3,1.309037E-2,2.6588645E-3,-5.8783803E-2,6.229236E-3,-1.8203223E-2,-8.194678E-3,-2.88016E-2,-1.505139E-2,-1.1151317E-2,-5.299874E-4,4.322449E-3,-1.0796077E-2,2.0626519E-2,1.9297695E-3,-1.8504899E-2,-4.645843E-2,2.2714958E-2,1.2952559E-2,-4.8552044E-2,1.5981281E-2,1.8759127E-4,7.713404E-3,2.3719983E-2,1.021656E-2,1.2267552E-2,-1.3582511E-3,2.5306068E-2,1.5315706E-2,8.537996E-3,1.4217739E-2,1.4297553E-2,5.4661534E-3,1.7363155E-2,2.3562687E-2,4.077175E-3,1.3154424E-2,1.1269562E-2,-4.6680414E-4],"split_indices":[19,9,19,19,19,9,19,23,27,3,0,23,0,9,3,0,26,9,0,26,9,18,1,9,9,17,1,26,0,24,27,19,9,26,9,3,0,3,26,0,2,21,21,19,26,17,19,19,3,26,0,25,26,17,19,0,0,26,9,11,14,24,0,0,0,0,0,0,0,0,0,0,0,0,0,0,0,0,0,0,0,0,0,0,0,0,0,0,0,0,0,0,0,0,0,0,0,0,0,0,0,0,0,0,0,0,0,0,0,0,0,0,0,0,0,0,0,0,0,0,0,0,0,0,0,0,0],"split_type":[0,0,0,0,0,0,0,0,0,0,0,0,0,0,0,0,0,0,0,0,0,0,0,0,0,0,0,0,0,0,0,0,0,0,0,0,0,0,0,0,0,0,0,0,0,0,0,0,0,0,0,0,0,0,0,0,0,0,0,0,0,0,0,0,0,0,0,0,0,0,0,0,0,0,0,0,0,0,0,0,0,0,0,0,0,0,0,0,0,0,0,0,0,0,0,0,0,0,0,0,0,0,0,0,0,0,0,0,0,0,0,0,0,0,0,0,0,0,0,0,0,0,0,0,0,0,0],"sum_hessian":[3.56079E5,9.1932E4,2.64147E5,3.3501E4,5.8431E4,1.24954E5,1.39193E5,9.153E3,2.4348E4,1.6275E4,4.2156E4,7.3472E4,5.1482E4,9.0422E4,4.8771E4,7.95E3,1.203E3,1.4718E4,9.63E3,1.0039E4,6.236E3,8.795E3,3.3361E4,3.8493E4,3.4979E4,9.795E3,4.1687E4,2.243E4,6.7992E4,4.1877E4,6.894E3,2.251E3,5.699E3,3.18E2,8.85E2,1.694E3,1.3024E4,1.51E3,8.12E3,6.666E3,3.373E3,4.878E3,1.358E3,3.892E3,4.903E3,3.38E3,2.9981E4,6.723E3,3.177E4,1.0515E4,2.4464E4,7.7E1,9.718E3,4.727E3,3.696E4,5.629E3,1.6801E4,1.1461E4,5.6531E4,4.205E3,3.7672E4,4.543E3,2.351E3,1.018E3,1.233E3,2.041E3,3.658E3,5.9E1,2.59E2,1.1E2,7.75E2,7.05E2,9.89E2,3.12E3,9.904E3,1.289E3,2.21E2,1.725E3,6.395E3,1.235E3,5.431E3,2.702E3,6.71E2,1.157E3,3.721E3,4.56E2,9.02E2,1.709E3,2.183E3,3.046E3,1.857E3,5.4E1,3.326E3,1.1807E4,1.8174E4,3.313E3,3.41E3,1.8216E4,1.3554E4,2.559E3,7.956E3,1.444E3,2.302E4,3.5E1,4.2E1,2.752E3,6.966E3,3.5E1,4.692E3,2.3533E4,1.3427E4,5.63E2,5.066E3,2.848E3,1.3953E4,4.143E3,7.318E3,3.7155E4,1.9376E4,1.393E3,2.812E3,2.4088E4,1.3584E4,5.84E2,3.959E3,4.89E2,1.862E3],"tree_param":{"num_deleted":"0","num_feature":"55","num_nodes":"127","size_leaf_vector":"1"}},{"base_weights":[-2.758846E-4,-2.7188328E-1,1.00005604E-1,-4.119817E-1,-1.3533486E-1,1.9278954E-1,1.735773E-2,-5.2544045E-1,-2.758142E-1,-2.3285332E-1,3.478877E-3,3.0055082E-1,1.4920828E-1,1.3754806E-1,-7.10743E-2,-7.084839E-1,-4.3656015E-1,-1.6302891E-1,-4.529568E-1,-4.5352745E-1,-1.7433888E-1,-1.9976953E-1,5.893597E-2,3.962432E-1,2.6632935E-1,2.353972E-1,8.5147135E-2,1.5984955E-1,-1.810586E-1,-2.0080954E-1,1.8688027E-2,-8.584308E-1,-6.3543165E-1,-6.065521E-1,-3.6137795E-1,-2.3617016E-1,6.6314393E-4,-5.527757E-1,-2.6416078E-1,-6.8561095E-1,-3.8487518E-1,-1.1482763E0,-1.6273467E-1,-6.4492846E-1,-1.7465185E-1,1.9944205E-3,1.7791359E-1,2.7390838E-1,4.266813E-1,3.3172962E-1,1.9511054E-1,1.8542731E-1,2.8428915E-1,-5.6870386E-2,1.3345064E-1,9.7733065E-2,2.5041297E-1,-5.1085454E-1,-8.588551E-2,-3.121107E-1,-6.2209323E-2,-1.17196456E-1,9.272949E-2,-4.5301232E-2,-5.659779E-2,-5.031485E-2,-3.334773E-2,-3.0205958E-2,-4.886728E-2,-1.643807E-2,-3.3023775E-2,-9.118738E-3,-1.8381072E-2,-2.8524987E-2,1.1333951E-3,-3.9508414E-2,-2.558871E-2,-2.033729E-2,-5.874888E-3,-4.7415715E-2,-3.3033296E-2,-1.8177098E-2,-3.2029156E-2,-9.040366E-2,-2.4054958E-2,-1.8309884E-2,-5.3155217E-3,-4.8781008E-2,-2.2132639E-2,-1.5412827E-2,-4.4354675E-3,-4.389039E-2,7.231838E-4,3.1231313E-3,1.2975447E-2,-8.277177E-3,1.667955E-2,2.9973203E-2,2.2586508E-2,1.348594E-2,2.135194E-2,3.1475043E-3,1.4038698E-2,1.4614437E-2,6.4576273E-3,7.506874E-3,1.7636886E-2,-1.2070768E-2,4.5107203E-4,3.750495E-3,1.0377142E-2,1.9689449E-4,1.0574719E-2,1.1221602E-2,1.8012539E-2,-4.7005422E-2,-2.2928657E-2,-9.048513E-3,2.9358412E-3,-1.2213936E-2,-2.5268264E-2,4.3787764E-4,-1.05906315E-2,-1.0562752E-2,2.6047216E-3,2.7681307E-3,1.1774139E-2],"categories":[],"categories_nodes":[],"categories_segments":[],"categories_sizes":[],"default_left":[0,0,0,0,0,0,0,0,0,0,0,0,0,0,0,0,0,0,0,0,0,0,0,0,0,0,0,0,0,0,0,0,0,0,0,0,0,0,0,0,0,0,0,0,0,0,0,0,0,0,0,0,0,0,0,0,0,0,0,0,0,0,0,0,0,0,0,0,0,0,0,0,0,0,0,0,0,0,0,0,0,0,0,0,0,0,0,0,0,0,0,0,0,0,0,0,0,0,0,0,0,0,0,0,0,0,0,0,0,0,0,0,0,0,0,0,0,0,0,0,0,0,0,0,0,0,0],"id":11,"left_children":[1,3,5,7,9,11,13,15,17,19,21,23,25,27,29,31,33,35,37,39,41,43,45,47,49,51,53,55,57,59,61,63,65,67,69,71,73,75,77,79,81,83,85,87,89,91,93,95,97,99,101,103,105,107,109,111,113,115,117,119,121,123,125,-1,-1,-1,-1,-1,-1,-1,-1,-1,-1,-1,-1,-1,-1,-1,-1,-1,-1,-1,-1,-1,-1,-1,-1,-1,-1,-1,-1,-1,-1,-1,-1,-1,-1,-1,-1,-1,-1,-1,-1,-1,-1,-1,-1,-1,-1,-1,-1,-1,-1,-1,-1,-1,-1,-1,-1,-1,-1,-1,-1,-1,-1,-1,-1],"loss_changes":[9.694748E3,1.8351084E3,1.9930166E3,7.3009375E2,6.584957E2,5.742324E2,1.4615234E3,4.174746E2,4.291775E2,3.6757837E2,2.2587679E2,1.1405664E2,4.8092932E2,4.1422754E2,9.226963E2,8.839258E1,2.2018506E2,1.5808414E2,1.560503E2,9.277673E1,2.5261487E2,4.6362106E1,1.0651701E2,3.3038574E1,1.1999231E2,8.989917E1,3.4342313E2,3.0586353E2,1.1848946E2,4.991338E2,4.7095886E2,2.0239746E1,8.253589E1,1.0796582E2,1.9628687E2,5.5358215E1,3.5884922E1,7.3733765E1,3.794597E1,1.6703796E1,5.4206787E1,7.052338E1,2.3898651E2,8.254524E0,3.4597923E1,8.0850075E1,2.6479889E1,7.5028534E0,2.4303589E1,4.1586304E1,7.578363E1,8.6796265E1,4.3745728E1,1.2159949E2,1.1092505E2,2.4933386E2,7.2533936E1,2.6832016E1,2.7437065E1,2.1861743E2,1.1853558E2,1.6575323E2,1.4812115E2,0E0,0E0,0E0,0E0,0E0,0E0,0E0,0E0,0E0,0E0,0E0,0E0,0E0,0E0,0E0,0E0,0E0,0E0,0E0,0E0,0E0,0E0,0E0,0E0,0E0,0E0,0E0,0E0,0E0,0E0,0E0,0E0,0E0,0E0,0E0,0E0,0E0,0E0,0E0,0E0,0E0,0E0,0E0,0E0,0E0,0E0,0E0,0E0,0E0,0E0,0E0,0E0,0E0,0E0,0E0,0E0,0E0,0E0,0E0,0E0,0E0,0E0,0E0,0E0],"parents":[2147483647,0,0,1,1,2,2,3,3,4,4,5,5,6,6,7,7,8,8,9,9,10,10,11,11,12,12,13,13,14,14,15,15,16,16,17,17,18,18,19,19,20,20,21,21,22,22,23,23,24,24,25,25,26,26,27,27,28,28,29,29,30,30,31,31,32,32,33,33,34,34,35,35,36,36,37,37,38,38,39,39,40,40,41,41,42,42,43,43,44,44,45,45,46,46,47,47,48,48,49,49,50,50,51,51,52,52,53,53,54,54,55,55,56,56,57,57,58,58,59,59,60,60,61,61,62,62],"right_children":[2,4,6,8,10,12,14,16,18,20,22,24,26,28,30,32,34,36,38,40,42,44,46,48,50,52,54,56,58,60,62,64,66,68,70,72,74,76,78,80,82,84,86,88,90,92,94,96,98,100,102,104,106,108,110,112,114,116,118,120,122,124,126,-1,-1,-1,-1,-1,-1,-1,-1,-1,-1,-1,-1,-1,-1,-1,-1,-1,-1,-1,-1,-1,-1,-1,-1,-1,-1,-1,-1,-1,-1,-1,-1,-1,-1,-1,-1,-1,-1,-1,-1,-1,-1,-1,-1,-1,-1,-1,-1,-1,-1,-1,-1,-1,-1,-1,-1,-1,-1,-1,-1,-1,-1,-1,-1],"split_conditions":[5.794907E-1,-2.543405E0,5.752664E0,1E1,1E1,-1.2942036E0,-1.5903765E0,4.4386435E-1,9.371033E0,4.3502688E-1,4.044736E-1,-1.9447834E0,4.6169086E0,-3.7519404E-1,-2.6902711E0,-3.4103637E0,8E0,-1.7347534E0,-2.208873E0,8E0,1.05E2,2.47448E-1,-2.0254989E0,6.116E3,5.115423E0,7E0,7E0,9E0,6E1,9E0,8E0,1.0003327E1,8E0,1.11875E3,1.6E3,8.364377E0,1.35E2,-3.4103637E0,-3.239719E0,-2.6140132E0,1.4711111E3,1.893891E-2,8E0,3.8284E4,1.1E1,1.1E2,9.8E2,3.3285713E1,5.074299E0,6.819E3,7E0,3.9921367E0,3.404E3,-2.6800995E0,-2.543405E0,6.8045217E-1,6.5284026E-1,4E1,-1.9775016E0,6.562715E0,7.016718E0,-1.8285782E0,-1.950114E0,-4.5301232E-2,-5.659779E-2,-5.031485E-2,-3.334773E-2,-3.0205958E-2,-4.886728E-2,-1.643807E-2,-3.3023775E-2,-9.118738E-3,-1.8381072E-2,-2.8524987E-2,1.1333951E-3,-3.9508414E-2,-2.558871E-2,-2.033729E-2,-5.874888E-3,-4.7415715E-2,-3.3033296E-2,-1.8177098E-2,-3.2029156E-2,-9.040366E-2,-2.4054958E-2,-1.8309884E-2,-5.3155217E-3,-4.8781008E-2,-2.2132639E-2,-1.5412827E-2,-4.4354675E-3,-4.389039E-2,7.231838E-4,3.1231313E-3,1.2975447E-2,-8.277177E-3,1.667955E-2,2.9973203E-2,2.2586508E-2,1.348594E-2,2.135194E-2,3.1475043E-3,1.4038698E-2,1.4614437E-2,6.4576273E-3,7.506874E-3,1.7636886E-2,-1.2070768E-2,4.5107203E-4,3.750495E-3,1.0377142E-2,1.9689449E-4,1.0574719E-2,1.1221602E-2,1.8012539E-2,-4.7005422E-2,-2.2928657E-2,-9.048513E-3,2.9358412E-3,-1.2213936E-2,-2.5268264E-2,4.3787764E-4,-1.05906315E-2,-1.0562752E-2,2.6047216E-3,2.7681307E-3,1.1774139E-2],"split_indices":[20,3,26,9,8,0,0,20,26,20,20,0,26,3,3,3,8,2,2,8,16,20,2,13,26,9,8,9,16,9,9,26,8,14,14,26,16,3,3,2,14,27,8,13,8,16,17,24,26,13,9,26,13,3,3,20,20,16,2,26,26,2,2,0,0,0,0,0,0,0,0,0,0,0,0,0,0,0,0,0,0,0,0,0,0,0,0,0,0,0,0,0,0,0,0,0,0,0,0,0,0,0,0,0,0,0,0,0,0,0,0,0,0,0,0,0,0,0,0,0,0,0,0,0,0,0,0],"split_type":[0,0,0,0,0,0,0,0,0,0,0,0,0,0,0,0,0,0,0,0,0,0,0,0,0,0,0,0,0,0,0,0,0,0,0,0,0,0,0,0,0,0,0,0,0,0,0,0,0,0,0,0,0,0,0,0,0,0,0,0,0,0,0,0,0,0,0,0,0,0,0,0,0,0,0,0,0,0,0,0,0,0,0,0,0,0,0,0,0,0,0,0,0,0,0,0,0,0,0,0,0,0,0,0,0,0,0,0,0,0,0,0,0,0,0,0,0,0,0,0,0,0,0,0,0,0,0],"sum_hessian":[3.55922E5,9.5979E4,2.59943E5,4.7365E4,4.8614E4,1.22451E5,1.37492E5,2.5826E4,2.1539E4,2.856E4,2.0054E4,3.5246E4,8.7205E4,5.8288E4,7.9204E4,8.429E3,1.7397E4,1.3169E4,8.37E3,5.976E3,2.2584E4,4.291E3,1.5763E4,9.264E3,2.5982E4,3.7167E4,5.0038E4,5.4481E4,3.807E3,3.2396E4,4.6808E4,2.744E3,5.685E3,5.322E3,1.2075E4,9.108E3,4.061E3,5.466E3,2.904E3,1.353E3,4.623E3,2.61E2,2.2323E4,2.22E2,4.069E3,1.0672E4,5.091E3,1.862E3,7.402E3,1.3527E4,1.2455E4,1.8404E4,1.8763E4,1.2691E4,3.7347E4,3.233E4,2.2151E4,8.46E2,2.961E3,1.7959E4,1.4437E4,1.6501E4,3.0307E4,1.487E3,1.257E3,1.354E3,4.331E3,3.759E3,1.563E3,8.556E3,3.519E3,4.41E3,4.698E3,1.44E2,3.917E3,2.724E3,2.742E3,1.936E3,9.68E2,6.77E2,6.76E2,3.136E3,1.487E3,1.68E2,9.3E1,7.325E3,1.4998E4,1.25E2,9.7E1,2.158E3,1.911E3,1.4E2,1.0532E4,1.301E3,3.79E3,3.6E1,1.826E3,2.528E3,4.874E3,3.134E3,1.0393E4,2.922E3,9.533E3,1.0058E4,8.346E3,1.663E3,1.71E4,3.858E3,8.833E3,1.42E4,2.3147E4,1.502E4,1.731E4,1.0662E4,1.1489E4,2.43E2,6.03E2,1.983E3,9.78E2,9.482E3,8.477E3,9.06E3,5.377E3,1.1922E4,4.579E3,2.1255E4,9.052E3],"tree_param":{"num_deleted":"0","num_feature":"55","num_nodes":"127","size_leaf_vector":"1"}},{"base_weights":[6.6702085E-4,-2.3004821E-1,1.05545305E-1,-3.5428774E-1,-9.115492E-2,-7.4541196E-2,1.4251168E-1,-4.4031152E-1,-1.7975536E-1,-2.2410062E-1,-5.418009E-3,-1.6249469E-1,5.29254E-2,4.6066165E-2,2.0673458E-1,-5.435583E-1,-3.1428564E-1,-2.8057507E-1,-3.591873E-2,-3.8602027E-1,-1.350434E-1,-1.6094357E-1,6.338724E-2,-3.5167587E-1,-7.6947E-2,-9.1766484E-2,9.785848E-2,-1.0107588E-3,1.522842E-1,1.4174186E-1,2.6461583E-1,-4.02747E-1,-6.5888137E-1,-2.1137723E-1,-4.984465E-1,-4.484089E-1,-1.9533275E-1,-1.6437036E-1,2.6815299E-2,-5.082385E-1,-2.6475805E-1,-2.2515112E-1,-3.015745E-2,-2.1786858E-1,-7.3679206E-3,5.768352E-3,1.8373808E-1,-5.3640306E-1,-2.6651388E-1,-1.825203E-1,2.1517096E-2,-1.4159583E-1,1.2724255E-1,2.0762026E-1,5.5131897E-2,1.0728851E-1,-4.97265E-2,5.2591722E-2,1.8883006E-1,3.8555555E-2,2.026329E-1,2.7765E-1,4.5682628E-2,-3.3736207E-2,-1.8409176E-2,-5.047746E-2,-3.5544027E-2,-6.871508E-3,-1.6591268E-2,-3.6978994E-2,-2.4009759E-2,-3.6143564E-2,-2.0654889E-2,-2.0054752E-2,-7.3142857E-3,-1.6094143E-2,-2.5180741E-3,-5.321945E-3,4.2181355E-3,-4.9450118E-2,-2.7814128E-2,-2.2128481E-2,-1.0132466E-2,-2.4656981E-2,-1.1230926E-2,-1.31894415E-2,3.299519E-4,-1.53645445E-2,-1.4977177E-3,-2.3948574E-2,8.6873065E-4,-1.784509E-3,6.982307E-3,4.503585E-3,1.3567534E-2,-2.6408358E-2,-4.197326E-2,-7.859059E-2,-1.5034864E-2,-1.4996016E-2,-3.434102E-3,-5.3598348E-2,1.7295724E-3,-1.4488233E-2,-1.9601987E-4,-0E0,1.0057662E-2,-1.3143978E-2,1.3491052E-2,8.136891E-3,-8.0085086E-4,3.88616E-3,1.1144969E-2,-1.0652339E-2,1.7606628E-3,-3.250033E-4,1.0341439E-2,7.73364E-3,1.5204838E-2,-3.1314674E-3,5.6954864E-3,1.6107107E-2,9.384131E-3,2.1104693E-2,1.4336518E-2,4.211185E-3,-1.9265173E-2],"categories":[],"categories_nodes":[],"categories_segments":[],"categories_sizes":[],"default_left":[0,0,0,0,0,0,0,0,0,0,0,0,0,0,0,0,0,0,0,0,0,0,0,0,0,0,0,0,0,0,0,0,0,0,0,0,0,0,0,0,0,0,0,0,0,0,0,0,0,0,0,0,0,0,0,0,0,0,0,0,0,0,0,0,0,0,0,0,0,0,0,0,0,0,0,0,0,0,0,0,0,0,0,0,0,0,0,0,0,0,0,0,0,0,0,0,0,0,0,0,0,0,0,0,0,0,0,0,0,0,0,0,0,0,0,0,0,0,0,0,0,0,0,0,0,0,0],"id":12,"left_children":[1,3,5,7,9,11,13,15,17,19,21,23,25,27,29,31,33,35,37,39,41,43,45,47,49,51,53,55,57,59,61,63,65,67,69,71,73,75,77,79,81,83,85,87,89,91,93,95,97,99,101,103,105,107,109,111,113,115,117,119,121,123,125,-1,-1,-1,-1,-1,-1,-1,-1,-1,-1,-1,-1,-1,-1,-1,-1,-1,-1,-1,-1,-1,-1,-1,-1,-1,-1,-1,-1,-1,-1,-1,-1,-1,-1,-1,-1,-1,-1,-1,-1,-1,-1,-1,-1,-1,-1,-1,-1,-1,-1,-1,-1,-1,-1,-1,-1,-1,-1,-1,-1,-1,-1,-1,-1],"loss_changes":[8.620365E3,1.9203672E3,1.630687E3,8.809863E2,5.9891345E2,4.6780536E2,1.2583457E3,5.1016064E2,2.8094556E2,2.961454E2,3.4233835E2,3.9877612E2,1.10714966E2,4.0651898E2,4.5810938E2,3.4860596E2,3.3465515E2,1.6187115E2,6.477313E1,1.0661084E2,1.25310974E2,8.5434204E1,1.5337036E2,1.19125E2,1.7709265E2,4.401947E1,6.0507202E1,2.968948E2,9.052484E1,3.6073938E2,1.8350781E2,1.47547E2,1.2658301E2,7.508371E1,7.219861E1,5.972052E1,7.7357056E1,3.4365677E1,2.8198662E1,4.0055847E1,3.677069E1,4.64664E1,4.3037617E1,5.8675415E1,2.4180847E1,6.1153717E1,3.5276093E1,3.467865E1,5.9828857E1,7.301041E1,6.293023E1,4.7041412E1,4.0783052E0,3.365509E1,5.36743E1,5.862442E1,4.056948E2,4.8241913E1,7.205438E1,1.1390251E2,1.1003479E2,1.6694922E2,3.4622925E1,0E0,0E0,0E0,0E0,0E0,0E0,0E0,0E0,0E0,0E0,0E0,0E0,0E0,0E0,0E0,0E0,0E0,0E0,0E0,0E0,0E0,0E0,0E0,0E0,0E0,0E0,0E0,0E0,0E0,0E0,0E0,0E0,0E0,0E0,0E0,0E0,0E0,0E0,0E0,0E0,0E0,0E0,0E0,0E0,0E0,0E0,0E0,0E0,0E0,0E0,0E0,0E0,0E0,0E0,0E0,0E0,0E0,0E0,0E0,0E0,0E0,0E0,0E0,0E0],"parents":[2147483647,0,0,1,1,2,2,3,3,4,4,5,5,6,6,7,7,8,8,9,9,10,10,11,11,12,12,13,13,14,14,15,15,16,16,17,17,18,18,19,19,20,20,21,21,22,22,23,23,24,24,25,25,26,26,27,27,28,28,29,29,30,30,31,31,32,32,33,33,34,34,35,35,36,36,37,37,38,38,39,39,40,40,41,41,42,42,43,43,44,44,45,45,46,46,47,47,48,48,49,49,50,50,51,51,52,52,53,53,54,54,55,55,56,56,57,57,58,58,59,59,60,60,61,61,62,62],"right_children":[2,4,6,8,10,12,14,16,18,20,22,24,26,28,30,32,34,36,38,40,42,44,46,48,50,52,54,56,58,60,62,64,66,68,70,72,74,76,78,80,82,84,86,88,90,92,94,96,98,100,102,104,106,108,110,112,114,116,118,120,122,124,126,-1,-1,-1,-1,-1,-1,-1,-1,-1,-1,-1,-1,-1,-1,-1,-1,-1,-1,-1,-1,-1,-1,-1,-1,-1,-1,-1,-1,-1,-1,-1,-1,-1,-1,-1,-1,-1,-1,-1,-1,-1,-1,-1,-1,-1,-1,-1,-1,-1,-1,-1,-1,-1,-1,-1,-1,-1,-1,-1,-1,-1,-1,-1,-1],"split_conditions":[6.0296905E-1,-2.4425783E0,-3.1317015E0,-1.8194505E0,9E0,7.6928145E-1,-2.1311674E0,1E1,1E1,5.0235426E-1,4.5662266E-1,8E0,-2.3907797E0,-9.8119503E-1,7.6100576E-1,8.2062235E0,9.501107E0,-3.3383648E0,-3.5078435E0,-2.5662448E0,-2.190094E0,-2.2680662E0,-1.9587162E0,-2.2483509E0,-1.8844746E0,8.901833E-1,-1.2526906E0,5.48314E0,-2.4930263E0,8E0,-6.573014E-1,8E0,8E0,8.174845E0,-3.5490007E0,4.929491E-1,8E0,5.0538284E-1,1.948639E-1,7E0,8E0,7E0,7E0,1.2E1,2.65125E2,1.1E1,9.8E2,1.43E3,1.75E3,1E1,1.79E3,8E0,-3.2196727E0,-2.3828003E0,4.742996E0,8E0,8E0,4.484582E-1,8E0,-2.2948709E0,-1.7953129E0,-1.5257168E0,5.149407E-1,-3.3736207E-2,-1.8409176E-2,-5.047746E-2,-3.5544027E-2,-6.871508E-3,-1.6591268E-2,-3.6978994E-2,-2.4009759E-2,-3.6143564E-2,-2.0654889E-2,-2.0054752E-2,-7.3142857E-3,-1.6094143E-2,-2.5180741E-3,-5.321945E-3,4.2181355E-3,-4.9450118E-2,-2.7814128E-2,-2.2128481E-2,-1.0132466E-2,-2.4656981E-2,-1.1230926E-2,-1.31894415E-2,3.299519E-4,-1.53645445E-2,-1.4977177E-3,-2.3948574E-2,8.6873065E-4,-1.784509E-3,6.982307E-3,4.503585E-3,1.3567534E-2,-2.6408358E-2,-4.197326E-2,-7.859059E-2,-1.5034864E-2,-1.4996016E-2,-3.434102E-3,-5.3598348E-2,1.7295724E-3,-1.4488233E-2,-1.9601987E-4,-0E0,1.0057662E-2,-1.3143978E-2,1.3491052E-2,8.136891E-3,-8.0085086E-4,3.88616E-3,1.1144969E-2,-1.0652339E-2,1.7606628E-3,-3.250033E-4,1.0341439E-2,7.73364E-3,1.5204838E-2,-3.1314674E-3,