{"learner":{"attributes":{"best_iteration":"52","best_score":"0.6489437006377805"},"feature_names":["logit1","logit2","logit3","logit4","prob1","prob2","prob3","prob4","number_of_runners","field_size","purse_usa","distance_id","post_hour","total_pool","avg_field_odds","odds_std","favorite_odds","longshot_odds","odds_range","prob_product","prob_sum","prob_entropy","min_prob","max_prob","pool_per_runner","purse_per_runner","harville_log","prob_variance","surface_D","surface_T","surface_nan","course_type_D","course_type_E","course_type_I","course_type_T","course_type_nan","track_condition_FM","track_condition_FT","track_condition_GD","track_condition_MY","track_condition_SY","track_condition_WF","track_condition_nan"],"feature_types":[],"gradient_booster":{"model":{"gbtree_model_param":{"num_parallel_tree":"1","num_trees":"83"},"iteration_indptr":[0,1,2,3,4,5,6,7,8,9,10,11,12,13,14,15,16,17,18,19,20,21,22,23,24,25,26,27,28,29,30,31,32,33,34,35,36,37,38,39,40,41,42,43,44,45,46,47,48,49,50,51,52,53,54,55,56,57,58,59,60,61,62,63,64,65,66,67,68,69,70,71,72,73,74,75,76,77,78,79,80,81,82,83],"tree_info":[0,0,0,0,0,0,0,0,0,0,0,0,0,0,0,0,0,0,0,0,0,0,0,0,0,0,0,0,0,0,0,0,0,0,0,0,0,0,0,0,0,0,0,0,0,0,0,0,0,0,0,0,0,0,0,0,0,0,0,0,0,0,0,0,0,0,0,0,0,0,0,0,0,0,0,0,0,0,0,0,0,0,0],"trees":[{"base_weights":[-0E0,-4.7402218E-1,3.8480222E-1,-9.126897E-2,-4.171313E-2,-0E0,3.1756666E-2,-1.5434305E-2,-0E0,-8.577628E-3,1.3190179E-2],"categories":[],"categories_nodes":[],"categories_segments":[],"categories_sizes":[],"default_left":[0,0,0,0,0,0,0,0,0,0,0],"id":0,"left_children":[1,3,5,7,-1,9,-1,-1,-1,-1,-1],"loss_changes":[2.3335426E1,3.7029667E0,3.5632763E0,6.492891E-1,0E0,9.870368E-1,0E0,0E0,0E0,0E0,0E0],"parents":[2147483647,0,0,1,1,2,2,3,3,5,5],"right_children":[2,4,6,8,-1,10,-1,-1,-1,-1,-1],"split_conditions":[9.701656E-1,8.450602E0,2.8200095E-4,1.3035E4,-4.171313E-2,9E0,3.1756666E-2,-1.5434305E-2,-0E0,-8.577628E-3,1.3190179E-2],"split_indices":[21,26,19,13,0,8,0,0,0,0,0],"split_type":[0,0,0,0,0,0,0,0,0,0,0],"sum_hessian":[1.22E2,5.5E1,6.7E1,2.5E1,3E1,2.2E1,4.5E1,1E1,1.5E1,1.1E1,1.1E1],"tree_param":{"num_deleted":"0","num_feature":"43","num_nodes":"11","size_leaf_vector":"1"}},{"base_weights":[1.5434414E-3,2.3786578E-1,-4.1429643E-2,-0E0,3.9267194E-1,9.824712E-3,-7.618044E-2,-0E0,3.176214E-2,-1.21121425E-2,-0E0],"categories":[],"categories_nodes":[],"categories_segments":[],"categories_sizes":[],"default_left":[0,0,0,0,0,0,0,0,0,0,0],"id":1,"left_children":[1,3,-1,5,7,-1,9,-1,-1,-1,-1],"loss_changes":[2.0180902E1,3.0325665E0,0E0,7.075076E-1,2.5459738E0,0E0,3.8691577E-1,0E0,0E0,0E0,0E0],"parents":[2147483647,0,0,1,1,3,3,4,4,6,6],"right_children":[2,4,-1,6,8,-1,10,-1,-1,-1,-1],"split_conditions":[8.450602E0,2.8200095E-4,-4.1429643E-2,-1.6878551E0,-1.9164639E0,9.824712E-3,1.5655555E3,-0E0,3.176214E-2,-1.21121425E-2,-0E0],"split_indices":[26,19,0,0,2,0,14,0,0,0,0],"split_type":[0,0,0,0,0,0,0,0,0,0,0],"sum_hessian":[1.2E2,9.3E1,2.7E1,4.1E1,5.2E1,1.7E1,2.4E1,1.7E1,3.5E1,1E1,1.4E1],"tree_param":{"num_deleted":"0","num_feature":"43","num_nodes":"11","size_leaf_vector":"1"}},{"base_weights":[2.1865448E-2,-2.944172E-1,4.2840788E-1,-5.931024E-2,-3.193548E-2,5.1336824E-3,3.0544108E-2,-1.3982508E-1,1.225882E-3,-1.5186109E-2,-0E0],"categories":[],"categories_nodes":[],"categories_segments":[],"categories_sizes":[],"default_left":[0,0,0,0,0,0,0,0,0,0,0],"id":2,"left_children":[1,3,5,7,-1,-1,-1,9,-1,-1,-1],"loss_changes":[1.5983222E1,2.8260584E0,6.0680866E-1,4.6474463E-1,0E0,0E0,0E0,3.8314432E-1,0E0,0E0,0E0],"parents":[2147483647,0,0,1,1,2,2,3,3,7,7],"right_children":[2,4,6,8,-1,-1,-1,10,-1,-1,-1],"split_conditions":[2.8200095E-4,8.450602E0,4.729996E-4,7.665027E0,-3.193548E-2,5.1336824E-3,3.0544108E-2,5E0,1.225882E-3,-1.5186109E-2,-0E0],"split_indices":[19,26,19,26,0,0,0,12,0,0,0],"split_type":[0,0,0,0,0,0,0,0,0,0,0],"sum_hessian":[1.17E2,6.4E1,5.3E1,3.8E1,2.6E1,1.6E1,3.7E1,2.8E1,1E1,1.2E1,1.6E1],"tree_param":{"num_deleted":"0","num_feature":"43","num_nodes":"11","size_leaf_vector":"1"}},{"base_weights":[-0E0,-5.823517E-1,2.3458658E-1,-4.2870168E-2,-0E0,3.867392E-3,2.9060448E-2,1.3821866E-2,-8.672718E-2,-1.6195908E-2,-0E0],"categories":[],"categories_nodes":[],"categories_segments":[],"categories_sizes":[],"default_left":[0,0,0,0,0,0,0,0,0,0,0],"id":3,"left_children":[1,3,5,-1,-1,7,-1,-1,9,-1,-1],"loss_changes":[1.8782642E1,2.2942686E0,4.9096212E0,0E0,0E0,1.4859396E0,0E0,0E0,6.8567944E-1,0E0,0E0],"parents":[2147483647,0,0,1,1,2,2,5,5,8,8],"right_children":[2,4,6,-1,-1,8,-1,-1,10,-1,-1],"split_conditions":[5.478027E-1,-1.7758814E0,4.729996E-4,-4.2870168E-2,-0E0,1.4444445E3,2.9060448E-2,1.3821866E-2,1.6442858E3,-1.6195908E-2,-0E0],"split_indices":[20,1,19,0,0,25,0,0,24,0,0],"split_type":[0,0,0,0,0,0,0,0,0,0,0],"sum_hessian":[1.3E2,3.7E1,9.3E1,2.7E1,1E1,5.4E1,3.9E1,1.9E1,3.5E1,1E1,2.5E1],"tree_param":{"num_deleted":"0","num_feature":"43","num_nodes":"11","size_leaf_vector":"1"}},{"base_weights":[9.743765E-3,-3.781885E-1,3.1560728E-1,-5.4077566E-1,-0E0,2.9137399E-2,1.2486678E-1,-6.8275493E-1,-1.378963E-3,-5.5377536E-2,1.917388E-2,-5.074567E-2,-1.2013096E-2,-1.2207438E-2,-0E0],"categories":[],"categories_nodes":[],"categories_segments":[],"categories_sizes":[],"default_left":[0,0,0,0,0,0,0,0,0,0,0,0,0,0,0],"id":4,"left_children":[1,3,5,7,-1,-1,9,11,-1,13,-1,-1,-1,-1,-1],"loss_changes":[1.6353888E1,4.4038324E0,1.5465465E0,2.0288458E0,0E0,0E0,2.1831264E0,4.982853E-1,0E0,4.811922E-1,0E0,0E0,0E0,0E0,0E0],"parents":[2147483647,0,0,1,1,2,2,3,3,6,6,7,7,9,9],"right_children":[2,4,6,8,-1,-1,10,12,-1,14,-1,-1,-1,-1,-1],"split_conditions":[9.701656E-1,-1.704311E0,1.8013789E-1,1.7877778E3,-0E0,2.9137399E-2,7.056143E-1,9.0023655E-1,-1.378963E-3,1.1988889E3,1.917388E-2,-5.074567E-2,-1.2013096E-2,-1.2207438E-2,-0E0],"split_indices":[21,1,4,14,0,0,20,21,0,14,0,0,0,0,0],"split_type":[0,0,0,0,0,0,0,0,0,0,0,0,0,0,0],"sum_hessian":[1.33E2,5.6E1,7.7E1,4.1E1,1.5E1,3.3E1,4.4E1,2.9E1,1.2E1,2E1,2.4E1,1.7E1,1.2E1,1E1,1E1],"tree_param":{"num_deleted":"0","num_feature":"43","num_nodes":"15","size_leaf_vector":"1"}},{"base_weights":[-1.6079441E-3,-3.383991E-1,2.5748134E-1,-4.6771953E-1,-0E0,7.5092604E-3,2.556468E-2,-0E0,-5.767076E-1,-1.2047094E-2,1.625951E-2,-4.8139557E-2,-1.2271946E-2],"categories":[],"categories_nodes":[],"categories_segments":[],"categories_sizes":[],"default_left":[0,0,0,0,0,0,0,0,0,0,0,0,0],"id":5,"left_children":[1,3,5,7,-1,9,-1,-1,11,-1,-1,-1,-1],"loss_changes":[1.1794549E1,2.6227922E0,2.4884892E0,1.6636477E0,0E0,2.3732035E0,0E0,0E0,8.51799E-1,0E0,0E0,0E0,0E0],"parents":[2147483647,0,0,1,1,2,2,3,3,5,5,8,8],"right_children":[2,4,6,8,-1,10,-1,-1,12,-1,-1,-1,-1],"split_conditions":[9.701656E-1,1.665849E3,4.729996E-4,-2.461607E0,-0E0,8E0,2.556468E-2,-0E0,5.82142E-5,-1.2047094E-2,1.625951E-2,-4.8139557E-2,-1.2271946E-2],"split_indices":[21,15,19,0,0,9,0,0,19,0,0,0,0],"split_type":[0,0,0,0,0,0,0,0,0,0,0,0,0],"sum_hessian":[1.28E2,5.8E1,7E1,4.1E1,1.7E1,3.4E1,3.6E1,1E1,3.1E1,1.6E1,1.8E1,1.4E1,1.7E1],"tree_param":{"num_deleted":"0","num_feature":"43","num_nodes":"13","size_leaf_vector":"1"}},{"base_weights":[-1.7881322E-3,-4.7325844E-1,2.3119013E-1,-3.4013376E-2,-0E0,-0E0,3.5682926E-1,7.048162E-3,-6.5728496E-3,3.1539055E-3,2.6755469E-2],"categories":[],"categories_nodes":[],"categories_segments":[],"categories_sizes":[],"default_left":[0,0,0,0,0,0,0,0,0,0,0],"id":6,"left_children":[1,3,5,-1,-1,7,9,-1,-1,-1,-1],"loss_changes":[1.5183624E1,1.7926025E0,2.4145122E0,0E0,0E0,5.060347E-1,7.5664663E-1,0E0,0E0,0E0,0E0],"parents":[2147483647,0,0,1,1,2,2,5,5,6,6],"right_children":[2,4,6,-1,-1,8,10,-1,-1,-1,-1],"split_conditions":[5.707637E-1,-1.704311E0,2.6955514E-4,-3.4013376E-2,-0E0,3.5128152E-1,7E0,7.048162E-3,-6.5728496E-3,3.1539055E-3,2.6755469E-2],"split_indices":[20,1,19,0,0,4,8,0,0,0,0],"split_type":[0,0,0,0,0,0,0,0,0,0,0],"sum_hessian":[1.29E2,4.4E1,8.5E1,3.4E1,1E1,3.2E1,5.3E1,1.7E1,1.5E1,1.8E1,3.5E1],"tree_param":{"num_deleted":"0","num_feature":"43","num_nodes":"11","size_leaf_vector":"1"}},{"base_weights":[1.0001819E-3,-3.6550522E-1,1.8770011E-1,-2.9322425E-2,-0E0,3.8436967E-1,2.3715317E-3,2.9069653E-3,3.192231E-2,-1.659904E-1,2.0231515E-1,-2.1886922E-2,-0E0,-0E0,1.824566E-2],"categories":[],"categories_nodes":[],"categories_segments":[],"categories_sizes":[],"default_left":[0,0,0,0,0,0,0,0,0,0,0,0,0,0,0],"id":7,"left_children":[1,3,5,-1,-1,7,9,-1,-1,11,13,-1,-1,-1,-1],"loss_changes":[8.584697E0,2.1859064E0,2.6078289E0,0E0,0E0,1.0150113E0,1.9326106E0,0E0,0E0,1.0601249E0,6.819078E-1,0E0,0E0,0E0,0E0],"parents":[2147483647,0,0,1,1,2,2,5,5,6,6,9,9,10,10],"right_children":[2,4,6,-1,-1,8,10,-1,-1,12,14,-1,-1,-1,-1],"split_conditions":[5.5111533E-1,1.6246584E-1,-1.4193697E0,-2.9322425E-2,-0E0,9.715749E-2,7.4373525E-1,2.9069653E-3,3.192231E-2,1.3035E4,5.3724647E-2,-2.1886922E-2,-0E0,-0E0,1.824566E-2],"split_indices":[20,5,0,0,0,7,20,0,0,13,7,0,0,0,0],"split_type":[0,0,0,0,0,0,0,0,0,0,0,0,0,0,0],"sum_hessian":[1.24E2,3.8E1,8.6E1,2.8E1,1E1,3.6E1,5E1,1.6E1,2E1,2.3E1,2.7E1,1E1,1.3E1,1E1,1.7E1],"tree_param":{"num_deleted":"0","num_feature":"43","num_nodes":"15","size_leaf_vector":"1"}},{"base_weights":[-0E0,-2.4939854E-1,3.0610558E-1,-3.9708292E-1,-0E0,8.555807E-4,2.617135E-2,-0E0,-5.119171E-1,-1.2335733E-3,8.969613E-3,-4.4320438E-2,-1.3915445E-2],"categories":[],"categories_nodes":[],"categories_segments":[],"categories_sizes":[],"default_left":[0,0,0,0,0,0,0,0,0,0,0,0,0],"id":8,"left_children":[1,3,5,7,-1,9,-1,-1,11,-1,-1,-1,-1],"loss_changes":[1.0167341E1,3.202866E0,1.7587843E0,2.581235E0,0E0,3.0407828E-1,0E0,0E0,5.334606E-1,0E0,0E0,0E0,0E0],"parents":[2147483647,0,0,1,1,2,2,3,3,5,5,8,8],"right_children":[2,4,6,8,-1,10,-1,-1,12,-1,-1,-1,-1],"split_conditions":[2.8200095E-4,1.665849E3,1.3284044E-1,-2.5344586E0,-0E0,3.6888602E-1,2.617135E-2,-0E0,5.82142E-5,-1.2335733E-3,8.969613E-3,-4.4320438E-2,-1.3915445E-2],"split_indices":[19,15,6,0,0,23,0,0,19,0,0,0,0],"split_type":[0,0,0,0,0,0,0,0,0,0,0,0,0],"sum_hessian":[1.28E2,7.2E1,5.6E1,4.7E1,2.5E1,2.2E1,3.4E1,1E1,3.7E1,1.2E1,1E1,1.4E1,2.3E1],"tree_param":{"num_deleted":"0","num_feature":"43","num_nodes":"13","size_leaf_vector":"1"}},{"base_weights":[-0E0,-3.8110578E-1,1.9906625E-1,-3.0923419E-2,-0E0,-3.2177994E-3,3.2229057E-1,-0E0,3.6914295E-1,5.341278E-4,2.4999982E-2],"categories":[],"categories_nodes":[],"categories_segments":[],"categories_sizes":[],"default_left":[0,0,0,0,0,0,0,0,0,0,0],"id":9,"left_children":[1,3,5,-1,-1,-1,7,-1,9,-1,-1],"loss_changes":[9.992287E0,2.2621193E0,3.2299283E0,0E0,0E0,0E0,5.689707E-1,0E0,3.3755732E-1,0E0,0E0],"parents":[2147483647,0,0,1,1,2,2,6,6,8,8],"right_children":[2,4,6,-1,-1,-1,8,-1,10,-1,-1],"split_conditions":[5.5913764E-1,1.4481245E-1,-2.8779118E0,-3.0923419E-2,-0E0,-3.2177994E-3,7.028571E2,-0E0,8.4835306E-2,5.341278E-4,2.4999982E-2],"split_indices":[20,5,3,0,0,0,14,0,5,0,0],"split_type":[0,0,0,0,0,0,0,0,0,0,0],"sum_hessian":[1.27E2,4.2E1,8.5E1,2.9E1,1.3E1,2.4E1,6.1E1,1.1E1,5E1,1.1E1,3.9E1],"tree_param":{"num_deleted":"0","num_feature":"43","num_nodes":"11","size_leaf_vector":"1"}},{"base_weights":[-0E0,1.6501413E-1,-4.2963058E-1,-3.7660945E-2,2.6945305E-1,-3.9322056E-2,-6.8394807E-3,-1.1788052E-2,3.5261507E-3,-0E0,3.1690046E-1,2.416141E-2,6.577194E-2,-0E0,1.3966095E-2],"categories":[],"categories_nodes":[],"categories_segments":[],"categories_sizes":[],"default_left":[0,0,0,0,0,0,0,0,0,0,0,0,0,0,0],"id":10,"left_children":[1,3,5,7,9,-1,-1,-1,-1,-1,11,-1,13,-1,-1],"loss_changes":[9.387111E0,2.560327E0,1.1821012E0,7.658888E-1,9.216118E-1,0E0,0E0,0E0,0E0,0E0,6.0001373E-1,0E0,6.1404777E-1,0E0,0E0],"parents":[2147483647,0,0,1,1,2,2,3,3,4,4,10,10,12,12],"right_children":[2,4,6,8,10,-1,-1,-1,-1,-1,12,-1,14,-1,-1],"split_conditions":[8.426014E0,5.325632E-2,9E0,1.8272555E-1,4.9731746E-2,-3.9322056E-2,-6.8394807E-3,-1.1788052E-2,3.5261507E-3,-0E0,6.0623693E0,2.416141E-2,1.2444445E3,-0E0,1.3966095E-2],"split_indices":[26,7,8,6,6,0,0,0,0,0,26,0,14,0,0],"split_type":[0,0,0,0,0,0,0,0,0,0,0,0,0,0,0],"sum_hessian":[1.32E2,9.9E1,3.3E1,2.9E1,7E1,1.4E1,1.9E1,1.6E1,1.3E1,1.1E1,5.9E1,3.7E1,2.2E1,1.2E1,1E1],"tree_param":{"num_deleted":"0","num_feature":"43","num_nodes":"15","size_leaf_vector":"1"}},{"base_weights":[-1.0296431E-2,-2.9929227E-1,1.6016929E-1,-4.1019946E-1,-0E0,-0E0,2.7515227E-1,-5.0545275E-1,-0E0,-1.1406041E-2,5.9909844E-3,-0E0,1.9568069E-2,-4.2970322E-2,-9.022622E-3],"categories":[],"categories_nodes":[],"categories_segments":[],"categories_sizes":[],"default_left":[0,0,0,0,0,0,0,0,0,0,0,0,0,0,0],"id":11,"left_children":[1,3,5,7,-1,9,11,13,-1,-1,-1,-1,-1,-1,-1],"loss_changes":[6.511313E0,1.6442771E0,1.6503094E0,6.577449E-1,0E0,7.613867E-1,3.3329034E-1,3.693204E-1,0E0,0E0,0E0,0E0,0E0,0E0,0E0],"parents":[2147483647,0,0,1,1,2,2,3,3,5,5,6,6,7,7],"right_children":[2,4,6,8,-1,10,12,14,-1,-1,-1,-1,-1,-1,-1],"split_conditions":[9.701656E-1,1.665849E3,-2.125315E0,-2.001666E0,-0E0,1.1988889E3,5.3724647E-2,-2.750172E0,-0E0,-1.1406041E-2,5.9909844E-3,-0E0,1.9568069E-2,-4.2970322E-2,-9.022622E-3],"split_indices":[21,15,2,2,0,14,7,1,0,0,0,0,0,0,0],"split_type":[0,0,0,0,0,0,0,0,0,0,0,0,0,0,0],"sum_hessian":[1.22E2,4.8E1,7.4E1,3.4E1,1.4E1,2.9E1,4.5E1,2.4E1,1E1,1.2E1,1.7E1,1.2E1,3.3E1,1E1,1.4E1],"tree_param":{"num_deleted":"0","num_feature":"43","num_nodes":"15","size_leaf_vector":"1"}},{"base_weights":[-0E0,-3.0120224E-1,1.5022033E-1,-9.595376E-2,-3.4670647E-2,3.3101663E-1,-0E0,7.3409046E-4,-1.6498517E-2,1.5613954E-3,2.6419464E-2,1.4497627E-1,-1.5031934E-1,-0E0,1.3724529E-2,-1.5408195E-2,-0E0],"categories":[],"categories_nodes":[],"categories_segments":[],"categories_sizes":[],"default_left":[0,0,0,0,0,0,0,0,0,0,0,0,0,0,0,0,0],"id":12,"left_children":[1,3,5,7,-1,9,11,-1,-1,-1,-1,13,15,-1,-1,-1,-1],"loss_changes":[6.004344E0,1.3740764E0,1.9894105E0,1.0995848E0,0E0,4.7786045E-1,1.2076163E0,0E0,0E0,0E0,0E0,4.6197915E-1,4.080537E-1,0E0,0E0,0E0,0E0],"parents":[2147483647,0,0,1,1,2,2,3,3,5,5,6,6,11,11,12,12],"right_children":[2,4,6,8,-1,10,12,-1,-1,-1,-1,14,16,-1,-1,-1,-1],"split_conditions":[5.707637E-1,4.2E2,1.9089326E-1,1.6197881E-1,-3.4670647E-2,-2.229215E0,5.917628E0,7.3409046E-4,-1.6498517E-2,1.5613954E-3,2.6419464E-2,4.9572438E-2,1.4702858E3,-0E0,1.3724529E-2,-1.5408195E-2,-0E0],"split_indices":[20,16,4,4,0,3,26,0,0,0,0,22,24,0,0,0,0],"split_type":[0,0,0,0,0,0,0,0,0,0,0,0,0,0,0,0,0],"sum_hessian":[1.25E2,4.2E1,8.3E1,3E1,1.2E1,3.3E1,5E1,1.5E1,1.5E1,1.4E1,1.9E1,2.9E1,2.1E1,1.1E1,1.8E1,1.1E1,1E1],"tree_param":{"num_deleted":"0","num_feature":"43","num_nodes":"17","size_leaf_vector":"1"}},{"base_weights":[2.4508206E-2,-2.4191046E-1,2.1455714E-1,-2.8242089E-2,-0E0,1.8822875E-2,-0E0,-8.3535E-3,5.6452123E-3],"categories":[],"categories_nodes":[],"categories_segments":[],"categories_sizes":[],"default_left":[0,0,0,0,0,0,0,0,0],"id":13,"left_children":[1,3,5,-1,7,-1,-1,-1,-1],"loss_changes":[6.67649E0,2.6756663E0,1.5719635E0,0E0,4.7306865E-1,0E0,0E0,0E0,0E0],"parents":[2147483647,0,0,1,1,2,2,4,4],"right_children":[2,4,6,-1,8,-1,-1,-1,-1],"split_conditions":[6.150914E-1,9E0,-7.4238765E-1,-2.8242089E-2,-2.9038646E0,1.8822875E-2,-0E0,-8.3535E-3,5.6452123E-3],"split_indices":[20,9,0,0,3,0,0,0,0],"split_type":[0,0,0,0,0,0,0,0,0],"sum_hessian":[1.27E2,4.9E1,7.8E1,2.2E1,2.7E1,4.9E1,2.9E1,1.3E1,1.4E1],"tree_param":{"num_deleted":"0","num_feature":"43","num_nodes":"9","size_leaf_vector":"1"}},{"base_weights":[-0E0,-2.711081E-1,1.633833E-1,-2.775541E-2,-2.4415752E-2,3.7240637E-3,1.727294E-2,-1.3060968E-2,2.2413135E-3,1.1992509E-2,-3.2412827E-3],"categories":[],"categories_nodes":[],"categories_segments":[],"categories_sizes":[],"default_left":[0,0,0,0,0,0,0,0,0,0,0],"id":14,"left_children":[1,3,5,-1,7,9,-1,-1,-1,-1,-1],"loss_changes":[5.9141235E0,1.7219782E0,1.1496205E0,0E0,6.8964183E-1,7.8751445E-1,0E0,0E0,0E0,0E0,0E0],"parents":[2147483647,0,0,1,1,2,2,4,4,5,5],"right_children":[2,4,6,-1,8,10,-1,-1,-1,-1,-1],"split_conditions":[6.1031705E-1,9E0,4.729996E-4,-2.775541E-2,-2.9038646E0,-1.6096135E0,1.727294E-2,-1.3060968E-2,2.2413135E-3,1.1992509E-2,-3.2412827E-3],"split_indices":[20,8,19,0,3,0,0,0,0,0,0],"split_type":[0,0,0,0,0,0,0,0,0,0,0],"sum_hessian":[1.25E2,4.9E1,7.6E1,2.2E1,2.7E1,4.1E1,3.5E1,1.1E1,1.6E1,1.4E1,2.7E1],"tree_param":{"num_deleted":"0","num_feature":"43","num_nodes":"11","size_leaf_vector":"1"}},{"base_weights":[-7.304092E-3,-2.5726053E-1,1.678066E-1,-3.4146568E-1,-0E0,3.5097378E-1,2.4226448E-3,-2.7005818E-2,-2.1929033E-3,2.6958063E-2,-0E0,-1.07939325E-1,9.823529E-3,-1.652742E-2,-0E0],"categories":[],"categories_nodes":[],"categories_segments":[],"categories_sizes":[],"default_left":[0,0,0,0,0,0,0,0,0,0,0,0,0,0,0],"id":15,"left_children":[1,3,5,7,-1,9,11,-1,-1,-1,-1,13,-1,-1,-1],"loss_changes":[5.99403E0,1.1005552E0,1.6911783E0,6.723089E-1,0E0,5.6568265E-1,9.959382E-1,0E0,0E0,0E0,0E0,8.114228E-1,0E0,0E0,0E0],"parents":[2147483647,0,0,1,1,2,2,3,3,5,5,6,6,11,11],"right_children":[2,4,6,8,-1,10,12,-1,-1,-1,-1,14,-1,-1,-1],"split_conditions":[9.701656E-1,-1.7255017E0,-1.5154136E0,5.067392E-1,-0E0,2.2E3,7.080061E-1,-2.7005818E-2,-2.1929033E-3,2.6958063E-2,-0E0,8E0,9.823529E-3,-1.652742E-2,-0E0],"split_indices":[21,1,0,20,0,25,20,0,0,0,0,8,0,0,0],"split_type":[0,0,0,0,0,0,0,0,0,0,0,0,0,0,0],"sum_hessian":[1.28E2,5.6E1,7.2E1,4E1,1.6E1,2.8E1,4.4E1,2.4E1,1.6E1,1.8E1,1E1,2.1E1,2.3E1,1.1E1,1E1],"tree_param":{"num_deleted":"0","num_feature":"43","num_nodes":"15","size_leaf_vector":"1"}},{"base_weights":[-1.5440673E-2,1.4803067E-1,-2.4524745E-1,-0E0,2.7706176E-1,-3.369261E-1,-0E0,2.1155115E-2,-0E0,-2.5464427E-2,-0E0],"categories":[],"categories_nodes":[],"categories_segments":[],"categories_sizes":[],"default_left":[0,0,0,0,0,0,0,0,0,0,0],"id":16,"left_children":[1,3,5,-1,7,9,-1,-1,-1,-1,-1],"loss_changes":[4.83748E0,1.2423368E0,1.5042415E0,0E0,3.236127E-1,9.0018797E-1,0E0,0E0,0E0,0E0,0E0],"parents":[2147483647,0,0,1,1,2,2,4,4,5,5],"right_children":[2,4,6,-1,8,10,-1,-1,-1,-1,-1],"split_conditions":[7.02814E0,-1.9164639E0,1.665849E3,-0E0,9.767468E-3,-2.001666E0,-0E0,2.1155115E-2,-0E0,-2.5464427E-2,-0E0],"split_indices":[26,2,15,0,27,2,0,0,0,0,0],"split_type":[0,0,0,0,0,0,0,0,0,0,0],"sum_hessian":[1.19E2,6.6E1,5.3E1,3.3E1,3.3E1,4E1,1.3E1,2.1E1,1.2E1,2.8E1,1.2E1],"tree_param":{"num_deleted":"0","num_feature":"43","num_nodes":"11","size_leaf_vector":"1"}},{"base_weights":[-0E0,-3.6090836E-1,1.1091656E-1,-1.4801854E-3,-2.9431768E-2,-0E0,2.5798106E-1,1.15709305E-1,-3.3067437E-3,1.8795557E-2,-0E0,-0E0,1.4920287E-2],"categories":[],"categories_nodes":[],"categories_segments":[],"categories_sizes":[],"default_left":[0,0,0,0,0,0,0,0,0,0,0,0,0],"id":17,"left_children":[1,3,5,-1,-1,7,9,11,-1,-1,-1,-1,-1],"loss_changes":[5.0208E0,4.5643234E-1,1.3194221E0,0E0,0E0,5.3520495E-1,3.513353E-1,5.38937E-1,0E0,0E0,0E0,0E0,0E0],"parents":[2147483647,0,0,1,1,2,2,5,5,6,6,7,7],"right_children":[2,4,6,-1,-1,8,10,12,-1,-1,-1,-1,-1],"split_conditions":[5.82142E-5,2.8185189E-2,4.5773352E-4,-1.4801854E-3,-2.9431768E-2,-1.6096135E0,6E0,9.701656E-1,-3.3067437E-3,1.8795557E-2,-0E0,-0E0,1.4920287E-2],"split_indices":[19,22,19,0,0,0,12,21,0,0,0,0,0],"split_type":[0,0,0,0,0,0,0,0,0,0,0,0,0],"sum_hessian":[1.26E2,2.6E1,1E2,1.2E1,1.4E1,6.4E1,3.6E1,2.8E1,3.6E1,2.6E1,1E1,1.6E1,1.2E1],"tree_param":{"num_deleted":"0","num_feature":"43","num_nodes":"13","size_leaf_vector":"1"}},{"base_weights":[-0E0,-2.3581056E-1,1.603646E-1,-2.0214774E-2,-0E0,2.0451632E-1,-0E0,2.374412E-1,-0E0,5.7638895E-2,2.126531E-2,1.2973711E-2,-0E0],"categories":[],"categories_nodes":[],"categories_segments":[],"categories_sizes":[],"default_left":[0,0,0,0,0,0,0,0,0,0,0,0,0],"id":18,"left_children":[1,3,5,-1,-1,7,-1,9,-1,11,-1,-1,-1],"loss_changes":[4.995122E0,1.5802579E0,6.2650204E-1,0E0,0E0,2.9415274E-1,0E0,4.1358328E-1,0E0,5.2347344E-1,0E0,0E0,0E0],"parents":[2147483647,0,0,1,1,2,2,5,5,7,7,9,9],"right_children":[2,4,6,-1,-1,8,-1,10,-1,12,-1,-1,-1],"split_conditions":[9.6363807E-1,-1.7255017E0,4.5E3,-2.0214774E-2,-0E0,2.45E2,-0E0,1.6751428E3,-0E0,9.256E2,2.126531E-2,1.2973711E-2,-0E0],"split_indices":[21,1,25,0,0,16,0,24,0,24,0,0,0],"split_type":[0,0,0,0,0,0,0,0,0,0,0,0,0],"sum_hessian":[1.26E2,5.1E1,7.5E1,3.6E1,1.5E1,6E1,1.5E1,4.9E1,1.1E1,2.7E1,2.2E1,1E1,1.7E1],"tree_param":{"num_deleted":"0","num_feature":"43","num_nodes":"13","size_leaf_vector":"1"}},{"base_weights":[-0E0,1.05830185E-1,-2.3023663E-2,-4.3156497E-2,1.9481677E-1,-9.104076E-3,-0E0,2.9540998E-1,4.4728268E-2,-0E0,2.2602681E-2,1.04339095E-2,-4.033992E-3],"categories":[],"categories_nodes":[],"categories_segments":[],"categories_sizes":[],"default_left":[0,0,0,0,0,0,0,0,0,0,0,0,0],"id":19,"left_children":[1,3,-1,5,7,-1,-1,9,11,-1,-1,-1,-1],"loss_changes":[5.523426E0,1.5934427E0,0E0,2.9320645E-1,4.6507287E-1,0E0,0E0,3.223641E-1,7.7779293E-1,0E0,0E0,0E0,0E0],"parents":[2147483647,0,0,1,1,3,3,4,4,7,7,8,8],"right_children":[2,4,-1,6,8,-1,-1,10,12,-1,-1,-1,-1],"split_conditions":[8.450602E0,-2.8706827E0,-2.3023663E-2,1.4702858E3,-1.5154136E0,-9.104076E-3,-0E0,-2.130098E0,5.97782E0,-0E0,2.2602681E-2,1.04339095E-2,-4.033992E-3],"split_indices":[26,3,0,24,0,0,0,3,26,0,0,0,0],"split_type":[0,0,0,0,0,0,0,0,0,0,0,0,0],"sum_hessian":[1.23E2,9.7E1,2.6E1,3E1,6.7E1,1.2E1,1.8E1,3.2E1,3.5E1,1.2E1,2E1,2.2E1,1.3E1],"tree_param":{"num_deleted":"0","num_feature":"43","num_nodes":"13","size_leaf_vector":"1"}},{"base_weights":[-0E0,-2.446005E-1,1.22393E-1,-3.1370243E-1,-0E0,8.710619E-3,1.8067556E-2,-2.314785E-2,-0E0,-9.446593E-2,1.21390864E-1,-1.5212906E-2,-0E0,-0E0,1.0984219E-2],"categories":[],"categories_nodes":[],"categories_segments":[],"categories_sizes":[],"default_left":[0,0,0,0,0,0,0,0,0,0,0,0,0,0,0],"id":20,"left_children":[1,3,5,7,-1,9,-1,-1,-1,11,13,-1,-1,-1,-1],"loss_changes":[4.1924834E0,7.03074E-1,1.2584745E0,5.193176E-1,0E0,7.834205E-1,0E0,0E0,0E0,7.589202E-1,3.7562966E-1,0E0,0E0,0E0,0E0],"parents":[2147483647,0,0,1,1,2,2,3,3,5,5,9,9,10,10],"right_children":[2,4,6,8,-1,10,-1,-1,-1,12,14,-1,-1,-1,-1],"split_conditions":[5.802411E-1,1.6477668E3,1.9903348E-1,1.0476098E-1,-0E0,1.54E3,1.8067556E-2,-2.314785E-2,-0E0,-1.3773131E0,-2.7491412E0,-1.5212906E-2,-0E0,-0E0,1.0984219E-2],"split_indices":[20,15,6,6,0,24,0,0,0,1,3,0,0,0,0],"split_type":[0,0,0,0,0,0,0,0,0,0,0,0,0,0,0],"sum_hessian":[1.28E2,4.6E1,8.2E1,3.4E1,1.2E1,5.8E1,2.4E1,2.4E1,1E1,2.3E1,3.5E1,1.2E1,1.1E1,1.1E1,2.4E1],"tree_param":{"num_deleted":"0","num_feature":"43","num_nodes":"15","size_leaf_vector":"1"}},{"base_weights":[6.6817184E-3,-1.9675708E-1,1.3309748E-1,-2.4798967E-2,-0E0,-0E0,2.1008629E-1,1.4789129E-2,-0E0],"categories":[],"categories_nodes":[],"categories_segments":[],"categories_sizes":[],"default_left":[0,0,0,0,0,0,0,0,0],"id":21,"left_children":[1,3,5,-1,-1,-1,7,-1,-1],"loss_changes":[3.2328086E0,2.311668E0,1.0938678E0,0E0,0E0,0E0,4.8176003E-1,0E0,0E0],"parents":[2147483647,0,0,1,1,2,2,6,6],"right_children":[2,4,6,-1,-1,-1,8,-1,-1],"split_conditions":[5.802411E-1,9E0,-2.8686616E0,-2.4798967E-2,-0E0,-0E0,5.6E3,1.4789129E-2,-0E0],"split_indices":[20,9,3,0,0,0,25,0,0],"split_type":[0,0,0,0,0,0,0,0,0],"sum_hessian":[1.24E2,4.2E1,8.2E1,2E1,2.2E1,2.6E1,5.6E1,4.6E1,1E1],"tree_param":{"num_deleted":"0","num_feature":"43","num_nodes":"9","size_leaf_vector":"1"}},{"base_weights":[-3.1579253E-3,-1.2568726E-1,1.4805992E-2,-2.9520896E-1,-0E0,-2.6281523E-2,-3.3343025E-4,-1.02375625E-2,3.6521114E-2,-3.9219353E-3,6.696115E-3],"categories":[],"categories_nodes":[],"categories_segments":[],"categories_sizes":[],"default_left":[0,0,0,0,0,0,0,0,0,0,0],"id":22,"left_children":[1,3,-1,5,7,-1,-1,-1,9,-1,-1],"loss_changes":[3.9346538E0,1.6405096E0,0E0,8.262429E-1,5.7097065E-1,0E0,0E0,0E0,4.7043997E-1,0E0,0E0],"parents":[2147483647,0,0,1,1,3,3,4,4,8,8],"right_children":[2,4,-1,6,8,-1,-1,-1,10,-1,-1],"split_conditions":[4.729996E-4,8E0,1.4805992E-2,6.4047164E-1,-3.242217E0,-2.6281523E-2,-3.3343025E-4,-1.02375625E-2,1.8198822E-1,-3.9219353E-3,6.696115E-3],"split_indices":[19,8,0,20,3,0,0,0,23,0,0],"split_type":[0,0,0,0,0,0,0,0,0,0,0],"sum_hessian":[1.27E2,9.1E1,3.6E1,3.3E1,5.8E1,1.7E1,1.6E1,1.4E1,4.4E1,1E1,3.4E1],"tree_param":{"num_deleted":"0","num_feature":"43","num_nodes":"11","size_leaf_vector":"1"}},{"base_weights":[-0E0,-2.818367E-1,8.284985E-2,-0E0,-2.3966175E-2,-0E0,1.2908787E-2,-7.911469E-3,9.840619E-2,1.0599161E-2,-0E0],"categories":[],"categories_nodes":[],"categories_segments":[],"categories_sizes":[],"default_left":[0,0,0,0,0,0,0,0,0,0,0],"id":23,"left_children":[1,3,5,-1,-1,7,-1,-1,9,-1,-1],"loss_changes":[2.9892888E0,8.2756114E-1,1.1180928E0,0E0,0E0,9.1558516E-1,0E0,0E0,4.4105545E-1,0E0,0E0],"parents":[2147483647,0,0,1,1,2,2,5,5,8,8],"right_children":[2,4,6,-1,-1,8,-1,-1,10,-1,-1],"split_conditions":[5.82142E-5,8.917368E-2,4.729996E-4,-0E0,-2.3966175E-2,8E0,1.2908787E-2,-7.911469E-3,2.3929365E-1,1.0599161E-2,-0E0],"split_indices":[19,4,19,0,0,8,0,0,4,0,0],"split_type":[0,0,0,0,0,0,0,0,0,0,0],"sum_hessian":[1.25E2,2.6E1,9.9E1,1E1,1.6E1,6.4E1,3.5E1,2.6E1,3.8E1,2.3E1,1.5E1],"tree_param":{"num_deleted":"0","num_feature":"43","num_nodes":"11","size_leaf_vector":"1"}},{"base_weights":[-0E0,-1.703795E-2,6.8435036E-2,2.0429671E-1,-0E0,-0E0,3.018263E-1,-9.0527736E-2,9.131738E-3,-0E0,2.4396881E-2,-1.5244825E-2,4.7372046E-4],"categories":[],"categories_nodes":[],"categories_segments":[],"categories_sizes":[],"default_left":[0,0,0,0,0,0,0,0,0,0,0,0,0],"id":24,"left_children":[1,-1,3,5,7,-1,9,11,-1,-1,-1,-1,-1],"loss_changes":[2.8103971E0,0E0,1.1809282E0,1.0552652E0,8.9273006E-1,0E0,5.131285E-1,1.206197E0,0E0,0E0,0E0,0E0,0E0],"parents":[2147483647,0,0,2,2,3,3,4,4,6,6,7,7],"right_children":[2,-1,4,6,8,-1,10,12,-1,-1,-1,-1,-1],"split_conditions":[5.82142E-5,-1.703795E-2,-1.6096135E0,1.19757235E-4,1.8229882E-1,-0E0,-2.130098E0,1.329E3,9.131738E-3,-0E0,2.4396881E-2,-1.5244825E-2,4.7372046E-4],"split_indices":[19,0,0,19,6,0,3,14,0,0,0,0,0],"split_type":[0,0,0,0,0,0,0,0,0,0,0,0,0],"sum_hessian":[1.25E2,2.5E1,1E2,3.7E1,6.3E1,1E1,2.7E1,4.5E1,1.8E1,1.1E1,1.6E1,2.1E1,2.4E1],"tree_param":{"num_deleted":"0","num_feature":"43","num_nodes":"13","size_leaf_vector":"1"}},{"base_weights":[1.4578605E-2,-2.7648522E-2,1.898421E-1,-9.050751E-2,9.062813E-3,-0E0,1.6474372E-2,-2.0174882E-1,-0E0,-0E0,-2.0483278E-2],"categories":[],"categories_nodes":[],"categories_segments":[],"categories_sizes":[],"default_left":[0,0,0,0,0,0,0,0,0,0,0],"id":25,"left_children":[1,3,5,7,-1,-1,-1,9,-1,-1,-1],"loss_changes":[1.2314882E0,1.0643138E0,6.0283315E-1,9.5097625E-1,0E0,0E0,0E0,1.1398852E0,0E0,0E0,0E0],"parents":[2147483647,0,0,1,1,2,2,3,3,7,7],"right_children":[2,4,6,8,-1,-1,-1,10,-1,-1,-1],"split_conditions":[1.9994143E-1,-8.503979E-1,2.2476526E-4,8E0,9.062813E-3,-0E0,1.6474372E-2,6.014526E0,-0E0,-0E0,-2.0483278E-2],"split_indices":[6,1,19,8,0,0,0,26,0,0,0],"split_type":[0,0,0,0,0,0,0,0,0,0,0],"sum_hessian":[1.26E2,9.6E1,3E1,7.9E1,1.7E1,1E1,2E1,3.7E1,4.2E1,1.7E1,2E1],"tree_param":{"num_deleted":"0","num_feature":"43","num_nodes":"11","size_leaf_vector":"1"}},{"base_weights":[-0E0,-4.6281233E-2,1.5776934E-2,-1.2389937E-1,3.8745122E-3,-2.2067079E-1,1.019615E-3,-1.7909814E-2,-0E0],"categories":[],"categories_nodes":[],"categories_segments":[],"categories_sizes":[],"default_left":[0,0,0,0,0,0,0,0,0],"id":26,"left_children":[1,3,-1,5,-1,7,-1,-1,-1],"loss_changes":[1.8712356E0,1.0640012E0,0E0,1.349684E0,0E0,5.601177E-1,0E0,0E0,0E0],"parents":[2147483647,0,0,1,1,3,3,5,5],"right_children":[2,4,-1,6,-1,8,-1,-1,-1],"split_conditions":[1.730617E-1,-1.4979897E0,1.5776934E-2,1.6638593E3,3.8745122E-3,1.8056649E-1,1.019615E-3,-1.7909814E-2,-0E0],"split_indices":[7,2,0,15,0,5,0,0,0],"split_type":[0,0,0,0,0,0,0,0,0],"sum_hessian":[1.26E2,1.06E2,2E1,7.1E1,3.5E1,4.8E1,2.3E1,3E1,1.8E1],"tree_param":{"num_deleted":"0","num_feature":"43","num_nodes":"9","size_leaf_vector":"1"}},{"base_weights":[-1.6098349E-4,3.2245807E-2,-2.303716E-2,-1.581177E-3,1.0564646E-2,-1.1402669E-1,5.6916922E-2,-2.2509623E-2,1.2234325E-3,-5.260297E-4,7.920277E-3],"categories":[],"categories_nodes":[],"categories_segments":[],"categories_sizes":[],"default_left":[0,0,0,0,0,0,0,0,0,0,0],"id":27,"left_children":[1,3,-1,5,-1,7,9,-1,-1,-1,-1],"loss_changes":[2.237485E0,8.7062365E-1,0E0,6.9537437E-1,0E0,2.0845816E0,4.6663046E-1,0E0,0E0,0E0,0E0],"parents":[2147483647,0,0,1,1,3,3,5,5,6,6],"right_children":[2,4,-1,6,-1,8,10,-1,-1,-1,-1],"split_conditions":[4.2E2,-1.3815771E0,-2.303716E-2,8E0,1.0564646E-2,7.056143E-1,-2.3559365E0,-2.2509623E-2,1.2234325E-3,-5.260297E-4,7.920277E-3],"split_indices":[16,2,0,8,0,20,1,0,0,0,0],"split_type":[0,0,0,0,0,0,0,0,0,0,0],"sum_hessian":[1.25E2,1.14E2,1.1E1,8.6E1,2.8E1,3.8E1,4.8E1,1.5E1,2.3E1,1.6E1,3.2E1],"tree_param":{"num_deleted":"0","num_feature":"43","num_nodes":"11","size_leaf_vector":"1"}},{"base_weights":[-0E0,-1.3274951E-1,1.11059144E-1,-1.2519451E-2,-0E0,1.4803949E-2,-0E0,-6.9816434E-3,7.6214254E-2,-0E0,9.885113E-3],"categories":[],"categories_nodes":[],"categories_segments":[],"categories_sizes":[],"default_left":[0,0,0,0,0,0,0,0,0,0,0],"id":28,"left_children":[1,3,5,-1,-1,-1,7,-1,9,-1,-1],"loss_changes":[1.8593473E0,8.056308E-1,9.7379106E-1,0E0,0E0,0E0,4.1896862E-1,0E0,4.1838878E-1,0E0,0E0],"parents":[2147483647,0,0,1,1,2,2,6,6,8,8],"right_children":[2,4,6,-1,-1,-1,8,-1,10,-1,-1],"split_conditions":[9.701656E-1,-1.704311E0,6E2,-1.2519451E-2,-0E0,1.4803949E-2,7E0,-6.9816434E-3,1.0284919E0,-0E0,9.885113E-3],"split_indices":[21,1,11,0,0,0,9,0,21,0,0],"split_type":[0,0,0,0,0,0,0,0,0,0,0],"sum_hessian":[1.22E2,5.1E1,7.1E1,3.6E1,1.5E1,2.7E1,4.4E1,1.3E1,3.1E1,1.2E1,1.9E1],"tree_param":{"num_deleted":"0","num_feature":"43","num_nodes":"11","size_leaf_vector":"1"}},{"base_weights":[-0E0,-1.5803148E-1,9.441078E-2,-1.8548572E-2,-0E0,1.2934074E-2,-0E0,-8.232825E-3,4.798047E-3,-6.4473576E-3,7.3261306E-2,1.0663373E-2,-0E0],"categories":[],"categories_nodes":[],"categories_segments":[],"categories_sizes":[],"default_left":[0,0,0,0,0,0,0,0,0,0,0,0,0],"id":29,"left_children":[1,3,5,-1,7,-1,9,-1,-1,-1,11,-1,-1],"loss_changes":[1.9846306E0,9.4550776E-1,1.0109291E0,0E0,4.210099E-1,0E0,4.378103E-1,0E0,0E0,0E0,4.082337E-1,0E0,0E0],"parents":[2147483647,0,0,1,1,2,2,4,4,6,6,10,10],"right_children":[2,4,6,-1,8,-1,10,-1,-1,-1,12,-1,-1],"split_conditions":[5.802411E-1,9E0,-1.4442164E0,-1.8548572E-2,-2.9038646E0,1.2934074E-2,1.4702858E3,-8.232825E-3,4.798047E-3,-6.4473576E-3,-1.7055873E0,1.0663373E-2,-0E0],"split_indices":[20,8,0,0,3,0,24,0,0,0,1,0,0],"split_type":[0,0,0,0,0,0,0,0,0,0,0,0,0],"sum_hessian":[1.29E2,4.6E1,8.3E1,1.9E1,2.7E1,3.4E1,4.9E1,1.3E1,1.4E1,1.9E1,3E1,1.5E1,1.5E1],"tree_param":{"num_deleted":"0","num_feature":"43","num_nodes":"13","size_leaf_vector":"1"}},{"base_weights":[-0E0,3.9394073E-2,-2.1003526E-2,-1.0571308E-1,9.508452E-2,-1.2333284E-2,-0E0,1.8820508E-1,-0E0,-0E0,1.5713653E-2,-5.7081867E-2,9.82814E-3,-7.139718E-3,-0E0],"categories":[],"categories_nodes":[],"categories_segments":[],"categories_sizes":[],"default_left":[0,0,0,0,0,0,0,0,0,0,0,0,0,0,0],"id":30,"left_children":[1,3,-1,5,7,-1,-1,9,11,-1,-1,13,-1,-1,-1],"loss_changes":[2.0627155E0,9.3113446E-1,0E0,3.2896024E-1,7.2235847E-1,0E0,0E0,4.2821324E-1,5.6407946E-1,0E0,0E0,2.856644E-1,0E0,0E0,0E0],"parents":[2147483647,0,0,1,1,3,3,4,4,7,7,8,8,11,11],"right_children":[2,4,-1,6,8,-1,-1,10,12,-1,-1,14,-1,-1,-1],"split_conditions":[4.2E2,7E0,-2.1003526E-2,1.1259369E-2,-1.5154136E0,-1.2333284E-2,-0E0,-2.318421E0,4.5773352E-4,-0E0,1.5713653E-2,1E1,9.82814E-3,-7.139718E-3,-0E0],"split_indices":[16,8,0,27,0,0,0,3,19,0,0,8,0,0,0],"split_type":[0,0,0,0,0,0,0,0,0,0,0,0,0,0,0],"sum_hessian":[1.23E2,1.11E2,1.2E1,2.2E1,8.9E1,1.1E1,1.1E1,4.1E1,4.8E1,1.6E1,2.5E1,3.5E1,1.3E1,2.5E1,1E1],"tree_param":{"num_deleted":"0","num_feature":"43","num_nodes":"15","size_leaf_vector":"1"}},{"base_weights":[-0E0,-1.8842278E-1,5.964509E-2,-0E0,-1.6414735E-2,-1.7378018E-3,1.01331174E-1,4.6181848E-4,1.2649993E-2],"categories":[],"categories_nodes":[],"categories_segments":[],"categories_sizes":[],"default_left":[0,0,0,0,0,0,0,0,0],"id":31,"left_children":[1,3,5,-1,-1,-1,7,-1,-1],"loss_changes":[1.4037411E0,2.836051E-1,5.220195E-1,0E0,0E0,0E0,5.443219E-1,0E0,0E0],"parents":[2147483647,0,0,1,1,2,2,6,6],"right_children":[2,4,6,-1,-1,-1,8,-1,-1],"split_conditions":[5.82142E-5,2.8185189E-2,7E0,-0E0,-1.6414735E-2,-1.7378018E-3,-1.966403E0,4.6181848E-4,1.2649993E-2],"split_indices":[19,22,8,0,0,0,3,0,0],"split_type":[0,0,0,0,0,0,0,0,0],"sum_hessian":[1.3E2,2.6E1,1.04E2,1.2E1,1.4E1,2.1E1,8.3E1,5.5E1,2.8E1],"tree_param":{"num_deleted":"0","num_feature":"43","num_nodes":"9","size_leaf_vector":"1"}},{"base_weights":[-2.5031896E-2,-0E0,-1.8643972E-2,1.3945207E-1,-7.697372E-2,-0E0,1.2388097E-2,7.8513916E-4,-1.7687038E-1,-1.4126865E-2,-0E0],"categories":[],"categories_nodes":[],"categories_segments":[],"categories_sizes":[],"default_left":[0,0,0,0,0,0,0,0,0,0,0],"id":32,"left_children":[1,3,-1,5,7,-1,-1,-1,9,-1,-1],"loss_changes":[1.404119E0,1.3947144E0,0E0,3.06261E-1,9.2001E-1,0E0,0E0,0E0,4.911033E-1,0E0,0E0],"parents":[2147483647,0,0,1,1,3,3,4,4,8,8],"right_children":[2,4,-1,6,8,-1,-1,-1,10,-1,-1],"split_conditions":[4.1E2,-1.5135422E0,-1.8643972E-2,7.936321E-2,5.917628E0,-0E0,1.2388097E-2,7.8513916E-4,1E1,-1.4126865E-2,-0E0],"split_indices":[16,0,0,7,26,0,0,0,8,0,0],"split_type":[0,0,0,0,0,0,0,0,0,0,0],"sum_hessian":[1.28E2,1.16E2,1.2E1,4.7E1,6.9E1,2.1E1,2.6E1,2.9E1,4E1,2.9E1,1.1E1],"tree_param":{"num_deleted":"0","num_feature":"43","num_nodes":"11","size_leaf_vector":"1"}},{"base_weights":[-0E0,-1.5052613E-2,4.8919823E-2,-8.7470503E-4,1.16022326E-1,8.975487E-3,-1.14892036E-1,-0E0,9.155232E-3,-0E0,-1.6391808E-2],"categories":[],"categories_nodes":[],"categories_segments":[],"categories_sizes":[],"default_left":[0,0,0,0,0,0,0,0,0,0,0],"id":33,"left_children":[1,-1,3,5,7,-1,9,-1,-1,-1,-1],"loss_changes":[1.8798331E0,0E0,5.474061E-1,8.770259E-1,3.7430853E-1,0E0,8.174257E-1,0E0,0E0,0E0,0E0],"parents":[2147483647,0,0,2,2,3,3,4,4,6,6],"right_children":[2,-1,4,6,8,-1,10,-1,-1,-1,-1],"split_conditions":[5.82142E-5,-1.5052613E-2,1.6442858E3,4.5E2,5.5111533E-1,8.975487E-3,6E0,-0E0,9.155232E-3,-0E0,-1.6391808E-2],"split_indices":[19,0,24,11,20,0,12,0,0,0,0],"split_type":[0,0,0,0,0,0,0,0,0,0,0],"sum_hessian":[1.27E2,2.2E1,1.05E2,4.8E1,5.7E1,1.4E1,3.4E1,1.1E1,4.6E1,2E1,1.4E1],"tree_param":{"num_deleted":"0","num_feature":"43","num_nodes":"11","size_leaf_vector":"1"}},{"base_weights":[-0E0,2.5193447E-2,-1.6395343E-2,8.226181E-3,-4.484689E-2,2.39646E-3,-1.4429767E-1,-1.5103635E-2,-0E0],"categories":[],"categories_nodes":[],"categories_segments":[],"categories_sizes":[],"default_left":[0,0,0,0,0,0,0,0,0],"id":34,"left_children":[1,3,-1,-1,5,-1,7,-1,-1],"loss_changes":[1.3008746E0,1.108224E0,0E0,0E0,7.447244E-1,0E0,5.403823E-1,0E0,0E0],"parents":[2147483647,0,0,1,1,4,4,6,6],"right_children":[2,4,-1,-1,6,-1,8,-1,-1],"split_conditions":[4.2E2,-1.4442164E0,-1.6395343E-2,8.226181E-3,5.917628E0,2.39646E-3,1.8841E4,-1.5103635E-2,-0E0],"split_indices":[16,0,0,0,26,0,13,0,0],"split_type":[0,0,0,0,0,0,0,0,0],"sum_hessian":[1.27E2,1.14E2,1.3E1,5.1E1,6.3E1,2.6E1,3.7E1,1.8E1,1.9E1],"tree_param":{"num_deleted":"0","num_feature":"43","num_nodes":"9","size_leaf_vector":"1"}},{"base_weights":[7.435483E-3,-1.00966E-1,9.2733175E-2,-1.9432332E-1,-0E0,2.2078446E-1,-0E0,-1.7523838E-2,-0E0,-0E0,1.9303897E-2,5.0255605E-3,-5.345915E-3],"categories":[],"categories_nodes":[],"categories_segments":[],"categories_sizes":[],"default_left":[0,0,0,0,0,0,0,0,0,0,0,0,0],"id":35,"left_children":[1,3,5,7,-1,9,11,-1,-1,-1,-1,-1,-1],"loss_changes":[1.1859245E0,5.154574E-1,8.566225E-1,3.8812983E-1,0E0,6.858424E-1,4.2076808E-1,0E0,0E0,0E0,0E0,0E0,0E0],"parents":[2147483647,0,0,1,1,2,2,3,3,5,5,6,6],"right_children":[2,4,6,8,-1,10,12,-1,-1,-1,-1,-1,-1],"split_conditions":[9.701656E-1,1E1,-1.5154136E0,9.007667E-1,-0E0,-2.130098E0,5.917628E0,-1.7523838E-2,-0E0,-0E0,1.9303897E-2,5.0255605E-3,-5.345915E-3],"split_indices":[21,8,0,21,0,3,26,0,0,0,0,0,0],"split_type":[0,0,0,0,0,0,0,0,0,0,0,0,0],"sum_hessian":[1.24E2,4.6E1,7.8E1,2.4E1,2.2E1,2.9E1,4.9E1,1.3E1,1.1E1,1.1E1,1.8E1,2.8E1,2.1E1],"tree_param":{"num_deleted":"0","num_feature":"43","num_nodes":"13","size_leaf_vector":"1"}},{"base_weights":[-0E0,-4.499548E-2,1.8416323E-1,-1.511812E-1,3.927651E-2,1.7530072E-2,-0E0,-1.5880842E-2,1.0037327E-3,-0E0,7.633854E-3],"categories":[],"categories_nodes":[],"categories_segments":[],"categories_sizes":[],"default_left":[0,0,0,0,0,0,0,0,0,0,0],"id":36,"left_children":[1,3,5,7,9,-1,-1,-1,-1,-1,-1],"loss_changes":[1.2458467E0,1.0827831E0,7.995099E-1,1.4753525E0,3.2498387E-1,0E0,0E0,0E0,0E0,0E0,0E0],"parents":[2147483647,0,0,1,1,2,2,3,3,4,4],"right_children":[2,4,6,8,10,-1,-1,-1,-1,-1,-1],"split_conditions":[8.0319625E-1,-2.043292E0,8.896843E-1,1.6638593E3,1.0276825E0,1.7530072E-2,-0E0,-1.5880842E-2,1.0037327E-3,-0E0,7.633854E-3],"split_indices":[20,2,20,15,21,0,0,0,0,0,0],"split_type":[0,0,0,0,0,0,0,0,0,0,0],"sum_hessian":[1.24E2,9.6E1,2.8E1,5E1,4.6E1,1.8E1,1E1,3.4E1,1.6E1,2.5E1,2.1E1],"tree_param":{"num_deleted":"0","num_feature":"43","num_nodes":"11","size_leaf_vector":"1"}},{"base_weights":[-5.555219E-4,-1.0824651E-1,6.418189E-2,-1.7801648E-1,-0E0,1.8267226E-1,-0E0,-0E0,-1.43987E-2,1.8739644E-2,-0E0],"categories":[],"categories_nodes":[],"categories_segments":[],"categories_sizes":[],"default_left":[0,0,0,0,0,0,0,0,0,0,0],"id":37,"left_children":[1,3,5,7,-1,9,-1,-1,-1,-1,-1],"loss_changes":[9.8935336E-1,4.144972E-1,7.6223063E-1,3.8005996E-1,0E0,8.440013E-1,0E0,0E0,0E0,0E0,0E0],"parents":[2147483647,0,0,1,1,2,2,3,3,5,5],"right_children":[2,4,6,8,-1,10,-1,-1,-1,-1,-1],"split_conditions":[9.701656E-1,1.8841E4,-1.5154136E0,1.1428572E3,-0E0,7.035543E-2,-0E0,-0E0,-1.43987E-2,1.8739644E-2,-0E0],"split_indices":[21,13,0,25,0,22,0,0,0,0,0],"split_type":[0,0,0,0,0,0,0,0,0,0,0],"sum_hessian":[1.26E2,5.6E1,7E1,3.2E1,2.4E1,2.9E1,4.1E1,1E1,2.2E1,1.6E1,1.3E1],"tree_param":{"num_deleted":"0","num_feature":"43","num_nodes":"11","size_leaf_vector":"1"}},{"base_weights":[-0E0,-9.243563E-2,5.3508963E-2,-1.472002E-2,-0E0,-2.9614876E-4,1.602032E-1,1.33131435E-2,-0E0],"categories":[],"categories_nodes":[],"categories_segments":[],"categories_sizes":[],"default_left":[0,0,0,0,0,0,0,0,0],"id":38,"left_children":[1,3,5,-1,-1,-1,7,-1,-1],"loss_changes":[7.1132106E-1,5.03224E-1,7.463888E-1,0E0,0E0,0E0,3.9977896E-1,0E0,0E0],"parents":[2147483647,0,0,1,1,2,2,6,6],"right_children":[2,4,6,-1,-1,-1,8,-1,-1],"split_conditions":[9.701656E-1,8E0,1.28E3,-1.472002E-2,-0E0,-2.9614876E-4,1.6269872E-2,1.33131435E-2,-0E0],"split_indices":[21,8,14,0,0,0,27,0,0],"split_type":[0,0,0,0,0,0,0,0,0],"sum_hessian":[1.3E2,5.4E1,7.6E1,1.3E1,4.1E1,4.1E1,3.5E1,2.4E1,1.1E1],"tree_param":{"num_deleted":"0","num_feature":"43","num_nodes":"9","size_leaf_vector":"1"}},{"base_weights":[-3.6380594E-3,2.904815E-2,-1.6281308E-1,1.5274572E-1,-7.5125274E-5,-1.6625764E-2,-0E0,-0E0,1.3467381E-2,-9.3247496E-2,1.7611443E-3,-0E0,-1.046605E-2],"categories":[],"categories_nodes":[],"categories_segments":[],"categories_sizes":[],"default_left":[0,0,0,0,0,0,0,0,0,0,0,0,0],"id":39,"left_children":[1,3,5,7,9,-1,-1,-1,-1,11,-1,-1,-1],"loss_changes":[9.007131E-1,6.1096895E-1,6.8311507E-1,2.884695E-1,3.1687367E-1,0E0,0E0,0E0,0E0,4.1251883E-1,0E0,0E0,0E0],"parents":[2147483647,0,0,1,1,2,2,3,3,4,4,9,9],"right_children":[2,4,6,8,10,-1,-1,-1,-1,12,-1,-1,-1],"split_conditions":[8.450602E0,1.4444445E3,1.0099344E-1,9.5E2,1.794625E3,-1.6625764E-2,-0E0,-0E0,1.3467381E-2,4.8524E0,1.7611443E-3,-0E0,-1.046605E-2],"split_indices":[26,25,5,25,24,0,0,0,0,26,0,0,0],"split_type":[0,0,0,0,0,0,0,0,0,0,0,0,0],"sum_hessian":[1.26E2,9.8E1,2.8E1,2.7E1,7.1E1,1.6E1,1.2E1,1.1E1,1.6E1,2.9E1,4.2E1,1E1,1.9E1],"tree_param":{"num_deleted":"0","num_feature":"43","num_nodes":"13","size_leaf_vector":"1"}},{"base_weights":[-0E0,-7.77041E-2,5.7616797E-3,-9.464598E-3,4.9737206E-4],"categories":[],"categories_nodes":[],"categories_segments":[],"categories_sizes":[],"default_left":[0,0,0,0,0],"id":40,"left_children":[1,3,-1,-1,-1],"loss_changes":[1.0122576E0,7.71469E-1,0E0,0E0,0E0],"parents":[2147483647,0,0,1,1],"right_children":[2,4,-1,-1,-1],"split_conditions":[2.2476526E-4,1.6638593E3,5.7616797E-3,-9.464598E-3,4.9737206E-4],"split_indices":[19,15,0,0,0],"split_type":[0,0,0,0,0],"sum_hessian":[1.27E2,7E1,5.7E1,4.4E1,2.6E1],"tree_param":{"num_deleted":"0","num_feature":"43","num_nodes":"5","size_leaf_vector":"1"}},{"base_weights":[-0E0,-6.022303E-2,1.1071426E-1,-1.451504E-1,-0E0,1.120222E-2,-0E0,-1.3608378E-2,-0E0,-4.8361383E-3,4.650758E-3],"categories":[],"categories_nodes":[],"categories_segments":[],"categories_sizes":[],"default_left":[0,0,0,0,0,0,0,0,0,0,0],"id":41,"left_children":[1,3,5,7,9,-1,-1,-1,-1,-1,-1],"loss_changes":[8.004383E-1,6.5002686E-1,5.429605E-1,5.522822E-1,3.3113816E-1,0E0,0E0,0E0,0E0,0E0,0E0],"parents":[2147483647,0,0,1,1,2,2,3,3,4,4],"right_children":[2,4,6,8,10,-1,-1,-1,-1,-1,-1],"split_conditions":[7.582646E-1,9E0,8.896843E-1,-1.9164639E0,5.6871486E-5,1.120222E-2,-0E0,-1.3608378E-2,-0E0,-4.8361383E-3,4.650758E-3],"split_indices":[20,8,20,2,19,0,0,0,0,0,0],"split_type":[0,0,0,0,0,0,0,0,0,0,0],"sum_hessian":[1.25E2,9E1,3.5E1,4.4E1,4.6E1,2.5E1,1E1,2.6E1,1.8E1,1.5E1,3.1E1],"tree_param":{"num_deleted":"0","num_feature":"43","num_nodes":"11","size_leaf_vector":"1"}},{"base_weights":[-0E0,-7.3951006E-2,7.72576E-2,-1.5290447E-1,1.3938037E-3,-0E0,1.1017495E-2,-1.3792912E-2,-0E0],"categories":[],"categories_nodes":[],"categories_segments":[],"categories_sizes":[],"default_left":[0,0,0,0,0,0,0,0,0],"id":42,"left_children":[1,3,5,7,-1,-1,-1,-1,-1],"loss_changes":[7.31563E-1,7.8125125E-1,3.606383E-1,3.6109304E-1,0E0,0E0,0E0,0E0,0E0],"parents":[2147483647,0,0,1,1,2,2,3,3],"right_children":[2,4,6,8,-1,-1,-1,-1,-1],"split_conditions":[2.8200095E-4,1.6638593E3,-1.3041928E0,3.7607566E-2,1.3938037E-3,-0E0,1.1017495E-2,-1.3792912E-2,-0E0],"split_indices":[19,15,2,22,0,0,0,0,0],"split_type":[0,0,0,0,0,0,0,0,0],"sum_hessian":[1.23E2,7E1,5.3E1,4.7E1,2.3E1,3.6E1,1.7E1,2.5E1,2.2E1],"tree_param":{"num_deleted":"0","num_feature":"43","num_nodes":"9","size_leaf_vector":"1"}},{"base_weights":[-0E0,3.7532896E-2,-1.3251489E-2,-2.3231097E-2,1.06313385E-1,-8.715732E-3,-0E0,9.310165E-3,-0E0],"categories":[],"categories_nodes":[],"categories_segments":[],"categories_sizes":[],"default_left":[0,0,0,0,0,0,0,0,0],"id":43,"left_children":[1,3,-1,5,7,-1,-1,-1,-1],"loss_changes":[8.141183E-1,6.3007796E-1,0E0,3.8437662E-1,5.5324614E-1,0E0,0E0,0E0,0E0],"parents":[2147483647,0,0,1,1,3,3,4,4],"right_children":[2,4,-1,6,8,-1,-1,-1,-1],"split_conditions":[4.2E2,8E0,-1.3251489E-2,6.694028E-1,-7.2479695E-1,-8.715732E-3,-0E0,9.310165E-3,-0E0],"split_indices":[16,8,0,20,0,0,0,0,0],"split_type":[0,0,0,0,0,0,0,0,0],"sum_hessian":[1.24E2,1.14E2,1E1,4.9E1,6.5E1,1.6E1,3.3E1,5E1,1.5E1],"tree_param":{"num_deleted":"0","num_feature":"43","num_nodes":"9","size_leaf_vector":"1"}},{"base_weights":[-0E0,-5.0213416E-3,6.302416E-2,2.024573E-1,-0E0,-0E0,1.8718613E-2,4.404536E-3,-8.195818E-3],"categories":[],"categories_nodes":[],"categories_segments":[],"categories_sizes":[],"default_left":[0,0,0,0,0,0,0,0,0],"id":44,"left_children":[1,-1,3,5,7,-1,-1,-1,-1],"loss_changes":[7.122047E-1,0E0,8.224925E-1,3.981477E-1,5.72743E-1,0E0,0E0,0E0,0E0],"parents":[2147483647,0,0,2,2,3,3,4,4],"right_children":[2,-1,4,6,8,-1,-1,-1,-1],"split_conditions":[9.853698E-1,-5.0213416E-3,-1.5154136E0,5.8840346E0,5.917628E0,-0E0,1.8718613E-2,4.404536E-3,-8.195818E-3],"split_indices":[21,0,0,26,26,0,0,0,0],"split_type":[0,0,0,0,0,0,0,0,0],"sum_hessian":[1.24E2,5.7E1,6.7E1,2.4E1,4.3E1,1.2E1,1.2E1,2.4E1,1.9E1],"tree_param":{"num_deleted":"0","num_feature":"43","num_nodes":"9","size_leaf_vector":"1"}},{"base_weights":[-0E0,2.3594696E-2,-1.2009501E-2,7.974783E-3,-1.6090218E-2,-6.2340654E-2,4.514505E-3,5.4992223E-4,-1.06283195E-1,-1.0871551E-2,-0E0],"categories":[],"categories_nodes":[],"categories_segments":[],"categories_sizes":[],"default_left":[0,0,0,0,0,0,0,0,0,0,0],"id":45,"left_children":[1,3,-1,-1,5,7,-1,-1,9,-1,-1],"loss_changes":[6.799965E-1,7.047453E-1,0E0,0E0,3.1558126E-1,3.6114788E-1,0E0,0E0,4.7630656E-1,0E0,0E0],"parents":[2147483647,0,0,1,1,4,4,5,5,8,8],"right_children":[2,4,-1,-1,6,8,-1,-1,10,-1,-1],"split_conditions":[4.2E2,-1.6096135E0,-1.2009501E-2,7.974783E-3,2.1346022E-1,4.7024426E0,4.514505E-3,5.4992223E-4,1.8841E4,-1.0871551E-2,-0E0],"split_indices":[16,0,0,0,6,26,0,0,13,0,0],"split_type":[0,0,0,0,0,0,0,0,0,0,0],"sum_hessian":[1.23E2,1.11E2,1.2E1,3.8E1,7.3E1,6.1E1,1.2E1,1E1,5.1E1,2.9E1,2.2E1],"tree_param":{"num_deleted":"0","num_feature":"43","num_nodes":"11","size_leaf_vector":"1"}},{"base_weights":[5.537214E-3,-2.0538177E-2,9.74154E-2,-9.965458E-2,2.0190638E-3,-0E0,8.753745E-3,-0E0,-9.587974E-3],"categories":[],"categories_nodes":[],"categories_segments":[],"categories_sizes":[],"default_left":[0,0,0,0,0,0,0,0,0],"id":46,"left_children":[1,3,5,7,-1,-1,-1,-1,-1],"loss_changes":[4.5102397E-1,5.183481E-1,2.8710422E-1,5.771005E-1,0E0,0E0,0E0,0E0,0E0],"parents":[2147483647,0,0,1,1,2,2,3,3],"right_children":[2,4,6,8,-1,-1,-1,-1,-1],"split_conditions":[1.6638593E3,-2.001666E0,1.0086391E-1,1.1E2,2.0190638E-3,-0E0,8.753745E-3,-0E0,-9.587974E-3],"split_indices":[15,2,5,16,0,0,0,0,0],"split_type":[0,0,0,0,0,0,0,0,0],"sum_hessian":[1.31E2,9E1,4.1E1,4.8E1,4.2E1,1.2E1,2.9E1,1E1,3.8E1],"tree_param":{"num_deleted":"0","num_feature":"43","num_nodes":"9","size_leaf_vector":"1"}},{"base_weights":[-0E0,-3.1717483E-2,7.7511735E-2,-6.9660544E-3,1.836238E-3,-0E0,1.1475654E-2],"categories":[],"categories_nodes":[],"categories_segments":[],"categories_sizes":[],"default_left":[0,0,0,0,0,0,0],"id":47,"left_children":[1,3,5,-1,-1,-1,-1],"loss_changes":[3.4671247E-1,6.352594E-1,3.8158873E-1,0E0,0E0,0E0,0E0],"parents":[2147483647,0,0,1,1,2,2],"right_children":[2,4,6,-1,-1,-1,-1],"split_conditions":[1.6638593E3,-1.9164639E0,-2.2417397E0,-6.9660544E-3,1.836238E-3,-0E0,1.1475654E-2],"split_indices":[15,2,3,0,0,0,0],"split_type":[0,0,0,0,0,0,0],"sum_hessian":[1.26E2,8.6E1,4E1,4.6E1,4E1,2.6E1,1.4E1],"tree_param":{"num_deleted":"0","num_feature":"43","num_nodes":"7","size_leaf_vector":"1"}},{"base_weights":[-2.7070973E-2,3.921499E-3,-7.850394E-2,-0E0,-1.258009E-2,-7.47427E-3,5.1406987E-2,-0E0,6.7267898E-3],"categories":[],"categories_nodes":[],"categories_segments":[],"categories_sizes":[],"default_left":[0,0,0,0,0,0,0,0,0],"id":48,"left_children":[1,-1,3,5,-1,-1,7,-1,-1],"loss_changes":[6.1134213E-1,0E0,1.0808692E0,3.4386215E-1,0E0,0E0,3.3317536E-1,0E0,0E0],"parents":[2147483647,0,0,2,2,3,3,6,6],"right_children":[2,-1,4,6,-1,-1,8,-1,-1],"split_conditions":[5.412194E0,3.921499E-3,-1.4193697E0,1.5443324E-1,-1.258009E-2,-7.47427E-3,8E0,-0E0,6.7267898E-3],"split_indices":[26,0,0,23,0,0,8,0,0],"split_type":[0,0,0,0,0,0,0,0,0],"sum_hessian":[1.17E2,3E1,8.7E1,5.4E1,3.3E1,1.1E1,4.3E1,1.1E1,3.2E1],"tree_param":{"num_deleted":"0","num_feature":"43","num_nodes":"9","size_leaf_vector":"1"}},{"base_weights":[-0E0,-8.85087E-3,4.4444885E-2,7.292808E-3,-0E0],"categories":[],"categories_nodes":[],"categories_segments":[],"categories_sizes":[],"default_left":[0,0,0,0,0],"id":49,"left_children":[1,-1,3,-1,-1],"loss_changes":[7.9234594E-1,0E0,4.4754332E-1,0E0,0E0],"parents":[2147483647,0,0,2,2],"right_children":[2,-1,4,-1,-1],"split_conditions":[5.82142E-5,-8.85087E-3,6E2,7.292808E-3,-0E0],"split_indices":[19,0,11,0,0],"split_type":[0,0,0,0,0],"sum_hessian":[1.26E2,2.3E1,1.03E2,4E1,6.3E1],"tree_param":{"num_deleted":"0","num_feature":"43","num_nodes":"5","size_leaf_vector":"1"}},{"base_weights":[7.5932E-3,-7.6432643E-3,9.198573E-3,2.4767267E-3,-9.2333995E-2,-9.67685E-3,-0E0],"categories":[],"categories_nodes":[],"categories_segments":[],"categories_sizes":[],"default_left":[0,0,0,0,0,0,0],"id":50,"left_children":[1,3,-1,-1,5,-1,-1],"loss_changes":[5.31453E-1,5.463856E-1,0E0,0E0,5.16697E-1,0E0,0E0],"parents":[2147483647,0,0,1,1,4,4],"right_children":[2,4,-1,-1,6,-1,-1],"split_conditions":[1.730617E-1,7.008383E0,9.198573E-3,2.4767267E-3,1E1,-9.67685E-3,-0E0],"split_indices":[7,26,0,0,8,0,0],"split_type":[0,0,0,0,0,0,0],"sum_hessian":[1.24E2,1.05E2,1.9E1,5.5E1,5E1,3.3E1,1.7E1],"tree_param":{"num_deleted":"0","num_feature":"43","num_nodes":"7","size_leaf_vector":"1"}},{"base_weights":[-0E0,-7.682745E-2,4.857866E-2,1.2865002E-4,-1.0449303E-2,-3.1572422E-3,1.07263E-1,-0E0,8.929061E-3],"categories":[],"categories_nodes":[],"categories_segments":[],"categories_sizes":[],"default_left":[0,0,0,0,0,0,0,0,0],"id":51,"left_children":[1,3,5,-1,-1,-1,7,-1,-1],"loss_changes":[5.403848E-1,7.687626E-1,5.64069E-1,0E0,0E0,0E0,4.107843E-1,0E0,0E0],"parents":[2147483647,0,0,1,1,2,2,6,6],"right_children":[2,4,6,-1,-1,-1,8,-1,-1],"split_conditions":[8E0,5.412194E0,-3.242217E0,1.2865002E-4,-1.0449303E-2,-3.1572422E-3,1.8198822E-1,-0E0,8.929061E-3],"split_indices":[8,26,3,0,0,0,23,0,0],"split_type":[0,0,0,0,0,0,0,0,0],"sum_hessian":[1.32E2,5.8E1,7.4E1,2.5E1,3.3E1,1.7E1,5.7E1,1.2E1,4.5E1],"tree_param":{"num_deleted":"0","num_feature":"43","num_nodes":"9","size_leaf_vector":"1"}},{"base_weights":[1.3526328E-2,-1.8344966E-3,7.2909934E-3,-7.788473E-2,5.2447073E-2,-8.893175E-3,-0E0,-0E0,8.058072E-3],"categories":[],"categories_nodes":[],"categories_segments":[],"categories_sizes":[],"default_left":[0,0,0,0,0,0,0,0,0],"id":52,"left_children":[1,3,-1,5,7,-1,-1,-1,-1],"loss_changes":[4.183676E-1,4.8148054E-1,0E0,4.264856E-1,4.3997315E-1,0E0,0E0,0E0,0E0],"parents":[2147483647,0,0,1,1,3,3,4,4],"right_children":[2,4,-1,6,8,-1,-1,-1,-1],"split_conditions":[8.203899E-1,9E0,7.2909934E-3,1.2825641E-1,-2.1862347E0,-8.893175E-3,-0E0,-0E0,8.058072E-3],"split_indices":[20,9,0,6,1,0,0,0,0],"split_type":[0,0,0,0,0,0,0,0,0],"sum_hessian":[1.27E2,1.01E2,2.6E1,5.4E1,4.7E1,3.1E1,2.3E1,1.9E1,2.8E1],"tree_param":{"num_deleted":"0","num_feature":"43","num_nodes":"9","size_leaf_vector":"1"}},{"base_weights":[-0E0,-3.795203E-2,4.8235594E-3,3.7673772E-3,-8.9363195E-2,-8.064069E-3,-0E0],"categories":[],"categories_nodes":[],"categories_segments":[],"categories_sizes":[],"default_left":[0,0,0,0,0,0,0],"id":53,"left_children":[1,3,-1,-1,5,-1,-1],"loss_changes":[4.5826325E-1,4.599684E-1,0E0,0E0,3.0105042E-1,0E0,0E0],"parents":[2147483647,0,0,1,1,4,4],"right_children":[2,4,-1,-1,6,-1,-1],"split_conditions":[2.8200095E-4,7.131716E-2,4.8235594E-3,3.7673772E-3,1.6638593E3,-8.064069E-3,-0E0],"split_indices":[19,4,0,0,15,0,0],"split_type":[0,0,0,0,0,0,0],"sum_hessian":[1.23E2,7.4E1,4.9E1,1.4E1,6E1,4E1,2E1],"tree_param":{"num_deleted":"0","num_feature":"43","num_nodes":"7","size_leaf_vector":"1"}},{"base_weights":[-0E0,-4.1451186E-2,5.7290182E-3,4.0104478E-3,-9.073888E-2,-1.4737125E-1,-0E0,-1.1460867E-2,-0E0],"categories":[],"categories_nodes":[],"categories_segments":[],"categories_sizes":[],"default_left":[0,0,0,0,0,0,0,0,0],"id":54,"left_children":[1,3,-1,-1,5,7,-1,-1,-1],"loss_changes":[5.208459E-1,5.662458E-1,0E0,0E0,4.4968522E-1,3.8788152E-1,0E0,0E0,0E0],"parents":[2147483647,0,0,1,1,4,4,5,5],"right_children":[2,4,-1,-1,6,8,-1,-1,-1],"split_conditions":[1.6477668E3,4.5E2,5.7290182E-3,4.0104478E-3,7.056143E-1,-1.9164639E0,-0E0,-1.1460867E-2,-0E0],"split_indices":[15,11,0,0,20,2,0,0,0],"split_type":[0,0,0,0,0,0,0,0,0],"sum_hessian":[1.27E2,9.2E1,3.5E1,1.8E1,7.4E1,4.7E1,2.7E1,3.6E1,1.1E1],"tree_param":{"num_deleted":"0","num_feature":"43","num_nodes":"9","size_leaf_vector":"1"}},{"base_weights":[-4.626218E-3,-5.1037524E-2,6.6816516E-2,-6.5893442E-3,-0E0,-0E0,1.0968631E-2],"categories":[],"categories_nodes":[],"categories_segments":[],"categories_sizes":[],"default_left":[0,0,0,0,0,0,0],"id":55,"left_children":[1,3,5,-1,-1,-1,-1],"loss_changes":[3.9134827E-1,4.0215442E-1,3.8906986E-1,0E0,0E0,0E0,0E0],"parents":[2147483647,0,0,1,1,2,2],"right_children":[2,4,6,-1,-1,-1,-1],"split_conditions":[1.6638593E3,1.0284919E0,-2.4510307E0,-6.5893442E-3,-0E0,-0E0,1.0968631E-2],"split_indices":[15,21,3,0,0,0,0],"split_type":[0,0,0,0,0,0,0],"sum_hessian":[1.2E2,8.7E1,3.3E1,4.8E1,3.9E1,2E1,1.3E1],"tree_param":{"num_deleted":"0","num_feature":"43","num_nodes":"7","size_leaf_vector":"1"}},{"base_weights":[-0E0,-4.2430885E-2,9.0352856E-2,-8.791273E-2,3.1630532E-3,-0E0,1.0402348E-2,-1.2742534E-2,-2.9400672E-4],"categories":[],"categories_nodes":[],"categories_segments":[],"categories_sizes":[],"default_left":[0,0,0,0,0,0,0,0,0],"id":56,"left_children":[1,3,5,7,-1,-1,-1,-1,-1],"loss_changes":[4.1981047E-1,4.572789E-1,3.275063E-1,4.134553E-1,0E0,0E0,0E0,0E0,0E0],"parents":[2147483647,0,0,1,1,2,2,3,3],"right_children":[2,4,6,8,-1,-1,-1,-1,-1],"split_conditions":[-1.3815771E0,-8.503979E-1,-1.8413354E0,1.113125E3,3.1630532E-3,-0E0,1.0402348E-2,-1.2742534E-2,-2.9400672E-4],"split_indices":[2,1,0,24,0,0,0,0,0],"split_type":[0,0,0,0,0,0,0,0,0],"sum_hessian":[1.15E2,8.6E1,2.9E1,7E1,1.6E1,1.3E1,1.6E1,1.8E1,5.2E1],"tree_param":{"num_deleted":"0","num_feature":"43","num_nodes":"9","size_leaf_vector":"1"}},{"base_weights":[-0E0,1.865281E-2,-9.509219E-3,-1.2398685E-3,7.495875E-2,7.533446E-3,-0E0],"categories":[],"categories_nodes":[],"categories_segments":[],"categories_sizes":[],"default_left":[0,0,0,0,0,0,0],"id":57,"left_children":[1,3,-1,-1,5,-1,-1],"loss_changes":[4.2724818E-1,3.5310864E-1,0E0,0E0,4.616014E-1,0E0,0E0],"parents":[2147483647,0,0,1,1,4,4],"right_children":[2,4,-1,-1,6,-1,-1],"split_conditions":[4.2E2,8E0,-9.509219E-3,-1.2398685E-3,3.2633755E-1,7.533446E-3,-0E0],"split_indices":[16,8,0,0,4,0,0],"split_type":[0,0,0,0,0,0,0],"sum_hessian":[1.26E2,1.14E2,1.2E1,5.1E1,6.3E1,4.8E1,1.5E1],"tree_param":{"num_deleted":"0","num_feature":"43","num_nodes":"7","size_leaf_vector":"1"}},{"base_weights":[-5.935391E-3],"categories":[],"categories_nodes":[],"categories_segments":[],"categories_sizes":[],"default_left":[0],"id":58,"left_children":[-1],"loss_changes":[0E0],"parents":[2147483647],"right_children":[-1],"split_conditions":[-3.496107E-4],"split_indices":[0],"split_type":[0],"sum_hessian":[1.17E2],"tree_param":{"num_deleted":"0","num_feature":"43","num_nodes":"1","size_leaf_vector":"1"}},{"base_weights":[-3.0028017E-3],"categories":[],"categories_nodes":[],"categories_segments":[],"categories_sizes":[],"default_left":[0],"id":59,"left_children":[-1],"loss_changes":[0E0],"parents":[2147483647],"right_children":[-1],"split_conditions":[-1.7687319E-4],"split_indices":[0],"split_type":[0],"sum_hessian":[1.32E2],"tree_param":{"num_deleted":"0","num_feature":"43","num_nodes":"1","size_leaf_vector":"1"}},{"base_weights":[-0E0],"categories":[],"categories_nodes":[],"categories_segments":[],"categories_sizes":[],"default_left":[0],"id":60,"left_children":[-1],"loss_changes":[0E0],"parents":[2147483647],"right_children":[-1],"split_conditions":[-0E0],"split_indices":[0],"split_type":[0],"sum_hessian":[1.31E2],"tree_param":{"num_deleted":"0","num_feature":"43","num_nodes":"1","size_leaf_vector":"1"}},{"base_weights":[2.9684661E-3],"categories":[],"categories_nodes":[],"categories_segments":[],"categories_sizes":[],"default_left":[0],"id":61,"left_children":[-1],"loss_changes":[0E0],"parents":[2147483647],"right_children":[-1],"split_conditions":[1.7485073E-4],"split_indices":[0],"split_type":[0],"sum_hessian":[1.24E2],"tree_param":{"num_deleted":"0","num_feature":"43","num_nodes":"1","size_leaf_vector":"1"}},{"base_weights":[-0E0,-3.9528202E-2,8.134602E-3,2.0530624E-3,-9.637989E-2,-1.9823503E-1,-0E0,-0E0,-1.6259434E-2],"categories":[],"categories_nodes":[],"categories_segments":[],"categories_sizes":[],"default_left":[0,0,0,0,0,0,0,0,0],"id":62,"left_children":[1,3,-1,-1,5,7,-1,-1,-1],"loss_changes":[6.3274175E-1,5.399686E-1,0E0,0E0,7.894703E-1,5.971886E-1,0E0,0E0,0E0],"parents":[2147483647,0,0,1,1,4,4,5,5],"right_children":[2,4,-1,-1,6,8,-1,-1,-1],"split_conditions":[-1.5843511E0,5.808117E0,8.134602E-3,2.0530624E-3,1.8841E4,1.1454546E3,-0E0,-0E0,-1.6259434E-2],"split_indices":[3,26,0,0,13,25,0,0,0],"split_type":[0,0,0,0,0,0,0,0,0],"sum_hessian":[1.21E2,9.9E1,2.2E1,3.1E1,6.8E1,3.4E1,3.4E1,1E1,2.4E1],"tree_param":{"num_deleted":"0","num_feature":"43","num_nodes":"9","size_leaf_vector":"1"}},{"base_weights":[-0E0],"categories":[],"categories_nodes":[],"categories_segments":[],"categories_sizes":[],"default_left":[0],"id":63,"left_children":[-1],"loss_changes":[0E0],"parents":[2147483647],"right_children":[-1],"split_conditions":[-0E0],"split_indices":[0],"split_type":[0],"sum_hessian":[1.22E2],"tree_param":{"num_deleted":"0","num_feature":"43","num_nodes":"1","size_leaf_vector":"1"}},{"base_weights":[-8.489412E-4,4.140782E-3,-8.8373E-3,5.1631898E-2,-5.042837E-2,-0E0,7.392628E-3,-8.890278E-3,-0E0],"categories":[],"categories_nodes":[],"categories_segments":[],"categories_sizes":[],"default_left":[0,0,0,0,0,0,0,0,0],"id":64,"left_children":[1,3,-1,5,7,-1,-1,-1,-1],"loss_changes":[3.358382E-1,3.1729272E-1,0E0,4.5920858E-1,3.2519126E-1,0E0,0E0,0E0,0E0],"parents":[2147483647,0,0,1,1,3,3,4,4],"right_children":[2,4,-1,6,8,-1,-1,-1,-1],"split_conditions":[4.2E2,1.6269872E-2,-8.8373E-3,1.1866178E3,1.0047E4,-0E0,7.392628E-3,-8.890278E-3,-0E0],"split_indices":[16,27,0,15,13,0,0,0,0],"split_type":[0,0,0,0,0,0,0,0,0],"sum_hessian":[1.28E2,1.16E2,1.2E1,7.8E1,3.8E1,3.8E1,4E1,1.6E1,2.2E1],"tree_param":{"num_deleted":"0","num_feature":"43","num_nodes":"9","size_leaf_vector":"1"}},{"base_weights":[-0E0,1.0761368E-2,-8.416189E-3,-4.2208107E-3,4.8337273E-2,-0E0,5.1326207E-3],"categories":[],"categories_nodes":[],"categories_segments":[],"categories_sizes":[],"default_left":[0,0,0,0,0,0,0],"id":65,"left_children":[1,3,-1,-1,5,-1,-1],"loss_changes":[3.1659368E-1,3.4000272E-1,0E0,0E0,3.0398762E-1,0E0,0E0],"parents":[2147483647,0,0,1,1,4,4],"right_children":[2,4,-1,-1,6,-1,-1],"split_conditions":[4.2E2,7E0,-8.416189E-3,-4.2208107E-3,5.196285E-2,-0E0,5.1326207E-3],"split_indices":[16,8,0,0,7,0,0],"split_type":[0,0,0,0,0,0,0],"sum_hessian":[1.28E2,1.16E2,1.2E1,2.2E1,9.4E1,2.7E1,6.7E1],"tree_param":{"num_deleted":"0","num_feature":"43","num_nodes":"7","size_leaf_vector":"1"}},{"base_weights":[-0E0,-2.9415801E-2,4.6438817E-3,7.0904015E-4,-1.03262765E-2],"categories":[],"categories_nodes":[],"categories_segments":[],"categories_sizes":[],"default_left":[0,0,0,0,0],"id":66,"left_children":[1,3,-1,-1,-1],"loss_changes":[3.2807997E-1,7.8997195E-1,0E0,0E0,0E0],"parents":[2147483647,0,0,1,1],"right_children":[2,4,-1,-1,-1],"split_conditions":[1.6638593E3,1.3502876E3,4.6438817E-3,7.0904015E-4,-1.03262765E-2],"split_indices":[15,15,0,0,0],"split_type":[0,0,0,0,0],"sum_hessian":[1.21E2,8.3E1,3.8E1,5.8E1,2.5E1],"tree_param":{"num_deleted":"0","num_feature":"43","num_nodes":"5","size_leaf_vector":"1"}},{"base_weights":[1.758659E-2],"categories":[],"categories_nodes":[],"categories_segments":[],"categories_sizes":[],"default_left":[0],"id":67,"left_children":[-1],"loss_changes":[0E0],"parents":[2147483647],"right_children":[-1],"split_conditions":[1.0358981E-3],"split_indices":[0],"split_type":[0],"sum_hessian":[1.29E2],"tree_param":{"num_deleted":"0","num_feature":"43","num_nodes":"1","size_leaf_vector":"1"}},{"base_weights":[-0E0,-2.3426186E-2,5.5159368E-3,-8.5698746E-2,1.8460184E-2,-8.902853E-3,-0E0,-8.223575E-3,7.782339E-3],"categories":[],"categories_nodes":[],"categories_segments":[],"categories_sizes":[],"default_left":[0,0,0,0,0,0,0,0,0],"id":68,"left_children":[1,3,-1,5,7,-1,-1,-1,-1],"loss_changes":[3.09833E-1,3.8440365E-1,0E0,4.8524266E-1,9.174948E-1,0E0,0E0,0E0,0E0],"parents":[2147483647,0,0,1,1,3,3,4,4],"right_children":[2,4,-1,6,8,-1,-1,-1,-1],"split_conditions":[8.203899E-1,9E0,5.5159368E-3,-1.5339652E0,-3.242217E0,-8.902853E-3,-0E0,-8.223575E-3,7.782339E-3],"split_indices":[20,8,0,2,3,0,0,0,0],"split_type":[0,0,0,0,0,0,0,0,0],"sum_hessian":[1.27E2,1.01E2,2.6E1,5.5E1,4.6E1,3.7E1,1.8E1,1.3E1,3.3E1],"tree_param":{"num_deleted":"0","num_feature":"43","num_nodes":"9","size_leaf_vector":"1"}},{"base_weights":[-0E0],"categories":[],"categories_nodes":[],"categories_segments":[],"categories_sizes":[],"default_left":[0],"id":69,"left_children":[-1],"loss_changes":[0E0],"parents":[2147483647],"right_children":[-1],"split_conditions":[-0E0],"split_indices":[0],"split_type":[0],"sum_hessian":[1.22E2],"tree_param":{"num_deleted":"0","num_feature":"43","num_nodes":"1","size_leaf_vector":"1"}},{"base_weights":[-1.4031272E-2,-7.1471967E-3,-0E0,-3.6752913E-2,5.855592E-3,2.5326926E-3,-1.18269674E-1,-1.1655028E-2,-0E0],"categories":[],"categories_nodes":[],"categories_segments":[],"categories_sizes":[],"default_left":[0,0,0,0,0,0,0,0,0],"id":70,"left_children":[1,-1,3,5,-1,-1,7,-1,-1],"loss_changes":[3.2553878E-1,0E0,4.7227404E-1,6.1001873E-1,0E0,0E0,3.9549428E-1,0E0,0E0],"parents":[2147483647,0,0,2,2,3,3,6,6],"right_children":[2,-1,4,6,-1,-1,8,-1,-1],"split_conditions":[-3.242217E0,-7.1471967E-3,9E0,5.412194E0,5.855592E-3,2.5326926E-3,1.0666059E-1,-1.1655028E-2,-0E0],"split_indices":[3,0,8,26,0,0,6,0,0],"split_type":[0,0,0,0,0,0,0,0,0],"sum_hessian":[1.26E2,2.1E1,1.05E2,7E1,3.5E1,2.6E1,4.4E1,2.4E1,2E1],"tree_param":{"num_deleted":"0","num_feature":"43","num_nodes":"9","size_leaf_vector":"1"}},{"base_weights":[4.9183546E-3,-4.8458492E-4,9.712333E-3],"categories":[],"categories_nodes":[],"categories_segments":[],"categories_sizes":[],"default_left":[0,0,0],"id":71,"left_children":[1,-1,-1],"loss_changes":[5.163014E-1,0E0,0E0],"parents":[2147483647,0,0],"right_children":[2,-1,-1],"split_conditions":[-1.5843511E0,-4.8458492E-4,9.712333E-3],"split_indices":[3,0,0],"split_type":[0,0,0],"sum_hessian":[1.2E2,1.04E2,1.6E1],"tree_param":{"num_deleted":"0","num_feature":"43","num_nodes":"3","size_leaf_vector":"1"}},{"base_weights":[-0E0],"categories":[],"categories_nodes":[],"categories_segments":[],"categories_sizes":[],"default_left":[0],"id":72,"left_children":[-1],"loss_changes":[0E0],"parents":[2147483647],"right_children":[-1],"split_conditions":[-0E0],"split_indices":[0],"split_type":[0],"sum_hessian":[1.22E2],"tree_param":{"num_deleted":"0","num_feature":"43","num_nodes":"1","size_leaf_vector":"1"}},{"base_weights":[-0E0],"categories":[],"categories_nodes":[],"categories_segments":[],"categories_sizes":[],"default_left":[0],"id":73,"left_children":[-1],"loss_changes":[0E0],"parents":[2147483647],"right_children":[-1],"split_conditions":[-0E0],"split_indices":[0],"split_type":[0],"sum_hessian":[1.21E2],"tree_param":{"num_deleted":"0","num_feature":"43","num_nodes":"1","size_leaf_vector":"1"}},{"base_weights":[3.4500586E-3,4.906068E-3,-8.548374E-4],"categories":[],"categories_nodes":[],"categories_segments":[],"categories_sizes":[],"default_left":[0,0,0],"id":74,"left_children":[1,-1,-1],"loss_changes":[2.8543457E-1,0E0,0E0],"parents":[2147483647,0,0],"right_children":[2,-1,-1],"split_conditions":[1E0,4.906068E-3,-8.548374E-4],"split_indices":[37,0,0],"split_type":[0,0,0],"sum_hessian":[1.16E2,3.6E1,8E1],"tree_param":{"num_deleted":"0","num_feature":"43","num_nodes":"3","size_leaf_vector":"1"}},{"base_weights":[-0E0,-8.242293E-2,1.1532379E-3,-8.5993735E-3,-0E0],"categories":[],"categories_nodes":[],"categories_segments":[],"categories_sizes":[],"default_left":[0,0,0,0,0],"id":75,"left_children":[1,3,-1,-1,-1],"loss_changes":[2.9375824E-1,3.3621582E-1,0E0,0E0,0E0],"parents":[2147483647,0,0,1,1],"right_children":[2,4,-1,-1,-1],"split_conditions":[9.256E3,2E2,1.1532379E-3,-8.5993735E-3,-0E0],"split_indices":[13,16,0,0,0],"split_type":[0,0,0,0,0],"sum_hessian":[1.28E2,3.5E1,9.3E1,2.5E1,1E1],"tree_param":{"num_deleted":"0","num_feature":"43","num_nodes":"5","size_leaf_vector":"1"}},{"base_weights":[-0E0,-4.6732915E-3,2.1894712E-3],"categories":[],"categories_nodes":[],"categories_segments":[],"categories_sizes":[],"default_left":[0,0,0],"id":76,"left_children":[1,-1,-1],"loss_changes":[3.9666235E-1,0E0,0E0],"parents":[2147483647,0,0],"right_children":[2,-1,-1],"split_conditions":[-2.1862347E0,-4.6732915E-3,2.1894712E-3],"split_indices":[1,0,0],"split_type":[0,0,0],"sum_hessian":[1.22E2,4.2E1,8E1],"tree_param":{"num_deleted":"0","num_feature":"43","num_nodes":"3","size_leaf_vector":"1"}},{"base_weights":[-3.3078117E-3,-7.475049E-2,2.7347863E-2,-1.1976002E-1,-0E0,8.01913E-3,-0E0,-1.032458E-2,-0E0],"categories":[],"categories_nodes":[],"categories_segments":[],"categories_sizes":[],"default_left":[0,0,0,0,0,0,0,0,0],"id":77,"left_children":[1,3,5,7,-1,-1,-1,-1,-1],"loss_changes":[3.7580794E-1,2.9677233E-1,3.078972E-1,3.944288E-1,0E0,0E0,0E0,0E0,0E0],"parents":[2147483647,0,0,1,1,2,2,3,3],"right_children":[2,4,6,8,-1,-1,-1,-1,-1],"split_conditions":[1.6931666E3,-1.392346E0,2.202E3,1.6638593E3,-0E0,8.01913E-3,-0E0,-1.032458E-2,-0E0],"split_indices":[24,2,24,15,0,0,0,0,0],"split_type":[0,0,0,0,0,0,0,0,0],"sum_hessian":[1.31E2,5.4E1,7.7E1,4E1,1.4E1,1.7E1,6E1,3E1,1E1],"tree_param":{"num_deleted":"0","num_feature":"43","num_nodes":"9","size_leaf_vector":"1"}},{"base_weights":[2.2774694E-2,-0E0,1.1170819E-2],"categories":[],"categories_nodes":[],"categories_segments":[],"categories_sizes":[],"default_left":[0,0,0],"id":78,"left_children":[1,-1,-1],"loss_changes":[5.031689E-1,0E0,0E0],"parents":[2147483647,0,0],"right_children":[2,-1,-1],"split_conditions":[-1.3285444E0,-0E0,1.1170819E-2],"split_indices":[3,0,0],"split_type":[0,0,0],"sum_hessian":[1.25E2,1.12E2,1.3E1],"tree_param":{"num_deleted":"0","num_feature":"43","num_nodes":"3","size_leaf_vector":"1"}},{"base_weights":[-0E0],"categories":[],"categories_nodes":[],"categories_segments":[],"categories_sizes":[],"default_left":[0],"id":79,"left_children":[-1],"loss_changes":[0E0],"parents":[2147483647],"right_children":[-1],"split_conditions":[-0E0],"split_indices":[0],"split_type":[0],"sum_hessian":[1.3E2],"tree_param":{"num_deleted":"0","num_feature":"43","num_nodes":"1","size_leaf_vector":"1"}},{"base_weights":[-0E0],"categories":[],"categories_nodes":[],"categories_segments":[],"categories_sizes":[],"default_left":[0],"id":80,"left_children":[-1],"loss_changes":[0E0],"parents":[2147483647],"right_children":[-1],"split_conditions":[-0E0],"split_indices":[0],"split_type":[0],"sum_hessian":[1.25E2],"tree_param":{"num_deleted":"0","num_feature":"43","num_nodes":"1","size_leaf_vector":"1"}},{"base_weights":[-0E0],"categories":[],"categories_nodes":[],"categories_segments":[],"categories_sizes":[],"default_left":[0],"id":81,"left_children":[-1],"loss_changes":[0E0],"parents":[2147483647],"right_children":[-1],"split_conditions":[-0E0],"split_indices":[0],"split_type":[0],"sum_hessian":[1.24E2],"tree_param":{"num_deleted":"0","num_feature":"43","num_nodes":"1","size_leaf_vector":"1"}},{"base_weights":[-0E0],"categories":[],"categories_nodes":[],"categories_segments":[],"categories_sizes":[],"default_left":[0],"id":82,"left_children":[-1],"loss_changes":[0E0],"parents":[2147483647],"right_children":[-1],"split_conditions":[-0E0],"split_indices":[0],"split_type":[0],"sum_hessian":[1.21E2],"tree_param":{"num_deleted":"0","num_feature":"43","num_nodes":"1","size_leaf_vector":"1"}}]},"name":"gbtree"},"learner_model_param":{"base_score":"-5.9840286E-1","boost_from_average":"1","num_class":"0","num_feature":"43","num_target":"1"},"objective":{"name":"reg:squarederror","reg_loss_param":{"scale_pos_weight":"1"}}},"version":[2,1,4]}